{
    "reach": {
        "1": [
            2.1360009363293826,
            0.9363291775690445,
            -0.3511234415883916
        ],
        "2": [
            2.1360009363293826,
            0.9363291775690445,
            -0.3511234415883916
        ],
        "3": [
            2.1360009363293826,
            0.9363291775690445,
            -0.3511234415883916
        ],
        "4": [
            2.1360009363293826,
            0.9363291775690445,
            -0.3511234415883916
        ],
        "5": [
            2.0155644370746373,
            0.9922778767136676,
            0.12403473458920855
        ],
        "6": [
            2.6575364531836625,
            0.7525766947068778,
            0.658504607868518
        ],
        "7": [
            2.1360009363293826,
            0.9363291775690445,
            0.3511234415883917
        ],
        "8": [
            2.1360009363293826,
            0.9363291775690445,
            0.3511234415883917
        ],
        "9": [
            2.1360009363293826,
            0.9363291775690445,
            0.3511234415883917
        ],
        "0": [
            2.0155644370746373,
            0.9922778767136676,
            -0.12403473458920843
        ],
        "-": [
            2.0155644370746373,
            0.9922778767136676,
            -0.12403473458920843
        ],
        "=": [
            2.358495283014151,
            0.847998304005088,
            -0.5299989400031799
        ],
        "q": [
            1.0307764064044151,
            0.9701425001453319,
            -0.242535625036333
        ],
        "w": [
            1.0307764064044151,
            0.9701425001453319,
            -0.242535625036333
        ],
        "e": [
            1.0307764064044151,
            0.9701425001453319,
            -0.242535625036333
        ],
        "r": [
            1.0307764064044151,
            0.9701425001453319,
            -0.242535625036333
        ],
        "t": [
            1.25,
            0.7999999999999999,
            0.6000000000000001
        ],
        "y": [
            1.6007810593582121,
            0.6246950475544243,
            0.7808688094430304
        ],
        "u": [
            1.0307764064044151,
            0.9701425001453319,
            0.24253562503633289
        ],
        "i": [
            1.0307764064044151,
            0.9701425001453319,
            0.24253562503633289
        ],
        "o": [
            1.0307764064044151,
            0.9701425001453319,
            0.24253562503633289
        ],
        "p": [
            1.0307764064044151,
            0.9701425001453319,
            0.24253562503633289
        ],
        "[": [
            1.25,
            0.8000000000000002,
            -0.5999999999999999
        ],
        "]": [
            2.0155644370746373,
            0.496138938356834,
            -0.8682431421244591
        ],
        "a": [
            0.0,
            -2.0,
            -2.0
        ],
        "s": [
            0.0,
            -2.0,
            -2.0
        ],
        "d": [
            0.0,
            -2.0,
            -2.0
        ],
        "f": [
            0.0,
            -2.0,
            -2.0
        ],
        "g": [
            1.0,
            0.0,
            1.0
        ],
        "h": [
            1.0,
            0.0,
            1.0
        ],
        "j": [
            0.0,
            -2.0,
            -2.0
        ],
        "k": [
            0.0,
            -2.0,
            -2.0
        ],
        "l": [
            0.0,
            -2.0,
            -2.0
        ],
        ";": [
            0.0,
            -2.0,
            -2.0
        ],
        "'": [
            1.0,
            1.2246467991473532e-16,
            -1.0
        ],
        "z": [
            1.118033988749895,
            -0.8944271909999159,
            0.44721359549995804
        ],
        "x": [
            1.118033988749895,
            -0.8944271909999159,
            0.44721359549995804
        ],
        "c": [
            1.118033988749895,
            -0.8944271909999159,
            0.44721359549995804
        ],
        "v": [
            1.118033988749895,
            -0.8944271909999159,
            0.44721359549995804
        ],
        "b": [
            1.8027756377319946,
            -0.554700196225229,
            0.8320502943378437
        ],
        "n": [
            1.118033988749895,
            -0.8944271909999159,
            0.44721359549995804
        ],
        "m": [
            1.118033988749895,
            -0.8944271909999159,
            -0.4472135954999579
        ],
        ",": [
            1.118033988749895,
            -0.8944271909999159,
            -0.4472135954999579
        ],
        ".": [
            1.118033988749895,
            -0.8944271909999159,
            -0.4472135954999579
        ],
        "/": [
            1.118033988749895,
            -0.8944271909999159,
            -0.4472135954999579
        ],
        " ": [
            0.0,
            -2.0,
            -2.0
        ]
    },
    "bigram": {
        "11": [
            0.0,
            -2.0,
            -2.0
        ],
        "12": [
            2.1360009363293826,
            0.9363291775690445,
            -0.3511234415883916
        ],
        "13": [
            2.1360009363293826,
            0.9363291775690445,
            -0.3511234415883916
        ],
        "14": [
            2.1360009363293826,
            0.9363291775690445,
            -0.3511234415883916
        ],
        "15": [
            2.0155644370746373,
            0.9922778767136676,
            0.12403473458920855
        ],
        "16": [
            2.6575364531836625,
            0.7525766947068778,
            0.658504607868518
        ],
        "17": [
            2.1360009363293826,
            0.9363291775690445,
            0.3511234415883917
        ],
        "18": [
            2.1360009363293826,
            0.9363291775690445,
            0.3511234415883917
        ],
        "19": [
            2.1360009363293826,
            0.9363291775690445,
            0.3511234415883917
        ],
        "10": [
            2.0155644370746373,
            0.9922778767136676,
            -0.12403473458920843
        ],
        "1-": [
            2.0155644370746373,
            0.9922778767136676,
            -0.12403473458920843
        ],
        "1=": [
            2.358495283014151,
            0.847998304005088,
            -0.5299989400031799
        ],
        "1q": [
            1.118033988749895,
            -0.8944271909999159,
            0.44721359549995804
        ],
        "1w": [
            1.0307764064044151,
            0.9701425001453319,
            -0.242535625036333
        ],
        "1e": [
            1.0307764064044151,
            0.9701425001453319,
            -0.242535625036333
        ],
        "1r": [
            1.0307764064044151,
            0.9701425001453319,
            -0.242535625036333
        ],
        "1t": [
            1.25,
            0.7999999999999999,
            0.6000000000000001
        ],
        "1y": [
            1.6007810593582121,
            0.6246950475544243,
            0.7808688094430304
        ],
        "1u": [
            1.0307764064044151,
            0.9701425001453319,
            0.24253562503633289
        ],
        "1i": [
            1.0307764064044151,
            0.9701425001453319,
            0.24253562503633289
        ],
        "1o": [
            1.0307764064044151,
            0.9701425001453319,
            0.24253562503633289
        ],
        "1p": [
            1.0307764064044151,
            0.9701425001453319,
            0.24253562503633289
        ],
        "1[": [
            1.25,
            0.8000000000000002,
            -0.5999999999999999
        ],
        "1]": [
            2.0155644370746373,
            0.496138938356834,
            -0.8682431421244591
        ],
        "1a": [
            2.1360009363293826,
            -0.9363291775690445,
            0.3511234415883917
        ],
        "1s": [
            0.0,
            -2.0,
            -2.0
        ],
        "1d": [
            0.0,
            -2.0,
            -2.0
        ],
        "1f": [
            0.0,
            -2.0,
            -2.0
        ],
        "1g": [
            1.0,
            0.0,
            1.0
        ],
        "1h": [
            1.0,
            0.0,
            1.0
        ],
        "1j": [
            0.0,
            -2.0,
            -2.0
        ],
        "1k": [
            0.0,
            -2.0,
            -2.0
        ],
        "1l": [
            0.0,
            -2.0,
            -2.0
        ],
        "1;": [
            0.0,
            -2.0,
            -2.0
        ],
        "1'": [
            1.0,
            1.2246467991473532e-16,
            -1.0
        ],
        "1z": [
            3.25,
            -0.923076923076923,
            0.3846153846153847
        ],
        "1x": [
            1.118033988749895,
            -0.8944271909999159,
            0.44721359549995804
        ],
        "1c": [
            1.118033988749895,
            -0.8944271909999159,
            0.44721359549995804
        ],
        "1v": [
            1.118033988749895,
            -0.8944271909999159,
            0.44721359549995804
        ],
        "1b": [
            1.8027756377319946,
            -0.554700196225229,
            0.8320502943378437
        ],
        "1n": [
            1.118033988749895,
            -0.8944271909999159,
            0.44721359549995804
        ],
        "1m": [
            1.118033988749895,
            -0.8944271909999159,
            -0.4472135954999579
        ],
        "1,": [
            1.118033988749895,
            -0.8944271909999159,
            -0.4472135954999579
        ],
        "1.": [
            1.118033988749895,
            -0.8944271909999159,
            -0.4472135954999579
        ],
        "1/": [
            1.118033988749895,
            -0.8944271909999159,
            -0.4472135954999579
        ],
        "1 ": [
            0.0,
            -2.0,
            -2.0
        ],
        "21": [
            2.1360009363293826,
            0.9363291775690445,
            -0.3511234415883916
        ],
        "22": [
            0.0,
            -2.0,
            -2.0
        ],
        "23": [
            2.1360009363293826,
            0.9363291775690445,
            -0.3511234415883916
        ],
        "24": [
            2.1360009363293826,
            0.9363291775690445,
            -0.3511234415883916
        ],
        "25": [
            2.0155644370746373,
            0.9922778767136676,
            0.12403473458920855
        ],
        "26": [
            2.6575364531836625,
            0.7525766947068778,
            0.658504607868518
        ],
        "27": [
            2.1360009363293826,
            0.9363291775690445,
            0.3511234415883917
        ],
        "28": [
            2.1360009363293826,
            0.9363291775690445,
            0.3511234415883917
        ],
        "29": [
            2.1360009363293826,
            0.9363291775690445,
            0.3511234415883917
        ],
        "20": [
            2.0155644370746373,
            0.9922778767136676,
            -0.12403473458920843
        ],
        "2-": [
            2.0155644370746373,
            0.9922778767136676,
            -0.12403473458920843
        ],
        "2=": [
            2.358495283014151,
            0.847998304005088,
            -0.5299989400031799
        ],
        "2q": [
            1.0307764064044151,
            0.9701425001453319,
            -0.242535625036333
        ],
        "2w": [
            1.118033988749895,
            -0.8944271909999159,
            0.44721359549995804
        ],
        "2e": [
            1.0307764064044151,
            0.9701425001453319,
            -0.242535625036333
        ],
        "2r": [
            1.0307764064044151,
            0.9701425001453319,
            -0.242535625036333
        ],
        "2t": [
            1.25,
            0.7999999999999999,
            0.6000000000000001
        ],
        "2y": [
            1.6007810593582121,
            0.6246950475544243,
            0.7808688094430304
        ],
        "2u": [
            1.0307764064044151,
            0.9701425001453319,
            0.24253562503633289
        ],
        "2i": [
            1.0307764064044151,
            0.9701425001453319,
            0.24253562503633289
        ],
        "2o": [
            1.0307764064044151,
            0.9701425001453319,
            0.24253562503633289
        ],
        "2p": [
            1.0307764064044151,
            0.9701425001453319,
            0.24253562503633289
        ],
        "2[": [
            1.25,
            0.8000000000000002,
            -0.5999999999999999
        ],
        "2]": [
            2.0155644370746373,
            0.496138938356834,
            -0.8682431421244591
        ],
        "2a": [
            0.0,
            -2.0,
            -2.0
        ],
        "2s": [
            2.1360009363293826,
            -0.9363291775690445,
            0.3511234415883917
        ],
        "2d": [
            0.0,
            -2.0,
            -2.0
        ],
        "2f": [
            0.0,
            -2.0,
            -2.0
        ],
        "2g": [
            1.0,
            0.0,
            1.0
        ],
        "2h": [
            1.0,
            0.0,
            1.0
        ],
        "2j": [
            0.0,
            -2.0,
            -2.0
        ],
        "2k": [
            0.0,
            -2.0,
            -2.0
        ],
        "2l": [
            0.0,
            -2.0,
            -2.0
        ],
        "2;": [
            0.0,
            -2.0,
            -2.0
        ],
        "2'": [
            1.0,
            1.2246467991473532e-16,
            -1.0
        ],
        "2z": [
            1.118033988749895,
            -0.8944271909999159,
            0.44721359549995804
        ],
        "2x": [
            3.25,
            -0.923076923076923,
            0.3846153846153847
        ],
        "2c": [
            1.118033988749895,
            -0.8944271909999159,
            0.44721359549995804
        ],
        "2v": [
            1.118033988749895,
            -0.8944271909999159,
            0.44721359549995804
        ],
        "2b": [
            1.8027756377319946,
            -0.554700196225229,
            0.8320502943378437
        ],
        "2n": [
            1.118033988749895,
            -0.8944271909999159,
            0.44721359549995804
        ],
        "2m": [
            1.118033988749895,
            -0.8944271909999159,
            -0.4472135954999579
        ],
        "2,": [
            1.118033988749895,
            -0.8944271909999159,
            -0.4472135954999579
        ],
        "2.": [
            1.118033988749895,
            -0.8944271909999159,
            -0.4472135954999579
        ],
        "2/": [
            1.118033988749895,
            -0.8944271909999159,
            -0.4472135954999579
        ],
        "2 ": [
            0.0,
            -2.0,
            -2.0
        ],
        "31": [
            2.1360009363293826,
            0.9363291775690445,
            -0.3511234415883916
        ],
        "32": [
            2.1360009363293826,
            0.9363291775690445,
            -0.3511234415883916
        ],
        "33": [
            0.0,
            -2.0,
            -2.0
        ],
        "34": [
            2.1360009363293826,
            0.9363291775690445,
            -0.3511234415883916
        ],
        "35": [
            2.0155644370746373,
            0.9922778767136676,
            0.12403473458920855
        ],
        "36": [
            2.6575364531836625,
            0.7525766947068778,
            0.658504607868518
        ],
        "37": [
            2.1360009363293826,
            0.9363291775690445,
            0.3511234415883917
        ],
        "38": [
            2.1360009363293826,
            0.9363291775690445,
            0.3511234415883917
        ],
        "39": [
            2.1360009363293826,
            0.9363291775690445,
            0.3511234415883917
        ],
        "30": [
            2.0155644370746373,
            0.9922778767136676,
            -0.12403473458920843
        ],
        "3-": [
            2.0155644370746373,
            0.9922778767136676,
            -0.12403473458920843
        ],
        "3=": [
            2.358495283014151,
            0.847998304005088,
            -0.5299989400031799
        ],
        "3q": [
            1.0307764064044151,
            0.9701425001453319,
            -0.242535625036333
        ],
        "3w": [
            1.0307764064044151,
            0.9701425001453319,
            -0.242535625036333
        ],
        "3e": [
            1.118033988749895,
            -0.8944271909999159,
            0.44721359549995804
        ],
        "3r": [
            1.0307764064044151,
            0.9701425001453319,
            -0.242535625036333
        ],
        "3t": [
            1.25,
            0.7999999999999999,
            0.6000000000000001
        ],
        "3y": [
            1.6007810593582121,
            0.6246950475544243,
            0.7808688094430304
        ],
        "3u": [
            1.0307764064044151,
            0.9701425001453319,
            0.24253562503633289
        ],
        "3i": [
            1.0307764064044151,
            0.9701425001453319,
            0.24253562503633289
        ],
        "3o": [
            1.0307764064044151,
            0.9701425001453319,
            0.24253562503633289
        ],
        "3p": [
            1.0307764064044151,
            0.9701425001453319,
            0.24253562503633289
        ],
        "3[": [
            1.25,
            0.8000000000000002,
            -0.5999999999999999
        ],
        "3]": [
            2.0155644370746373,
            0.496138938356834,
            -0.8682431421244591
        ],
        "3a": [
            0.0,
            -2.0,
            -2.0
        ],
        "3s": [
            0.0,
            -2.0,
            -2.0
        ],
        "3d": [
            2.1360009363293826,
            -0.9363291775690445,
            0.3511234415883917
        ],
        "3f": [
            0.0,
            -2.0,
            -2.0
        ],
        "3g": [
            1.0,
            0.0,
            1.0
        ],
        "3h": [
            1.0,
            0.0,
            1.0
        ],
        "3j": [
            0.0,
            -2.0,
            -2.0
        ],
        "3k": [
            0.0,
            -2.0,
            -2.0
        ],
        "3l": [
            0.0,
            -2.0,
            -2.0
        ],
        "3;": [
            0.0,
            -2.0,
            -2.0
        ],
        "3'": [
            1.0,
            1.2246467991473532e-16,
            -1.0
        ],
        "3z": [
            1.118033988749895,
            -0.8944271909999159,
            0.44721359549995804
        ],
        "3x": [
            1.118033988749895,
            -0.8944271909999159,
            0.44721359549995804
        ],
        "3c": [
            3.25,
            -0.923076923076923,
            0.3846153846153847
        ],
        "3v": [
            1.118033988749895,
            -0.8944271909999159,
            0.44721359549995804
        ],
        "3b": [
            1.8027756377319946,
            -0.554700196225229,
            0.8320502943378437
        ],
        "3n": [
            1.118033988749895,
            -0.8944271909999159,
            0.44721359549995804
        ],
        "3m": [
            1.118033988749895,
            -0.8944271909999159,
            -0.4472135954999579
        ],
        "3,": [
            1.118033988749895,
            -0.8944271909999159,
            -0.4472135954999579
        ],
        "3.": [
            1.118033988749895,
            -0.8944271909999159,
            -0.4472135954999579
        ],
        "3/": [
            1.118033988749895,
            -0.8944271909999159,
            -0.4472135954999579
        ],
        "3 ": [
            0.0,
            -2.0,
            -2.0
        ],
        "41": [
            2.1360009363293826,
            0.9363291775690445,
            -0.3511234415883916
        ],
        "42": [
            2.1360009363293826,
            0.9363291775690445,
            -0.3511234415883916
        ],
        "43": [
            2.1360009363293826,
            0.9363291775690445,
            -0.3511234415883916
        ],
        "44": [
            0.0,
            -2.0,
            -2.0
        ],
        "45": [
            1.0,
            0.0,
            1.0
        ],
        "46": [
            2.6575364531836625,
            0.7525766947068778,
            0.658504607868518
        ],
        "47": [
            2.1360009363293826,
            0.9363291775690445,
            0.3511234415883917
        ],
        "48": [
            2.1360009363293826,
            0.9363291775690445,
            0.3511234415883917
        ],
        "49": [
            2.1360009363293826,
            0.9363291775690445,
            0.3511234415883917
        ],
        "40": [
            2.0155644370746373,
            0.9922778767136676,
            -0.12403473458920843
        ],
        "4-": [
            2.0155644370746373,
            0.9922778767136676,
            -0.12403473458920843
        ],
        "4=": [
            2.358495283014151,
            0.847998304005088,
            -0.5299989400031799
        ],
        "4q": [
            1.0307764064044151,
            0.9701425001453319,
            -0.242535625036333
        ],
        "4w": [
            1.0307764064044151,
            0.9701425001453319,
            -0.242535625036333
        ],
        "4e": [
            1.0307764064044151,
            0.9701425001453319,
            -0.242535625036333
        ],
        "4r": [
            1.118033988749895,
            -0.8944271909999159,
            0.44721359549995804
        ],
        "4t": [
            1.8027756377319946,
            -0.554700196225229,
            0.8320502943378437
        ],
        "4y": [
            1.6007810593582121,
            0.6246950475544243,
            0.7808688094430304
        ],
        "4u": [
            1.0307764064044151,
            0.9701425001453319,
            0.24253562503633289
        ],
        "4i": [
            1.0307764064044151,
            0.9701425001453319,
            0.24253562503633289
        ],
        "4o": [
            1.0307764064044151,
            0.9701425001453319,
            0.24253562503633289
        ],
        "4p": [
            1.0307764064044151,
            0.9701425001453319,
            0.24253562503633289
        ],
        "4[": [
            1.25,
            0.8000000000000002,
            -0.5999999999999999
        ],
        "4]": [
            2.0155644370746373,
            0.496138938356834,
            -0.8682431421244591
        ],
        "4a": [
            0.0,
            -2.0,
            -2.0
        ],
        "4s": [
            0.0,
            -2.0,
            -2.0
        ],
        "4d": [
            0.0,
            -2.0,
            -2.0
        ],
        "4f": [
            2.1360009363293826,
            -0.9363291775690445,
            0.3511234415883917
        ],
        "4g": [
            2.6575364531836625,
            -0.7525766947068778,
            0.658504607868518
        ],
        "4h": [
            1.0,
            0.0,
            1.0
        ],
        "4j": [
            0.0,
            -2.0,
            -2.0
        ],
        "4k": [
            0.0,
            -2.0,
            -2.0
        ],
        "4l": [
            0.0,
            -2.0,
            -2.0
        ],
        "4;": [
            0.0,
            -2.0,
            -2.0
        ],
        "4'": [
            1.0,
            1.2246467991473532e-16,
            -1.0
        ],
        "4z": [
            1.118033988749895,
            -0.8944271909999159,
            0.44721359549995804
        ],
        "4x": [
            1.118033988749895,
            -0.8944271909999159,
            0.44721359549995804
        ],
        "4c": [
            1.118033988749895,
            -0.8944271909999159,
            0.44721359549995804
        ],
        "4v": [
            3.25,
            -0.923076923076923,
            0.3846153846153847
        ],
        "4b": [
            3.75,
            -0.7999999999999999,
            0.6000000000000001
        ],
        "4n": [
            1.118033988749895,
            -0.8944271909999159,
            0.44721359549995804
        ],
        "4m": [
            1.118033988749895,
            -0.8944271909999159,
            -0.4472135954999579
        ],
        "4,": [
            1.118033988749895,
            -0.8944271909999159,
            -0.4472135954999579
        ],
        "4.": [
            1.118033988749895,
            -0.8944271909999159,
            -0.4472135954999579
        ],
        "4/": [
            1.118033988749895,
            -0.8944271909999159,
            -0.4472135954999579
        ],
        "4 ": [
            0.0,
            -2.0,
            -2.0
        ],
        "51": [
            2.1360009363293826,
            0.9363291775690445,
            -0.3511234415883916
        ],
        "52": [
            2.1360009363293826,
            0.9363291775690445,
            -0.3511234415883916
        ],
        "53": [
            2.1360009363293826,
            0.9363291775690445,
            -0.3511234415883916
        ],
        "54": [
            1.0,
            1.2246467991473532e-16,
            -1.0
        ],
        "55": [
            0.0,
            -2.0,
            -2.0
        ],
        "56": [
            2.6575364531836625,
            0.7525766947068778,
            0.658504607868518
        ],
        "57": [
            2.1360009363293826,
            0.9363291775690445,
            0.3511234415883917
        ],
        "58": [
            2.1360009363293826,
            0.9363291775690445,
            0.3511234415883917
        ],
        "59": [
            2.1360009363293826,
            0.9363291775690445,
            0.3511234415883917
        ],
        "50": [
            2.0155644370746373,
            0.9922778767136676,
            -0.12403473458920843
        ],
        "5-": [
            2.0155644370746373,
            0.9922778767136676,
            -0.12403473458920843
        ],
        "5=": [
            2.358495283014151,
            0.847998304005088,
            -0.5299989400031799
        ],
        "5q": [
            1.0307764064044151,
            0.9701425001453319,
            -0.242535625036333
        ],
        "5w": [
            1.0307764064044151,
            0.9701425001453319,
            -0.242535625036333
        ],
        "5e": [
            1.0307764064044151,
            0.9701425001453319,
            -0.242535625036333
        ],
        "5r": [
            1.118033988749895,
            -0.8944271909999159,
            -0.4472135954999579
        ],
        "5t": [
            1.118033988749895,
            -0.8944271909999159,
            0.44721359549995804
        ],
        "5y": [
            1.6007810593582121,
            0.6246950475544243,
            0.7808688094430304
        ],
        "5u": [
            1.0307764064044151,
            0.9701425001453319,
            0.24253562503633289
        ],
        "5i": [
            1.0307764064044151,
            0.9701425001453319,
            0.24253562503633289
        ],
        "5o": [
            1.0307764064044151,
            0.9701425001453319,
            0.24253562503633289
        ],
        "5p": [
            1.0307764064044151,
            0.9701425001453319,
            0.24253562503633289
        ],
        "5[": [
            1.25,
            0.8000000000000002,
            -0.5999999999999999
        ],
        "5]": [
            2.0155644370746373,
            0.496138938356834,
            -0.8682431421244591
        ],
        "5a": [
            0.0,
            -2.0,
            -2.0
        ],
        "5s": [
            0.0,
            -2.0,
            -2.0
        ],
        "5d": [
            0.0,
            -2.0,
            -2.0
        ],
        "5f": [
            2.0155644370746373,
            -0.9922778767136676,
            -0.12403473458920843
        ],
        "5g": [
            2.1360009363293826,
            -0.9363291775690445,
            0.3511234415883917
        ],
        "5h": [
            1.0,
            0.0,
            1.0
        ],
        "5j": [
            0.0,
            -2.0,
            -2.0
        ],
        "5k": [
            0.0,
            -2.0,
            -2.0
        ],
        "5l": [
            0.0,
            -2.0,
            -2.0
        ],
        "5;": [
            0.0,
            -2.0,
            -2.0
        ],
        "5'": [
            1.0,
            1.2246467991473532e-16,
            -1.0
        ],
        "5z": [
            1.118033988749895,
            -0.8944271909999159,
            0.44721359549995804
        ],
        "5x": [
            1.118033988749895,
            -0.8944271909999159,
            0.44721359549995804
        ],
        "5c": [
            1.118033988749895,
            -0.8944271909999159,
            0.44721359549995804
        ],
        "5v": [
            3.010398644698074,
            -0.9965457582448796,
            0.08304547985374004
        ],
        "5b": [
            3.25,
            -0.923076923076923,
            0.3846153846153847
        ],
        "5n": [
            1.118033988749895,
            -0.8944271909999159,
            0.44721359549995804
        ],
        "5m": [
            1.118033988749895,
            -0.8944271909999159,
            -0.4472135954999579
        ],
        "5,": [
            1.118033988749895,
            -0.8944271909999159,
            -0.4472135954999579
        ],
        "5.": [
            1.118033988749895,
            -0.8944271909999159,
            -0.4472135954999579
        ],
        "5/": [
            1.118033988749895,
            -0.8944271909999159,
            -0.4472135954999579
        ],
        "5 ": [
            0.0,
            -2.0,
            -2.0
        ],
        "61": [
            2.1360009363293826,
            0.9363291775690445,
            -0.3511234415883916
        ],
        "62": [
            2.1360009363293826,
            0.9363291775690445,
            -0.3511234415883916
        ],
        "63": [
            2.1360009363293826,
            0.9363291775690445,
            -0.3511234415883916
        ],
        "64": [
            2.1360009363293826,
            0.9363291775690445,
            -0.3511234415883916
        ],
        "65": [
            2.0155644370746373,
            0.9922778767136676,
            0.12403473458920855
        ],
        "66": [
            0.0,
            -2.0,
            -2.0
        ],
        "67": [
            1.0,
            1.2246467991473532e-16,
            -1.0
        ],
        "68": [
            2.1360009363293826,
            0.9363291775690445,
            0.3511234415883917
        ],
        "69": [
            2.1360009363293826,
            0.9363291775690445,
            0.3511234415883917
        ],
        "60": [
            2.0155644370746373,
            0.9922778767136676,
            -0.12403473458920843
        ],
        "6-": [
            2.0155644370746373,
            0.9922778767136676,
            -0.12403473458920843
        ],
        "6=": [
            2.358495283014151,
            0.847998304005088,
            -0.5299989400031799
        ],
        "6q": [
            1.0307764064044151,
            0.9701425001453319,
            -0.242535625036333
        ],
        "6w": [
            1.0307764064044151,
            0.9701425001453319,
            -0.242535625036333
        ],
        "6e": [
            1.0307764064044151,
            0.9701425001453319,
            -0.242535625036333
        ],
        "6r": [
            1.0307764064044151,
            0.9701425001453319,
            -0.242535625036333
        ],
        "6t": [
            1.25,
            0.7999999999999999,
            0.6000000000000001
        ],
        "6y": [
            1.118033988749895,
            -0.8944271909999159,
            -0.4472135954999579
        ],
        "6u": [
            1.8027756377319946,
            -0.5547001962252291,
            -0.8320502943378437
        ],
        "6i": [
            1.0307764064044151,
            0.9701425001453319,
            0.24253562503633289
        ],
        "6o": [
            1.0307764064044151,
            0.9701425001453319,
            0.24253562503633289
        ],
        "6p": [
            1.0307764064044151,
            0.9701425001453319,
            0.24253562503633289
        ],
        "6[": [
            1.25,
            0.8000000000000002,
            -0.5999999999999999
        ],
        "6]": [
            2.0155644370746373,
            0.496138938356834,
            -0.8682431421244591
        ],
        "6a": [
            0.0,
            -2.0,
            -2.0
        ],
        "6s": [
            0.0,
            -2.0,
            -2.0
        ],
        "6d": [
            0.0,
            -2.0,
            -2.0
        ],
        "6f": [
            0.0,
            -2.0,
            -2.0
        ],
        "6g": [
            1.0,
            0.0,
            1.0
        ],
        "6h": [
            2.1360009363293826,
            -0.9363291775690445,
            -0.3511234415883916
        ],
        "6j": [
            2.6575364531836625,
            -0.7525766947068778,
            -0.658504607868518
        ],
        "6k": [
            0.0,
            -2.0,
            -2.0
        ],
        "6l": [
            0.0,
            -2.0,
            -2.0
        ],
        "6;": [
            0.0,
            -2.0,
            -2.0
        ],
        "6'": [
            1.0,
            1.2246467991473532e-16,
            -1.0
        ],
        "6z": [
            1.118033988749895,
            -0.8944271909999159,
            0.44721359549995804
        ],
        "6x": [
            1.118033988749895,
            -0.8944271909999159,
            0.44721359549995804
        ],
        "6c": [
            1.118033988749895,
            -0.8944271909999159,
            0.44721359549995804
        ],
        "6v": [
            1.118033988749895,
            -0.8944271909999159,
            0.44721359549995804
        ],
        "6b": [
            1.8027756377319946,
            -0.554700196225229,
            0.8320502943378437
        ],
        "6n": [
            3.25,
            -0.9230769230769231,
            -0.3846153846153846
        ],
        "6m": [
            3.75,
            -0.8000000000000002,
            -0.5999999999999999
        ],
        "6,": [
            1.118033988749895,
            -0.8944271909999159,
            -0.4472135954999579
        ],
        "6.": [
            1.118033988749895,
            -0.8944271909999159,
            -0.4472135954999579
        ],
        "6/": [
            1.118033988749895,
            -0.8944271909999159,
            -0.4472135954999579
        ],
        "6 ": [
            0.0,
            -2.0,
            -2.0
        ],
        "71": [
            2.1360009363293826,
            0.9363291775690445,
            -0.3511234415883916
        ],
        "72": [
            2.1360009363293826,
            0.9363291775690445,
            -0.3511234415883916
        ],
        "73": [
            2.1360009363293826,
            0.9363291775690445,
            -0.3511234415883916
        ],
        "74": [
            2.1360009363293826,
            0.9363291775690445,
            -0.3511234415883916
        ],
        "75": [
            2.0155644370746373,
            0.9922778767136676,
            0.12403473458920855
        ],
        "76": [
            1.0,
            0.0,
            1.0
        ],
        "77": [
            0.0,
            -2.0,
            -2.0
        ],
        "78": [
            2.1360009363293826,
            0.9363291775690445,
            0.3511234415883917
        ],
        "79": [
            2.1360009363293826,
            0.9363291775690445,
            0.3511234415883917
        ],
        "70": [
            2.0155644370746373,
            0.9922778767136676,
            -0.12403473458920843
        ],
        "7-": [
            2.0155644370746373,
            0.9922778767136676,
            -0.12403473458920843
        ],
        "7=": [
            2.358495283014151,
            0.847998304005088,
            -0.5299989400031799
        ],
        "7q": [
            1.0307764064044151,
            0.9701425001453319,
            -0.242535625036333
        ],
        "7w": [
            1.0307764064044151,
            0.9701425001453319,
            -0.242535625036333
        ],
        "7e": [
            1.0307764064044151,
            0.9701425001453319,
            -0.242535625036333
        ],
        "7r": [
            1.0307764064044151,
            0.9701425001453319,
            -0.242535625036333
        ],
        "7t": [
            1.25,
            0.7999999999999999,
            0.6000000000000001
        ],
        "7y": [
            1.118033988749895,
            -0.8944271909999159,
            0.44721359549995804
        ],
        "7u": [
            1.118033988749895,
            -0.8944271909999159,
            -0.4472135954999579
        ],
        "7i": [
            1.0307764064044151,
            0.9701425001453319,
            0.24253562503633289
        ],
        "7o": [
            1.0307764064044151,
            0.9701425001453319,
            0.24253562503633289
        ],
        "7p": [
            1.0307764064044151,
            0.9701425001453319,
            0.24253562503633289
        ],
        "7[": [
            1.25,
            0.8000000000000002,
            -0.5999999999999999
        ],
        "7]": [
            2.0155644370746373,
            0.496138938356834,
            -0.8682431421244591
        ],
        "7a": [
            0.0,
            -2.0,
            -2.0
        ],
        "7s": [
            0.0,
            -2.0,
            -2.0
        ],
        "7d": [
            0.0,
            -2.0,
            -2.0
        ],
        "7f": [
            0.0,
            -2.0,
            -2.0
        ],
        "7g": [
            1.0,
            0.0,
            1.0
        ],
        "7h": [
            2.0155644370746373,
            -0.9922778767136676,
            0.12403473458920855
        ],
        "7j": [
            2.1360009363293826,
            -0.9363291775690445,
            -0.3511234415883916
        ],
        "7k": [
            0.0,
            -2.0,
            -2.0
        ],
        "7l": [
            0.0,
            -2.0,
            -2.0
        ],
        "7;": [
            0.0,
            -2.0,
            -2.0
        ],
        "7'": [
            1.0,
            1.2246467991473532e-16,
            -1.0
        ],
        "7z": [
            1.118033988749895,
            -0.8944271909999159,
            0.44721359549995804
        ],
        "7x": [
            1.118033988749895,
            -0.8944271909999159,
            0.44721359549995804
        ],
        "7c": [
            1.118033988749895,
            -0.8944271909999159,
            0.44721359549995804
        ],
        "7v": [
            1.118033988749895,
            -0.8944271909999159,
            0.44721359549995804
        ],
        "7b": [
            1.8027756377319946,
            -0.554700196225229,
            0.8320502943378437
        ],
        "7n": [
            3.010398644698074,
            -0.9965457582448797,
            -0.08304547985373993
        ],
        "7m": [
            3.25,
            -0.9230769230769231,
            -0.3846153846153846
        ],
        "7,": [
            1.118033988749895,
            -0.8944271909999159,
            -0.4472135954999579
        ],
        "7.": [
            1.118033988749895,
            -0.8944271909999159,
            -0.4472135954999579
        ],
        "7/": [
            1.118033988749895,
            -0.8944271909999159,
            -0.4472135954999579
        ],
        "7 ": [
            0.0,
            -2.0,
            -2.0
        ],
        "81": [
            2.1360009363293826,
            0.9363291775690445,
            -0.3511234415883916
        ],
        "82": [
            2.1360009363293826,
            0.9363291775690445,
            -0.3511234415883916
        ],
        "83": [
            2.1360009363293826,
            0.9363291775690445,
            -0.3511234415883916
        ],
        "84": [
            2.1360009363293826,
            0.9363291775690445,
            -0.3511234415883916
        ],
        "85": [
            2.0155644370746373,
            0.9922778767136676,
            0.12403473458920855
        ],
        "86": [
            2.6575364531836625,
            0.7525766947068778,
            0.658504607868518
        ],
        "87": [
            2.1360009363293826,
            0.9363291775690445,
            0.3511234415883917
        ],
        "88": [
            0.0,
            -2.0,
            -2.0
        ],
        "89": [
            2.1360009363293826,
            0.9363291775690445,
            0.3511234415883917
        ],
        "80": [
            2.0155644370746373,
            0.9922778767136676,
            -0.12403473458920843
        ],
        "8-": [
            2.0155644370746373,
            0.9922778767136676,
            -0.12403473458920843
        ],
        "8=": [
            2.358495283014151,
            0.847998304005088,
            -0.5299989400031799
        ],
        "8q": [
            1.0307764064044151,
            0.9701425001453319,
            -0.242535625036333
        ],
        "8w": [
            1.0307764064044151,
            0.9701425001453319,
            -0.242535625036333
        ],
        "8e": [
            1.0307764064044151,
            0.9701425001453319,
            -0.242535625036333
        ],
        "8r": [
            1.0307764064044151,
            0.9701425001453319,
            -0.242535625036333
        ],
        "8t": [
            1.25,
            0.7999999999999999,
            0.6000000000000001
        ],
        "8y": [
            1.6007810593582121,
            0.6246950475544243,
            0.7808688094430304
        ],
        "8u": [
            1.0307764064044151,
            0.9701425001453319,
            0.24253562503633289
        ],
        "8i": [
            1.118033988749895,
            -0.8944271909999159,
            -0.4472135954999579
        ],
        "8o": [
            1.0307764064044151,
            0.9701425001453319,
            0.24253562503633289
        ],
        "8p": [
            1.0307764064044151,
            0.9701425001453319,
            0.24253562503633289
        ],
        "8[": [
            1.25,
            0.8000000000000002,
            -0.5999999999999999
        ],
        "8]": [
            2.0155644370746373,
            0.496138938356834,
            -0.8682431421244591
        ],
        "8a": [
            0.0,
            -2.0,
            -2.0
        ],
        "8s": [
            0.0,
            -2.0,
            -2.0
        ],
        "8d": [
            0.0,
            -2.0,
            -2.0
        ],
        "8f": [
            0.0,
            -2.0,
            -2.0
        ],
        "8g": [
            1.0,
            0.0,
            1.0
        ],
        "8h": [
            1.0,
            0.0,
            1.0
        ],
        "8j": [
            0.0,
            -2.0,
            -2.0
        ],
        "8k": [
            2.1360009363293826,
            -0.9363291775690445,
            -0.3511234415883916
        ],
        "8l": [
            0.0,
            -2.0,
            -2.0
        ],
        "8;": [
            0.0,
            -2.0,
            -2.0
        ],
        "8'": [
            1.0,
            1.2246467991473532e-16,
            -1.0
        ],
        "8z": [
            1.118033988749895,
            -0.8944271909999159,
            0.44721359549995804
        ],
        "8x": [
            1.118033988749895,
            -0.8944271909999159,
            0.44721359549995804
        ],
        "8c": [
            1.118033988749895,
            -0.8944271909999159,
            0.44721359549995804
        ],
        "8v": [
            1.118033988749895,
            -0.8944271909999159,
            0.44721359549995804
        ],
        "8b": [
            1.8027756377319946,
            -0.554700196225229,
            0.8320502943378437
        ],
        "8n": [
            1.118033988749895,
            -0.8944271909999159,
            0.44721359549995804
        ],
        "8m": [
            1.118033988749895,
            -0.8944271909999159,
            -0.4472135954999579
        ],
        "8,": [
            3.25,
            -0.9230769230769231,
            -0.3846153846153846
        ],
        "8.": [
            1.118033988749895,
            -0.8944271909999159,
            -0.4472135954999579
        ],
        "8/": [
            1.118033988749895,
            -0.8944271909999159,
            -0.4472135954999579
        ],
        "8 ": [
            0.0,
            -2.0,
            -2.0
        ],
        "91": [
            2.1360009363293826,
            0.9363291775690445,
            -0.3511234415883916
        ],
        "92": [
            2.1360009363293826,
            0.9363291775690445,
            -0.3511234415883916
        ],
        "93": [
            2.1360009363293826,
            0.9363291775690445,
            -0.3511234415883916
        ],
        "94": [
            2.1360009363293826,
            0.9363291775690445,
            -0.3511234415883916
        ],
        "95": [
            2.0155644370746373,
            0.9922778767136676,
            0.12403473458920855
        ],
        "96": [
            2.6575364531836625,
            0.7525766947068778,
            0.658504607868518
        ],
        "97": [
            2.1360009363293826,
            0.9363291775690445,
            0.3511234415883917
        ],
        "98": [
            2.1360009363293826,
            0.9363291775690445,
            0.3511234415883917
        ],
        "99": [
            0.0,
            -2.0,
            -2.0
        ],
        "90": [
            2.0155644370746373,
            0.9922778767136676,
            -0.12403473458920843
        ],
        "9-": [
            2.0155644370746373,
            0.9922778767136676,
            -0.12403473458920843
        ],
        "9=": [
            2.358495283014151,
            0.847998304005088,
            -0.5299989400031799
        ],
        "9q": [
            1.0307764064044151,
            0.9701425001453319,
            -0.242535625036333
        ],
        "9w": [
            1.0307764064044151,
            0.9701425001453319,
            -0.242535625036333
        ],
        "9e": [
            1.0307764064044151,
            0.9701425001453319,
            -0.242535625036333
        ],
        "9r": [
            1.0307764064044151,
            0.9701425001453319,
            -0.242535625036333
        ],
        "9t": [
            1.25,
            0.7999999999999999,
            0.6000000000000001
        ],
        "9y": [
            1.6007810593582121,
            0.6246950475544243,
            0.7808688094430304
        ],
        "9u": [
            1.0307764064044151,
            0.9701425001453319,
            0.24253562503633289
        ],
        "9i": [
            1.0307764064044151,
            0.9701425001453319,
            0.24253562503633289
        ],
        "9o": [
            1.118033988749895,
            -0.8944271909999159,
            -0.4472135954999579
        ],
        "9p": [
            1.0307764064044151,
            0.9701425001453319,
            0.24253562503633289
        ],
        "9[": [
            1.25,
            0.8000000000000002,
            -0.5999999999999999
        ],
        "9]": [
            2.0155644370746373,
            0.496138938356834,
            -0.8682431421244591
        ],
        "9a": [
            0.0,
            -2.0,
            -2.0
        ],
        "9s": [
            0.0,
            -2.0,
            -2.0
        ],
        "9d": [
            0.0,
            -2.0,
            -2.0
        ],
        "9f": [
            0.0,
            -2.0,
            -2.0
        ],
        "9g": [
            1.0,
            0.0,
            1.0
        ],
        "9h": [
            1.0,
            0.0,
            1.0
        ],
        "9j": [
            0.0,
            -2.0,
            -2.0
        ],
        "9k": [
            0.0,
            -2.0,
            -2.0
        ],
        "9l": [
            2.1360009363293826,
            -0.9363291775690445,
            -0.3511234415883916
        ],
        "9;": [
            0.0,
            -2.0,
            -2.0
        ],
        "9'": [
            1.0,
            1.2246467991473532e-16,
            -1.0
        ],
        "9z": [
            1.118033988749895,
            -0.8944271909999159,
            0.44721359549995804
        ],
        "9x": [
            1.118033988749895,
            -0.8944271909999159,
            0.44721359549995804
        ],
        "9c": [
            1.118033988749895,
            -0.8944271909999159,
            0.44721359549995804
        ],
        "9v": [
            1.118033988749895,
            -0.8944271909999159,
            0.44721359549995804
        ],
        "9b": [
            1.8027756377319946,
            -0.554700196225229,
            0.8320502943378437
        ],
        "9n": [
            1.118033988749895,
            -0.8944271909999159,
            0.44721359549995804
        ],
        "9m": [
            1.118033988749895,
            -0.8944271909999159,
            -0.4472135954999579
        ],
        "9,": [
            1.118033988749895,
            -0.8944271909999159,
            -0.4472135954999579
        ],
        "9.": [
            3.25,
            -0.9230769230769231,
            -0.3846153846153846
        ],
        "9/": [
            1.118033988749895,
            -0.8944271909999159,
            -0.4472135954999579
        ],
        "9 ": [
            0.0,
            -2.0,
            -2.0
        ],
        "01": [
            2.1360009363293826,
            0.9363291775690445,
            -0.3511234415883916
        ],
        "02": [
            2.1360009363293826,
            0.9363291775690445,
            -0.3511234415883916
        ],
        "03": [
            2.1360009363293826,
            0.9363291775690445,
            -0.3511234415883916
        ],
        "04": [
            2.1360009363293826,
            0.9363291775690445,
            -0.3511234415883916
        ],
        "05": [
            2.0155644370746373,
            0.9922778767136676,
            0.12403473458920855
        ],
        "06": [
            2.6575364531836625,
            0.7525766947068778,
            0.658504607868518
        ],
        "07": [
            2.1360009363293826,
            0.9363291775690445,
            0.3511234415883917
        ],
        "08": [
            2.1360009363293826,
            0.9363291775690445,
            0.3511234415883917
        ],
        "09": [
            2.1360009363293826,
            0.9363291775690445,
            0.3511234415883917
        ],
        "00": [
            0.0,
            -2.0,
            -2.0
        ],
        "0-": [
            0.0,
            -2.0,
            -2.0
        ],
        "0=": [
            1.0,
            1.2246467991473532e-16,
            -1.0
        ],
        "0q": [
            1.0307764064044151,
            0.9701425001453319,
            -0.242535625036333
        ],
        "0w": [
            1.0307764064044151,
            0.9701425001453319,
            -0.242535625036333
        ],
        "0e": [
            1.0307764064044151,
            0.9701425001453319,
            -0.242535625036333
        ],
        "0r": [
            1.0307764064044151,
            0.9701425001453319,
            -0.242535625036333
        ],
        "0t": [
            1.25,
            0.7999999999999999,
            0.6000000000000001
        ],
        "0y": [
            1.6007810593582121,
            0.6246950475544243,
            0.7808688094430304
        ],
        "0u": [
            1.0307764064044151,
            0.9701425001453319,
            0.24253562503633289
        ],
        "0i": [
            1.0307764064044151,
            0.9701425001453319,
            0.24253562503633289
        ],
        "0o": [
            1.0307764064044151,
            0.9701425001453319,
            0.24253562503633289
        ],
        "0p": [
            1.118033988749895,
            -0.8944271909999159,
            0.44721359549995804
        ],
        "0[": [
            1.118033988749895,
            -0.8944271909999159,
            -0.4472135954999579
        ],
        "0]": [
            1.8027756377319946,
            -0.5547001962252291,
            -0.8320502943378437
        ],
        "0a": [
            0.0,
            -2.0,
            -2.0
        ],
        "0s": [
            0.0,
            -2.0,
            -2.0
        ],
        "0d": [
            0.0,
            -2.0,
            -2.0
        ],
        "0f": [
            0.0,
            -2.0,
            -2.0
        ],
        "0g": [
            1.0,
            0.0,
            1.0
        ],
        "0h": [
            1.0,
            0.0,
            1.0
        ],
        "0j": [
            0.0,
            -2.0,
            -2.0
        ],
        "0k": [
            0.0,
            -2.0,
            -2.0
        ],
        "0l": [
            0.0,
            -2.0,
            -2.0
        ],
        "0;": [
            2.0155644370746373,
            -0.9922778767136676,
            0.12403473458920855
        ],
        "0'": [
            2.1360009363293826,
            -0.9363291775690445,
            -0.3511234415883916
        ],
        "0z": [
            1.118033988749895,
            -0.8944271909999159,
            0.44721359549995804
        ],
        "0x": [
            1.118033988749895,
            -0.8944271909999159,
            0.44721359549995804
        ],
        "0c": [
            1.118033988749895,
            -0.8944271909999159,
            0.44721359549995804
        ],
        "0v": [
            1.118033988749895,
            -0.8944271909999159,
            0.44721359549995804
        ],
        "0b": [
            1.8027756377319946,
            -0.554700196225229,
            0.8320502943378437
        ],
        "0n": [
            1.118033988749895,
            -0.8944271909999159,
            0.44721359549995804
        ],
        "0m": [
            1.118033988749895,
            -0.8944271909999159,
            -0.4472135954999579
        ],
        "0,": [
            1.118033988749895,
            -0.8944271909999159,
            -0.4472135954999579
        ],
        "0.": [
            1.118033988749895,
            -0.8944271909999159,
            -0.4472135954999579
        ],
        "0/": [
            3.010398644698074,
            -0.9965457582448797,
            -0.08304547985373993
        ],
        "0 ": [
            0.0,
            -2.0,
            -2.0
        ],
        "-1": [
            2.1360009363293826,
            0.9363291775690445,
            -0.3511234415883916
        ],
        "-2": [
            2.1360009363293826,
            0.9363291775690445,
            -0.3511234415883916
        ],
        "-3": [
            2.1360009363293826,
            0.9363291775690445,
            -0.3511234415883916
        ],
        "-4": [
            2.1360009363293826,
            0.9363291775690445,
            -0.3511234415883916
        ],
        "-5": [
            2.0155644370746373,
            0.9922778767136676,
            0.12403473458920855
        ],
        "-6": [
            2.6575364531836625,
            0.7525766947068778,
            0.658504607868518
        ],
        "-7": [
            2.1360009363293826,
            0.9363291775690445,
            0.3511234415883917
        ],
        "-8": [
            2.1360009363293826,
            0.9363291775690445,
            0.3511234415883917
        ],
        "-9": [
            2.1360009363293826,
            0.9363291775690445,
            0.3511234415883917
        ],
        "-0": [
            0.0,
            -2.0,
            -2.0
        ],
        "--": [
            0.0,
            -2.0,
            -2.0
        ],
        "-=": [
            1.0,
            1.2246467991473532e-16,
            -1.0
        ],
        "-q": [
            1.0307764064044151,
            0.9701425001453319,
            -0.242535625036333
        ],
        "-w": [
            1.0307764064044151,
            0.9701425001453319,
            -0.242535625036333
        ],
        "-e": [
            1.0307764064044151,
            0.9701425001453319,
            -0.242535625036333
        ],
        "-r": [
            1.0307764064044151,
            0.9701425001453319,
            -0.242535625036333
        ],
        "-t": [
            1.25,
            0.7999999999999999,
            0.6000000000000001
        ],
        "-y": [
            1.6007810593582121,
            0.6246950475544243,
            0.7808688094430304
        ],
        "-u": [
            1.0307764064044151,
            0.9701425001453319,
            0.24253562503633289
        ],
        "-i": [
            1.0307764064044151,
            0.9701425001453319,
            0.24253562503633289
        ],
        "-o": [
            1.0307764064044151,
            0.9701425001453319,
            0.24253562503633289
        ],
        "-p": [
            1.118033988749895,
            -0.8944271909999159,
            0.44721359549995804
        ],
        "-[": [
            1.118033988749895,
            -0.8944271909999159,
            -0.4472135954999579
        ],
        "-]": [
            1.8027756377319946,
            -0.5547001962252291,
            -0.8320502943378437
        ],
        "-a": [
            0.0,
            -2.0,
            -2.0
        ],
        "-s": [
            0.0,
            -2.0,
            -2.0
        ],
        "-d": [
            0.0,
            -2.0,
            -2.0
        ],
        "-f": [
            0.0,
            -2.0,
            -2.0
        ],
        "-g": [
            1.0,
            0.0,
            1.0
        ],
        "-h": [
            1.0,
            0.0,
            1.0
        ],
        "-j": [
            0.0,
            -2.0,
            -2.0
        ],
        "-k": [
            0.0,
            -2.0,
            -2.0
        ],
        "-l": [
            0.0,
            -2.0,
            -2.0
        ],
        "-;": [
            2.0155644370746373,
            -0.9922778767136676,
            0.12403473458920855
        ],
        "-'": [
            2.1360009363293826,
            -0.9363291775690445,
            -0.3511234415883916
        ],
        "-z": [
            1.118033988749895,
            -0.8944271909999159,
            0.44721359549995804
        ],
        "-x": [
            1.118033988749895,
            -0.8944271909999159,
            0.44721359549995804
        ],
        "-c": [
            1.118033988749895,
            -0.8944271909999159,
            0.44721359549995804
        ],
        "-v": [
            1.118033988749895,
            -0.8944271909999159,
            0.44721359549995804
        ],
        "-b": [
            1.8027756377319946,
            -0.554700196225229,
            0.8320502943378437
        ],
        "-n": [
            1.118033988749895,
            -0.8944271909999159,
            0.44721359549995804
        ],
        "-m": [
            1.118033988749895,
            -0.8944271909999159,
            -0.4472135954999579
        ],
        "-,": [
            1.118033988749895,
            -0.8944271909999159,
            -0.4472135954999579
        ],
        "-.": [
            1.118033988749895,
            -0.8944271909999159,
            -0.4472135954999579
        ],
        "-/": [
            3.010398644698074,
            -0.9965457582448797,
            -0.08304547985373993
        ],
        "- ": [
            0.0,
            -2.0,
            -2.0
        ],
        "=1": [
            2.1360009363293826,
            0.9363291775690445,
            -0.3511234415883916
        ],
        "=2": [
            2.1360009363293826,
            0.9363291775690445,
            -0.3511234415883916
        ],
        "=3": [
            2.1360009363293826,
            0.9363291775690445,
            -0.3511234415883916
        ],
        "=4": [
            2.1360009363293826,
            0.9363291775690445,
            -0.3511234415883916
        ],
        "=5": [
            2.0155644370746373,
            0.9922778767136676,
            0.12403473458920855
        ],
        "=6": [
            2.6575364531836625,
            0.7525766947068778,
            0.658504607868518
        ],
        "=7": [
            2.1360009363293826,
            0.9363291775690445,
            0.3511234415883917
        ],
        "=8": [
            2.1360009363293826,
            0.9363291775690445,
            0.3511234415883917
        ],
        "=9": [
            2.1360009363293826,
            0.9363291775690445,
            0.3511234415883917
        ],
        "=0": [
            1.0,
            0.0,
            1.0
        ],
        "=-": [
            1.0,
            0.0,
            1.0
        ],
        "==": [
            0.0,
            -2.0,
            -2.0
        ],
        "=q": [
            1.0307764064044151,
            0.9701425001453319,
            -0.242535625036333
        ],
        "=w": [
            1.0307764064044151,
            0.9701425001453319,
            -0.242535625036333
        ],
        "=e": [
            1.0307764064044151,
            0.9701425001453319,
            -0.242535625036333
        ],
        "=r": [
            1.0307764064044151,
            0.9701425001453319,
            -0.242535625036333
        ],
        "=t": [
            1.25,
            0.7999999999999999,
            0.6000000000000001
        ],
        "=y": [
            1.6007810593582121,
            0.6246950475544243,
            0.7808688094430304
        ],
        "=u": [
            1.0307764064044151,
            0.9701425001453319,
            0.24253562503633289
        ],
        "=i": [
            1.0307764064044151,
            0.9701425001453319,
            0.24253562503633289
        ],
        "=o": [
            1.0307764064044151,
            0.9701425001453319,
            0.24253562503633289
        ],
        "=p": [
            1.8027756377319946,
            -0.554700196225229,
            0.8320502943378437
        ],
        "=[": [
            1.118033988749895,
            -0.8944271909999159,
            0.44721359549995804
        ],
        "=]": [
            1.118033988749895,
            -0.8944271909999159,
            -0.4472135954999579
        ],
        "=a": [
            0.0,
            -2.0,
            -2.0
        ],
        "=s": [
            0.0,
            -2.0,
            -2.0
        ],
        "=d": [
            0.0,
            -2.0,
            -2.0
        ],
        "=f": [
            0.0,
            -2.0,
            -2.0
        ],
        "=g": [
            1.0,
            0.0,
            1.0
        ],
        "=h": [
            1.0,
            0.0,
            1.0
        ],
        "=j": [
            0.0,
            -2.0,
            -2.0
        ],
        "=k": [
            0.0,
            -2.0,
            -2.0
        ],
        "=l": [
            0.0,
            -2.0,
            -2.0
        ],
        "=;": [
            2.358495283014151,
            -0.8479983040050879,
            0.52999894000318
        ],
        "='": [
            2.0155644370746373,
            -0.9922778767136676,
            0.12403473458920855
        ],
        "=z": [
            1.118033988749895,
            -0.8944271909999159,
            0.44721359549995804
        ],
        "=x": [
            1.118033988749895,
            -0.8944271909999159,
            0.44721359549995804
        ],
        "=c": [
            1.118033988749895,
            -0.8944271909999159,
            0.44721359549995804
        ],
        "=v": [
            1.118033988749895,
            -0.8944271909999159,
            0.44721359549995804
        ],
        "=b": [
            1.8027756377319946,
            -0.554700196225229,
            0.8320502943378437
        ],
        "=n": [
            1.118033988749895,
            -0.8944271909999159,
            0.44721359549995804
        ],
        "=m": [
            1.118033988749895,
            -0.8944271909999159,
            -0.4472135954999579
        ],
        "=,": [
            1.118033988749895,
            -0.8944271909999159,
            -0.4472135954999579
        ],
        "=.": [
            1.118033988749895,
            -0.8944271909999159,
            -0.4472135954999579
        ],
        "=/": [
            3.092329219213245,
            -0.9701425001453319,
            0.24253562503633289
        ],
        "= ": [
            0.0,
            -2.0,
            -2.0
        ],
        "q1": [
            1.118033988749895,
            0.8944271909999159,
            -0.4472135954999579
        ],
        "q2": [
            2.1360009363293826,
            0.9363291775690445,
            -0.3511234415883916
        ],
        "q3": [
            2.1360009363293826,
            0.9363291775690445,
            -0.3511234415883916
        ],
        "q4": [
            2.1360009363293826,
            0.9363291775690445,
            -0.3511234415883916
        ],
        "q5": [
            2.0155644370746373,
            0.9922778767136676,
            0.12403473458920855
        ],
        "q6": [
            2.6575364531836625,
            0.7525766947068778,
            0.658504607868518
        ],
        "q7": [
            2.1360009363293826,
            0.9363291775690445,
            0.3511234415883917
        ],
        "q8": [
            2.1360009363293826,
            0.9363291775690445,
            0.3511234415883917
        ],
        "q9": [
            2.1360009363293826,
            0.9363291775690445,
            0.3511234415883917
        ],
        "q0": [
            2.0155644370746373,
            0.9922778767136676,
            -0.12403473458920843
        ],
        "q-": [
            2.0155644370746373,
            0.9922778767136676,
            -0.12403473458920843
        ],
        "q=": [
            2.358495283014151,
            0.847998304005088,
            -0.5299989400031799
        ],
        "qq": [
            0.0,
            -2.0,
            -2.0
        ],
        "qw": [
            1.0307764064044151,
            0.9701425001453319,
            -0.242535625036333
        ],
        "qe": [
            1.0307764064044151,
            0.9701425001453319,
            -0.242535625036333
        ],
        "qr": [
            1.0307764064044151,
            0.9701425001453319,
            -0.242535625036333
        ],
        "qt": [
            1.25,
            0.7999999999999999,
            0.6000000000000001
        ],
        "qy": [
            1.6007810593582121,
            0.6246950475544243,
            0.7808688094430304
        ],
        "qu": [
            1.0307764064044151,
            0.9701425001453319,
            0.24253562503633289
        ],
        "qi": [
            1.0307764064044151,
            0.9701425001453319,
            0.24253562503633289
        ],
        "qo": [
            1.0307764064044151,
            0.9701425001453319,
            0.24253562503633289
        ],
        "qp": [
            1.0307764064044151,
            0.9701425001453319,
            0.24253562503633289
        ],
        "q[": [
            1.25,
            0.8000000000000002,
            -0.5999999999999999
        ],
        "q]": [
            2.0155644370746373,
            0.496138938356834,
            -0.8682431421244591
        ],
        "qa": [
            1.0307764064044151,
            -0.9701425001453319,
            0.24253562503633289
        ],
        "qs": [
            0.0,
            -2.0,
            -2.0
        ],
        "qd": [
            0.0,
            -2.0,
            -2.0
        ],
        "qf": [
            0.0,
            -2.0,
            -2.0
        ],
        "qg": [
            1.0,
            0.0,
            1.0
        ],
        "qh": [
            1.0,
            0.0,
            1.0
        ],
        "qj": [
            0.0,
            -2.0,
            -2.0
        ],
        "qk": [
            0.0,
            -2.0,
            -2.0
        ],
        "ql": [
            0.0,
            -2.0,
            -2.0
        ],
        "q;": [
            0.0,
            -2.0,
            -2.0
        ],
        "q'": [
            1.0,
            1.2246467991473532e-16,
            -1.0
        ],
        "qz": [
            2.1360009363293826,
            -0.9363291775690445,
            0.3511234415883917
        ],
        "qx": [
            1.118033988749895,
            -0.8944271909999159,
            0.44721359549995804
        ],
        "qc": [
            1.118033988749895,
            -0.8944271909999159,
            0.44721359549995804
        ],
        "qv": [
            1.118033988749895,
            -0.8944271909999159,
            0.44721359549995804
        ],
        "qb": [
            1.8027756377319946,
            -0.554700196225229,
            0.8320502943378437
        ],
        "qn": [
            1.118033988749895,
            -0.8944271909999159,
            0.44721359549995804
        ],
        "qm": [
            1.118033988749895,
            -0.8944271909999159,
            -0.4472135954999579
        ],
        "q,": [
            1.118033988749895,
            -0.8944271909999159,
            -0.4472135954999579
        ],
        "q.": [
            1.118033988749895,
            -0.8944271909999159,
            -0.4472135954999579
        ],
        "q/": [
            1.118033988749895,
            -0.8944271909999159,
            -0.4472135954999579
        ],
        "q ": [
            0.0,
            -2.0,
            -2.0
        ],
        "w1": [
            2.1360009363293826,
            0.9363291775690445,
            -0.3511234415883916
        ],
        "w2": [
            1.118033988749895,
            0.8944271909999159,
            -0.4472135954999579
        ],
        "w3": [
            2.1360009363293826,
            0.9363291775690445,
            -0.3511234415883916
        ],
        "w4": [
            2.1360009363293826,
            0.9363291775690445,
            -0.3511234415883916
        ],
        "w5": [
            2.0155644370746373,
            0.9922778767136676,
            0.12403473458920855
        ],
        "w6": [
            2.6575364531836625,
            0.7525766947068778,
            0.658504607868518
        ],
        "w7": [
            2.1360009363293826,
            0.9363291775690445,
            0.3511234415883917
        ],
        "w8": [
            2.1360009363293826,
            0.9363291775690445,
            0.3511234415883917
        ],
        "w9": [
            2.1360009363293826,
            0.9363291775690445,
            0.3511234415883917
        ],
        "w0": [
            2.0155644370746373,
            0.9922778767136676,
            -0.12403473458920843
        ],
        "w-": [
            2.0155644370746373,
            0.9922778767136676,
            -0.12403473458920843
        ],
        "w=": [
            2.358495283014151,
            0.847998304005088,
            -0.5299989400031799
        ],
        "wq": [
            1.0307764064044151,
            0.9701425001453319,
            -0.242535625036333
        ],
        "ww": [
            0.0,
            -2.0,
            -2.0
        ],
        "we": [
            1.0307764064044151,
            0.9701425001453319,
            -0.242535625036333
        ],
        "wr": [
            1.0307764064044151,
            0.9701425001453319,
            -0.242535625036333
        ],
        "wt": [
            1.25,
            0.7999999999999999,
            0.6000000000000001
        ],
        "wy": [
            1.6007810593582121,
            0.6246950475544243,
            0.7808688094430304
        ],
        "wu": [
            1.0307764064044151,
            0.9701425001453319,
            0.24253562503633289
        ],
        "wi": [
            1.0307764064044151,
            0.9701425001453319,
            0.24253562503633289
        ],
        "wo": [
            1.0307764064044151,
            0.9701425001453319,
            0.24253562503633289
        ],
        "wp": [
            1.0307764064044151,
            0.9701425001453319,
            0.24253562503633289
        ],
        "w[": [
            1.25,
            0.8000000000000002,
            -0.5999999999999999
        ],
        "w]": [
            2.0155644370746373,
            0.496138938356834,
            -0.8682431421244591
        ],
        "wa": [
            0.0,
            -2.0,
            -2.0
        ],
        "ws": [
            1.0307764064044151,
            -0.9701425001453319,
            0.24253562503633289
        ],
        "wd": [
            0.0,
            -2.0,
            -2.0
        ],
        "wf": [
            0.0,
            -2.0,
            -2.0
        ],
        "wg": [
            1.0,
            0.0,
            1.0
        ],
        "wh": [
            1.0,
            0.0,
            1.0
        ],
        "wj": [
            0.0,
            -2.0,
            -2.0
        ],
        "wk": [
            0.0,
            -2.0,
            -2.0
        ],
        "wl": [
            0.0,
            -2.0,
            -2.0
        ],
        "w;": [
            0.0,
            -2.0,
            -2.0
        ],
        "w'": [
            1.0,
            1.2246467991473532e-16,
            -1.0
        ],
        "wz": [
            1.118033988749895,
            -0.8944271909999159,
            0.44721359549995804
        ],
        "wx": [
            2.1360009363293826,
            -0.9363291775690445,
            0.3511234415883917
        ],
        "wc": [
            1.118033988749895,
            -0.8944271909999159,
            0.44721359549995804
        ],
        "wv": [
            1.118033988749895,
            -0.8944271909999159,
            0.44721359549995804
        ],
        "wb": [
            1.8027756377319946,
            -0.554700196225229,
            0.8320502943378437
        ],
        "wn": [
            1.118033988749895,
            -0.8944271909999159,
            0.44721359549995804
        ],
        "wm": [
            1.118033988749895,
            -0.8944271909999159,
            -0.4472135954999579
        ],
        "w,": [
            1.118033988749895,
            -0.8944271909999159,
            -0.4472135954999579
        ],
        "w.": [
            1.118033988749895,
            -0.8944271909999159,
            -0.4472135954999579
        ],
        "w/": [
            1.118033988749895,
            -0.8944271909999159,
            -0.4472135954999579
        ],
        "w ": [
            0.0,
            -2.0,
            -2.0
        ],
        "e1": [
            2.1360009363293826,
            0.9363291775690445,
            -0.3511234415883916
        ],
        "e2": [
            2.1360009363293826,
            0.9363291775690445,
            -0.3511234415883916
        ],
        "e3": [
            1.118033988749895,
            0.8944271909999159,
            -0.4472135954999579
        ],
        "e4": [
            2.1360009363293826,
            0.9363291775690445,
            -0.3511234415883916
        ],
        "e5": [
            2.0155644370746373,
            0.9922778767136676,
            0.12403473458920855
        ],
        "e6": [
            2.6575364531836625,
            0.7525766947068778,
            0.658504607868518
        ],
        "e7": [
            2.1360009363293826,
            0.9363291775690445,
            0.3511234415883917
        ],
        "e8": [
            2.1360009363293826,
            0.9363291775690445,
            0.3511234415883917
        ],
        "e9": [
            2.1360009363293826,
            0.9363291775690445,
            0.3511234415883917
        ],
        "e0": [
            2.0155644370746373,
            0.9922778767136676,
            -0.12403473458920843
        ],
        "e-": [
            2.0155644370746373,
            0.9922778767136676,
            -0.12403473458920843
        ],
        "e=": [
            2.358495283014151,
            0.847998304005088,
            -0.5299989400031799
        ],
        "eq": [
            1.0307764064044151,
            0.9701425001453319,
            -0.242535625036333
        ],
        "ew": [
            1.0307764064044151,
            0.9701425001453319,
            -0.242535625036333
        ],
        "ee": [
            0.0,
            -2.0,
            -2.0
        ],
        "er": [
            1.0307764064044151,
            0.9701425001453319,
            -0.242535625036333
        ],
        "et": [
            1.25,
            0.7999999999999999,
            0.6000000000000001
        ],
        "ey": [
            1.6007810593582121,
            0.6246950475544243,
            0.7808688094430304
        ],
        "eu": [
            1.0307764064044151,
            0.9701425001453319,
            0.24253562503633289
        ],
        "ei": [
            1.0307764064044151,
            0.9701425001453319,
            0.24253562503633289
        ],
        "eo": [
            1.0307764064044151,
            0.9701425001453319,
            0.24253562503633289
        ],
        "ep": [
            1.0307764064044151,
            0.9701425001453319,
            0.24253562503633289
        ],
        "e[": [
            1.25,
            0.8000000000000002,
            -0.5999999999999999
        ],
        "e]": [
            2.0155644370746373,
            0.496138938356834,
            -0.8682431421244591
        ],
        "ea": [
            0.0,
            -2.0,
            -2.0
        ],
        "es": [
            0.0,
            -2.0,
            -2.0
        ],
        "ed": [
            1.0307764064044151,
            -0.9701425001453319,
            0.24253562503633289
        ],
        "ef": [
            0.0,
            -2.0,
            -2.0
        ],
        "eg": [
            1.0,
            0.0,
            1.0
        ],
        "eh": [
            1.0,
            0.0,
            1.0
        ],
        "ej": [
            0.0,
            -2.0,
            -2.0
        ],
        "ek": [
            0.0,
            -2.0,
            -2.0
        ],
        "el": [
            0.0,
            -2.0,
            -2.0
        ],
        "e;": [
            0.0,
            -2.0,
            -2.0
        ],
        "e'": [
            1.0,
            1.2246467991473532e-16,
            -1.0
        ],
        "ez": [
            1.118033988749895,
            -0.8944271909999159,
            0.44721359549995804
        ],
        "ex": [
            1.118033988749895,
            -0.8944271909999159,
            0.44721359549995804
        ],
        "ec": [
            2.1360009363293826,
            -0.9363291775690445,
            0.3511234415883917
        ],
        "ev": [
            1.118033988749895,
            -0.8944271909999159,
            0.44721359549995804
        ],
        "eb": [
            1.8027756377319946,
            -0.554700196225229,
            0.8320502943378437
        ],
        "en": [
            1.118033988749895,
            -0.8944271909999159,
            0.44721359549995804
        ],
        "em": [
            1.118033988749895,
            -0.8944271909999159,
            -0.4472135954999579
        ],
        "e,": [
            1.118033988749895,
            -0.8944271909999159,
            -0.4472135954999579
        ],
        "e.": [
            1.118033988749895,
            -0.8944271909999159,
            -0.4472135954999579
        ],
        "e/": [
            1.118033988749895,
            -0.8944271909999159,
            -0.4472135954999579
        ],
        "e ": [
            0.0,
            -2.0,
            -2.0
        ],
        "r1": [
            2.1360009363293826,
            0.9363291775690445,
            -0.3511234415883916
        ],
        "r2": [
            2.1360009363293826,
            0.9363291775690445,
            -0.3511234415883916
        ],
        "r3": [
            2.1360009363293826,
            0.9363291775690445,
            -0.3511234415883916
        ],
        "r4": [
            1.118033988749895,
            0.8944271909999159,
            -0.4472135954999579
        ],
        "r5": [
            1.118033988749895,
            0.8944271909999159,
            0.44721359549995804
        ],
        "r6": [
            2.6575364531836625,
            0.7525766947068778,
            0.658504607868518
        ],
        "r7": [
            2.1360009363293826,
            0.9363291775690445,
            0.3511234415883917
        ],
        "r8": [
            2.1360009363293826,
            0.9363291775690445,
            0.3511234415883917
        ],
        "r9": [
            2.1360009363293826,
            0.9363291775690445,
            0.3511234415883917
        ],
        "r0": [
            2.0155644370746373,
            0.9922778767136676,
            -0.12403473458920843
        ],
        "r-": [
            2.0155644370746373,
            0.9922778767136676,
            -0.12403473458920843
        ],
        "r=": [
            2.358495283014151,
            0.847998304005088,
            -0.5299989400031799
        ],
        "rq": [
            1.0307764064044151,
            0.9701425001453319,
            -0.242535625036333
        ],
        "rw": [
            1.0307764064044151,
            0.9701425001453319,
            -0.242535625036333
        ],
        "re": [
            1.0307764064044151,
            0.9701425001453319,
            -0.242535625036333
        ],
        "rr": [
            0.0,
            -2.0,
            -2.0
        ],
        "rt": [
            1.0,
            0.0,
            1.0
        ],
        "ry": [
            1.6007810593582121,
            0.6246950475544243,
            0.7808688094430304
        ],
        "ru": [
            1.0307764064044151,
            0.9701425001453319,
            0.24253562503633289
        ],
        "ri": [
            1.0307764064044151,
            0.9701425001453319,
            0.24253562503633289
        ],
        "ro": [
            1.0307764064044151,
            0.9701425001453319,
            0.24253562503633289
        ],
        "rp": [
            1.0307764064044151,
            0.9701425001453319,
            0.24253562503633289
        ],
        "r[": [
            1.25,
            0.8000000000000002,
            -0.5999999999999999
        ],
        "r]": [
            2.0155644370746373,
            0.496138938356834,
            -0.8682431421244591
        ],
        "ra": [
            0.0,
            -2.0,
            -2.0
        ],
        "rs": [
            0.0,
            -2.0,
            -2.0
        ],
        "rd": [
            0.0,
            -2.0,
            -2.0
        ],
        "rf": [
            1.0307764064044151,
            -0.9701425001453319,
            0.24253562503633289
        ],
        "rg": [
            1.6007810593582121,
            -0.6246950475544243,
            0.7808688094430304
        ],
        "rh": [
            1.0,
            0.0,
            1.0
        ],
        "rj": [
            0.0,
            -2.0,
            -2.0
        ],
        "rk": [
            0.0,
            -2.0,
            -2.0
        ],
        "rl": [
            0.0,
            -2.0,
            -2.0
        ],
        "r;": [
            0.0,
            -2.0,
            -2.0
        ],
        "r'": [
            1.0,
            1.2246467991473532e-16,
            -1.0
        ],
        "rz": [
            1.118033988749895,
            -0.8944271909999159,
            0.44721359549995804
        ],
        "rx": [
            1.118033988749895,
            -0.8944271909999159,
            0.44721359549995804
        ],
        "rc": [
            1.118033988749895,
            -0.8944271909999159,
            0.44721359549995804
        ],
        "rv": [
            2.1360009363293826,
            -0.9363291775690445,
            0.3511234415883917
        ],
        "rb": [
            2.6575364531836625,
            -0.7525766947068778,
            0.658504607868518
        ],
        "rn": [
            1.118033988749895,
            -0.8944271909999159,
            0.44721359549995804
        ],
        "rm": [
            1.118033988749895,
            -0.8944271909999159,
            -0.4472135954999579
        ],
        "r,": [
            1.118033988749895,
            -0.8944271909999159,
            -0.4472135954999579
        ],
        "r.": [
            1.118033988749895,
            -0.8944271909999159,
            -0.4472135954999579
        ],
        "r/": [
            1.118033988749895,
            -0.8944271909999159,
            -0.4472135954999579
        ],
        "r ": [
            0.0,
            -2.0,
            -2.0
        ],
        "t1": [
            2.1360009363293826,
            0.9363291775690445,
            -0.3511234415883916
        ],
        "t2": [
            2.1360009363293826,
            0.9363291775690445,
            -0.3511234415883916
        ],
        "t3": [
            2.1360009363293826,
            0.9363291775690445,
            -0.3511234415883916
        ],
        "t4": [
            1.8027756377319946,
            0.5547001962252291,
            -0.8320502943378437
        ],
        "t5": [
            1.118033988749895,
            0.8944271909999159,
            -0.4472135954999579
        ],
        "t6": [
            2.6575364531836625,
            0.7525766947068778,
            0.658504607868518
        ],
        "t7": [
            2.1360009363293826,
            0.9363291775690445,
            0.3511234415883917
        ],
        "t8": [
            2.1360009363293826,
            0.9363291775690445,
            0.3511234415883917
        ],
        "t9": [
            2.1360009363293826,
            0.9363291775690445,
            0.3511234415883917
        ],
        "t0": [
            2.0155644370746373,
            0.9922778767136676,
            -0.12403473458920843
        ],
        "t-": [
            2.0155644370746373,
            0.9922778767136676,
            -0.12403473458920843
        ],
        "t=": [
            2.358495283014151,
            0.847998304005088,
            -0.5299989400031799
        ],
        "tq": [
            1.0307764064044151,
            0.9701425001453319,
            -0.242535625036333
        ],
        "tw": [
            1.0307764064044151,
            0.9701425001453319,
            -0.242535625036333
        ],
        "te": [
            1.0307764064044151,
            0.9701425001453319,
            -0.242535625036333
        ],
        "tr": [
            1.0,
            1.2246467991473532e-16,
            -1.0
        ],
        "tt": [
            0.0,
            -2.0,
            -2.0
        ],
        "ty": [
            1.6007810593582121,
            0.6246950475544243,
            0.7808688094430304
        ],
        "tu": [
            1.0307764064044151,
            0.9701425001453319,
            0.24253562503633289
        ],
        "ti": [
            1.0307764064044151,
            0.9701425001453319,
            0.24253562503633289
        ],
        "to": [
            1.0307764064044151,
            0.9701425001453319,
            0.24253562503633289
        ],
        "tp": [
            1.0307764064044151,
            0.9701425001453319,
            0.24253562503633289
        ],
        "t[": [
            1.25,
            0.8000000000000002,
            -0.5999999999999999
        ],
        "t]": [
            2.0155644370746373,
            0.496138938356834,
            -0.8682431421244591
        ],
        "ta": [
            0.0,
            -2.0,
            -2.0
        ],
        "ts": [
            0.0,
            -2.0,
            -2.0
        ],
        "td": [
            0.0,
            -2.0,
            -2.0
        ],
        "tf": [
            1.25,
            -0.8000000000000002,
            -0.5999999999999999
        ],
        "tg": [
            1.0307764064044151,
            -0.9701425001453319,
            0.24253562503633289
        ],
        "th": [
            1.0,
            0.0,
            1.0
        ],
        "tj": [
            0.0,
            -2.0,
            -2.0
        ],
        "tk": [
            0.0,
            -2.0,
            -2.0
        ],
        "tl": [
            0.0,
            -2.0,
            -2.0
        ],
        "t;": [
            0.0,
            -2.0,
            -2.0
        ],
        "t'": [
            1.0,
            1.2246467991473532e-16,
            -1.0
        ],
        "tz": [
            1.118033988749895,
            -0.8944271909999159,
            0.44721359549995804
        ],
        "tx": [
            1.118033988749895,
            -0.8944271909999159,
            0.44721359549995804
        ],
        "tc": [
            1.118033988749895,
            -0.8944271909999159,
            0.44721359549995804
        ],
        "tv": [
            2.0155644370746373,
            -0.9922778767136676,
            -0.12403473458920843
        ],
        "tb": [
            2.1360009363293826,
            -0.9363291775690445,
            0.3511234415883917
        ],
        "tn": [
            1.118033988749895,
            -0.8944271909999159,
            0.44721359549995804
        ],
        "tm": [
            1.118033988749895,
            -0.8944271909999159,
            -0.4472135954999579
        ],
        "t,": [
            1.118033988749895,
            -0.8944271909999159,
            -0.4472135954999579
        ],
        "t.": [
            1.118033988749895,
            -0.8944271909999159,
            -0.4472135954999579
        ],
        "t/": [
            1.118033988749895,
            -0.8944271909999159,
            -0.4472135954999579
        ],
        "t ": [
            0.0,
            -2.0,
            -2.0
        ],
        "y1": [
            2.1360009363293826,
            0.9363291775690445,
            -0.3511234415883916
        ],
        "y2": [
            2.1360009363293826,
            0.9363291775690445,
            -0.3511234415883916
        ],
        "y3": [
            2.1360009363293826,
            0.9363291775690445,
            -0.3511234415883916
        ],
        "y4": [
            2.1360009363293826,
            0.9363291775690445,
            -0.3511234415883916
        ],
        "y5": [
            2.0155644370746373,
            0.9922778767136676,
            0.12403473458920855
        ],
        "y6": [
            1.118033988749895,
            0.8944271909999159,
            0.44721359549995804
        ],
        "y7": [
            1.118033988749895,
            0.8944271909999159,
            -0.4472135954999579
        ],
        "y8": [
            2.1360009363293826,
            0.9363291775690445,
            0.3511234415883917
        ],
        "y9": [
            2.1360009363293826,
            0.9363291775690445,
            0.3511234415883917
        ],
        "y0": [
            2.0155644370746373,
            0.9922778767136676,
            -0.12403473458920843
        ],
        "y-": [
            2.0155644370746373,
            0.9922778767136676,
            -0.12403473458920843
        ],
        "y=": [
            2.358495283014151,
            0.847998304005088,
            -0.5299989400031799
        ],
        "yq": [
            1.0307764064044151,
            0.9701425001453319,
            -0.242535625036333
        ],
        "yw": [
            1.0307764064044151,
            0.9701425001453319,
            -0.242535625036333
        ],
        "ye": [
            1.0307764064044151,
            0.9701425001453319,
            -0.242535625036333
        ],
        "yr": [
            1.0307764064044151,
            0.9701425001453319,
            -0.242535625036333
        ],
        "yt": [
            1.25,
            0.7999999999999999,
            0.6000000000000001
        ],
        "yy": [
            0.0,
            -2.0,
            -2.0
        ],
        "yu": [
            1.0,
            1.2246467991473532e-16,
            -1.0
        ],
        "yi": [
            1.0307764064044151,
            0.9701425001453319,
            0.24253562503633289
        ],
        "yo": [
            1.0307764064044151,
            0.9701425001453319,
            0.24253562503633289
        ],
        "yp": [
            1.0307764064044151,
            0.9701425001453319,
            0.24253562503633289
        ],
        "y[": [
            1.25,
            0.8000000000000002,
            -0.5999999999999999
        ],
        "y]": [
            2.0155644370746373,
            0.496138938356834,
            -0.8682431421244591
        ],
        "ya": [
            0.0,
            -2.0,
            -2.0
        ],
        "ys": [
            0.0,
            -2.0,
            -2.0
        ],
        "yd": [
            0.0,
            -2.0,
            -2.0
        ],
        "yf": [
            0.0,
            -2.0,
            -2.0
        ],
        "yg": [
            1.0,
            0.0,
            1.0
        ],
        "yh": [
            1.0307764064044151,
            -0.9701425001453319,
            -0.242535625036333
        ],
        "yj": [
            1.6007810593582121,
            -0.6246950475544242,
            -0.7808688094430304
        ],
        "yk": [
            0.0,
            -2.0,
            -2.0
        ],
        "yl": [
            0.0,
            -2.0,
            -2.0
        ],
        "y;": [
            0.0,
            -2.0,
            -2.0
        ],
        "y'": [
            1.0,
            1.2246467991473532e-16,
            -1.0
        ],
        "yz": [
            1.118033988749895,
            -0.8944271909999159,
            0.44721359549995804
        ],
        "yx": [
            1.118033988749895,
            -0.8944271909999159,
            0.44721359549995804
        ],
        "yc": [
            1.118033988749895,
            -0.8944271909999159,
            0.44721359549995804
        ],
        "yv": [
            1.118033988749895,
            -0.8944271909999159,
            0.44721359549995804
        ],
        "yb": [
            1.8027756377319946,
            -0.554700196225229,
            0.8320502943378437
        ],
        "yn": [
            2.1360009363293826,
            -0.9363291775690445,
            -0.3511234415883916
        ],
        "ym": [
            2.6575364531836625,
            -0.7525766947068778,
            -0.658504607868518
        ],
        "y,": [
            1.118033988749895,
            -0.8944271909999159,
            -0.4472135954999579
        ],
        "y.": [
            1.118033988749895,
            -0.8944271909999159,
            -0.4472135954999579
        ],
        "y/": [
            1.118033988749895,
            -0.8944271909999159,
            -0.4472135954999579
        ],
        "y ": [
            0.0,
            -2.0,
            -2.0
        ],
        "u1": [
            2.1360009363293826,
            0.9363291775690445,
            -0.3511234415883916
        ],
        "u2": [
            2.1360009363293826,
            0.9363291775690445,
            -0.3511234415883916
        ],
        "u3": [
            2.1360009363293826,
            0.9363291775690445,
            -0.3511234415883916
        ],
        "u4": [
            2.1360009363293826,
            0.9363291775690445,
            -0.3511234415883916
        ],
        "u5": [
            2.0155644370746373,
            0.9922778767136676,
            0.12403473458920855
        ],
        "u6": [
            1.8027756377319946,
            0.554700196225229,
            0.8320502943378437
        ],
        "u7": [
            1.118033988749895,
            0.8944271909999159,
            0.44721359549995804
        ],
        "u8": [
            2.1360009363293826,
            0.9363291775690445,
            0.3511234415883917
        ],
        "u9": [
            2.1360009363293826,
            0.9363291775690445,
            0.3511234415883917
        ],
        "u0": [
            2.0155644370746373,
            0.9922778767136676,
            -0.12403473458920843
        ],
        "u-": [
            2.0155644370746373,
            0.9922778767136676,
            -0.12403473458920843
        ],
        "u=": [
            2.358495283014151,
            0.847998304005088,
            -0.5299989400031799
        ],
        "uq": [
            1.0307764064044151,
            0.9701425001453319,
            -0.242535625036333
        ],
        "uw": [
            1.0307764064044151,
            0.9701425001453319,
            -0.242535625036333
        ],
        "ue": [
            1.0307764064044151,
            0.9701425001453319,
            -0.242535625036333
        ],
        "ur": [
            1.0307764064044151,
            0.9701425001453319,
            -0.242535625036333
        ],
        "ut": [
            1.25,
            0.7999999999999999,
            0.6000000000000001
        ],
        "uy": [
            1.0,
            0.0,
            1.0
        ],
        "uu": [
            0.0,
            -2.0,
            -2.0
        ],
        "ui": [
            1.0307764064044151,
            0.9701425001453319,
            0.24253562503633289
        ],
        "uo": [
            1.0307764064044151,
            0.9701425001453319,
            0.24253562503633289
        ],
        "up": [
            1.0307764064044151,
            0.9701425001453319,
            0.24253562503633289
        ],
        "u[": [
            1.25,
            0.8000000000000002,
            -0.5999999999999999
        ],
        "u]": [
            2.0155644370746373,
            0.496138938356834,
            -0.8682431421244591
        ],
        "ua": [
            0.0,
            -2.0,
            -2.0
        ],
        "us": [
            0.0,
            -2.0,
            -2.0
        ],
        "ud": [
            0.0,
            -2.0,
            -2.0
        ],
        "uf": [
            0.0,
            -2.0,
            -2.0
        ],
