tree
version=v4
num_class=1
num_tree_per_iteration=1
label_index=0
max_feature_idx=114
objective=regression_l1
feature_names=Column_0 Column_1 Column_2 Column_3 Column_4 Column_5 Column_6 Column_7 Column_8 Column_9 Column_10 Column_11 Column_12 Column_13 Column_14 Column_15 Column_16 Column_17 Column_18 Column_19 Column_20 Column_21 Column_22 Column_23 Column_24 Column_25 Column_26 Column_27 Column_28 Column_29 Column_30 Column_31 Column_32 Column_33 Column_34 Column_35 Column_36 Column_37 Column_38 Column_39 Column_40 Column_41 Column_42 Column_43 Column_44 Column_45 Column_46 Column_47 Column_48 Column_49 Column_50 Column_51 Column_52 Column_53 Column_54 Column_55 Column_56 Column_57 Column_58 Column_59 Column_60 Column_61 Column_62 Column_63 Column_64 Column_65 Column_66 Column_67 Column_68 Column_69 Column_70 Column_71 Column_72 Column_73 Column_74 Column_75 Column_76 Column_77 Column_78 Column_79 Column_80 Column_81 Column_82 Column_83 Column_84 Column_85 Column_86 Column_87 Column_88 Column_89 Column_90 Column_91 Column_92 Column_93 Column_94 Column_95 Column_96 Column_97 Column_98 Column_99 Column_100 Column_101 Column_102 Column_103 Column_104 Column_105 Column_106 Column_107 Column_108 Column_109 Column_110 Column_111 Column_112 Column_113 Column_114
feature_infos=[-1:3.25] [-2:1] [-2:0.99227786064147949] [-5:4.75] [-5:2] [-1:1] [-1:7.4738717079162598] [-1:7.7300000190734863] [-1:1] [-1:1] [-1:1] [-1:1] [-1:1] [-1:1] [-1:1] [-1:1] [-1:1] [-1:66] [-1:15] [-1:16] [-1:1] -1:4:3:6:2:8:1:7:0:9 -1:0:1:2 [-1:2.657536506652832] [-2:1] [-2:0.99227786064147949] [-5:4.75] [-5:2] [-1:1] [-1:7.4738717079162598] [-1:7.7300000190734863] [-1:1] [-1:1] [-1:1] [-1:1] [-1:1] [-1:1] [-1:1] [-1:1] [-1:1] [-1:67] [-1:14] [-1:16] [-1:1] -1:4:3:6:2:8:7:1:0:9 -1:0:1:2 [-1:3.25] [-2:1] [-2:0.99227786064147949] [-1:4.75] [-2:2] [0:1] [-1:7.4738717079162598] [-1:7.429999828338623] [-1:1] [-1:1] [-1:1] [-1:1] [-1:1] [-1:1] [-1:1] [-1:1] [-1:1] [0:68] [-1:15] [-1:16] [-1:1] -1:4:3:6:2:8:7:1:0:9 -1:0:1:2 [-1:3.25] [-2:1] [-2:0.99227786064147949] [-1:4.75] [-2:2] [0:1] [-1:7.3496394157409668] [-1:7.429999828338623] [0:1] [0:1] [0:1] [0:1] [-1:1] [0:1] [0:1] [-1:1] [0:1] [1:69] [-1:15] [-1:16] [-1:1] -1:3:6:4:2:8:1:7:0:9 -1:0:1:2 [-1:3.25] [-2:1] [-2:0.99227786064147949] [-5:4.75] [-5:2] [-1:1] [-1:7.4738717079162598] [-1:7.7300000190734863] [-1:1] [-1:1] [-1:1] [-1:1] [-1:1] [-1:1] [-1:1] [-1:1] [-1:1] [-1:69] [-1:15] [-1:16] [-1:1] -1:4:3:6:2:8:1:7:0:9 -1:0:1:2
tree_sizes=6952 7187 7129 7035 7190 7078 7202 7356 7294 7164 7157 7085 7218 7171 7111 7117 7137 7205 7298 7185 7158 7221 7171 7173 7165 7303 7254 7131 7250 7189 7173 7155 7189 7269 7252 7146 7207 7139 7114 7201 7173 7241 7197 7161 7106 7206 7206 7173 7170 7169 7149 7085 7179 7220 7182 7240 7149 7203 7096 7243 7096 7224 7078 7073 7139 7076 7139 7072 7127 7118 7209 7214 7037 7174 7081 7138 7066 7171 7118 7218 6971 7025 7146 7022 6974 7131 6832 7060 7092 6848 7019 7032 7073 6979 7109 7069 7050 7044 6821 7026 6981 7029 7011 7020 7042 7109 6939 6895 7066 6997 6857 7148 7079 6919 6881 6934 7047 6975 6838 6923 7050 6872 7089 6925 7027 6845 6915 6993 6958 6933 6839 7048 6832 6833 6871 6979 6837 7035 7088 6838 6911 7082 6845 6880 6925 6932 6852 6991 6880 6991 6994 7017 6951 6889 6896 6983 6691 6784 6766 6990 6734 6797 6977 6886 6914 6651 6963 6934 6907 6855 6840 6783 6846 6916 6883 6789 6805 7016 6828 6772 6846 6806 6844 6880 6741 7076 6785 6869 6941 6879 6883 6969 6892 6716 6772 6721 6910 6897 6795 6642 6731 6761 6842 6937 7009 6817 7014 6735 6879 6857 6883 6966 6805 6951 6679 6816 6826 6681 7038 6999 6750 6909 6884 6771 6883 6763 6984 7067 6904 6945 6785 6648 6898 6737 6828 6554 6880 6802 6892 6970 6771 6675 6813 6737 6846 6882 6920 6959 6825 6840 6952 6724 6927 6744 6763 6701 6844 6780 6884 6521 6799 6795 6958 6680 6972 6865 6695 6928 6824 7036 6915 6669 6708 6841 6899 6881 6665 6917 6776 6777 6858 6702 6647 6822 6721 6715 6718 6868

Tree=0
num_leaves=73
num_cat=22
split_feature=53 75 75 46 79 75 77 78 69 75 67 109 67 75 52 79 91 67 71 98 77 53 80 84 47 53 90 67 81 90 78 44 67 78 90 76 49 75 75 53 44 44 69 94 107 46 49 75 90 30 75 52 44 75 104 107 90 30 76 90 75 44 100 44 90 52 90 44 100 77 69 21
split_gain=163605 94415.5 60673.6 40842.9 40154.9 44768.7 28154.1 26590.7 21889 10421.7 8598.41 7392.85 7291.75 11197.2 6354.77 6325.17 5967.71 6806.64 5332.34 5298.48 4637.72 4346.54 4148.88 3762.18 3753.99 3389.7 3013.4 3594.85 2951.48 3113.44 2881.5 2794.23 2791.18 2674.7 2543.13 2496.73 2467.35 2424.27 2413.87 2287.67 2264.48 2235.14 2192.18 2138.62 2056.72 1980.8 1719.8 1645.05 1605.77 1569.67 1530.44 1515.49 1507.87 1467.71 1460.59 1380.57 3015.74 1573.35 1368.57 1356.2 1354.82 1353.79 1346.39 1296.51 1283.81 1937.79 1246.12 1229.43 1216.54 1204.89 1272.88 1173.61
threshold=5.2249999046325692 6.6246678829193124 6.4425883293151864 1.0000000180025095e-35 1.0000000180025095e-35 5.7614052295684823 1.0000000180025095e-35 1.0000000180025095e-35 -1.0000000180025095e-35 6.9888138771057138 0 3.5000000000000004 1 6.8567068576812753 7.258594512939454 1.0000000180025095e-35 2 3 0.95323583483695995 6.2958936691284189 1.0000000180025095e-35 3.6650000810623173 1.0000000180025095e-35 1.0000000180025095e-35 0.18328517675399783 5.9349999427795419 4 5 1.0000000180025095e-35 6 1.0000000180025095e-35 7 8 1.0000000180025095e-35 9 6.3949999809265146 3.3750000000000004 5.9086697101593026 5.7402265071868905 6.1549999713897714 10 11 1.0744051933288576 0.95323583483695995 1.0000000180025095e-35 -1.0000000180025095e-35 3.3750000000000004 5.1517126560211191 12 5.4249999523162851 5.7213096618652353 6.2892661094665536 13 6.4896459579467782 1.0000000180025095e-35 1.0000000180025095e-35 14 6.0750000476837167 5.4149999618530282 15 6.2695419788360605 16 1.0000000180025095e-35 17 18 6.4752988815307626 19 20 1.0000000180025095e-35 1.0000000180025095e-35 -1.0000000180025095e-35 21
decision_type=2 2 2 2 2 2 2 2 2 2 1 2 1 2 2 2 1 1 2 2 2 2 2 2 2 2 1 1 2 1 2 9 1 2 1 2 2 2 2 2 9 9 2 2 2 2 2 2 1 2 2 2 9 2 2 2 1 2 2 1 2 9 2 9 1 2 1 9 2 2 2 9
left_child=2 4 6 12 5 11 8 10 -1 16 20 69 13 28 22 -14 17 31 26 23 40 47 32 42 -18 44 38 -28 29 -4 50 -5 41 45 -22 46 -11 -23 -8 55 -7 -3 -12 -19 52 -13 -15 -10 54 -31 -20 -50 -21 -9 -27 62 -57 -58 -47 -60 -46 -44 -34 -39 -41 -66 -52 -48 -26 70 -2 -43
right_child=1 14 3 9 -6 7 18 53 21 36 19 33 15 35 -16 -17 24 43 30 25 34 37 -24 -25 68 48 27 -29 -30 49 -32 -33 39 -35 -36 -37 -38 63 -40 64 -42 71 61 -45 60 58 67 -49 51 -51 66 -53 -54 -55 -56 56 57 -59 59 -61 -62 -63 -64 -65 65 -67 -68 -69 -70 -71 -72 -73
leaf_value=-0.079617333095701792 -0.15381892080932344 -0.24493936275967182 -0.14328776565904017 -0.24626076946687339 -0.1487569452676738 -0.23507423700006772 -0.10160683881939835 -0.10793915346074695 -0.122742630466839 -0.24840166200807509 -0.23588185285163077 -0.14635962094920207 -0.21646172410748227 -0.22500460304094089 -0.26461716760820542 -0.15380851707221299 -0.21636267064954653 -0.20886953288545235 -0.12379846976372637 -0.24405423668894077 -0.2246040776553726 -0.19949178822824698 -0.2195434085250996 -0.18131999516195257 -0.23242797064396745 -0.2427176338680116 -0.15814688469386554 -0.11303130723729063 -0.16211729871126898 -0.17544098809604777 -0.11335648874813745 -0.2180699442518752 -0.24238414627553062 -0.11072905637930493 -0.18273086925291382 -0.21350405630472211 -0.22794327305965806 -0.22321786026285015 -0.19867685419435038 -0.25598626640124594 -0.21724261730773187 -0.23512325186411301 -0.22820708625934724 -0.18406856845548364 -0.15238366477580445 -0.18927165359805054 -0.20259880698741353 -0.19413913879718336 -0.24181108344326901 -0.196471965823761 -0.23558714546662679 -0.25765238078003161 -0.22304792639231791 -0.14855882778426846 -0.20964172438201797 -0.18396060128271535 -0.2464276995158986 -0.19333465539382885 -0.20578451342018778 -0.23720239037917024 -0.22290052250402997 -0.17891312505802776 -0.25733748412153901 -0.21045119747766142 -0.23949069209242682 -0.25015875492796608 -0.18988633732299179 -0.18768833848914271 -0.25016866463286741 -0.10476862910669439 -0.1932759956737003 -0.21964081741057437
leaf_weight=48437 26869 78314 42775 32466 45293 71669 7060 24930 7873 113827 53798 6373 211631 13133 97685 7584 49235 107655 7847 41897 26481 74353 28453 9929 60399 46921 40532 171026 37337 61759 8235 31877 177721 5609 54383 180456 40379 70138 19728 93566 47288 53037 7985 32805 3931 11510 89752 133006 38982 130574 5728 74340 25018 6648 7300 6872 21411 2239 13980 14733 6281 9164 41031 72061 88057 202350 37592 56337 44198 42650 14289 28682
leaf_count=48437 26869 78314 42775 32466 45293 71669 7060 24930 7873 113827 53798 6373 211631 13133 97685 7584 49235 107655 7847 41897 26481 74353 28453 9929 60399 46921 40532 171026 37337 61759 8235 31877 177721 5609 54383 180456 40379 70138 19728 93566 47288 53037 7985 32805 3931 11510 89752 133006 38982 130574 5728 74340 25018 6648 7300 6872 21411 2239 13980 14733 6281 9164 41031 72061 88057 202350 37592 56337 44198 42650 14289 28682
internal_value=-0.217367 -0.23807 -0.200608 -0.211648 -0.21446 -0.219746 -0.179518 -0.230881 -0.194706 -0.231322 -0.23563 -0.174151 -0.199511 -0.194543 -0.257028 -0.213385 -0.223035 -0.213125 -0.158815 -0.244514 -0.221153 -0.202284 -0.254487 -0.224844 -0.23623 -0.251017 -0.152892 -0.149344 -0.181155 -0.184832 -0.182578 -0.237 -0.255679 -0.200338 -0.204774 -0.20528 -0.250593 -0.210169 -0.180953 -0.258324 -0.232288 -0.245212 -0.231997 -0.202187 -0.235638 -0.2073 -0.197189 -0.190164 -0.258096 -0.189648 -0.190411 -0.264103 -0.241293 -0.151875 -0.24553 -0.251711 -0.234049 -0.249064 -0.214575 -0.224928 -0.198583 -0.204398 -0.254176 -0.216951 -0.262618 -0.2597 -0.196937 -0.194427 -0.24573 -0.15784 -0.168661 -0.23495
internal_weight=3.70546e+06 1.65767e+06 2.0478e+06 1.34418e+06 738251 692958 703616 556945 405868 512841 525367 136013 831338 612123 919418 219215 358635 204803 297748 325546 199821 357431 821733 80876 153832 244670 238346 211558 272445 235108 59402 64343 793280 52205 80864 339678 154206 216552 26788 633247 118957 160033 70947 140460 77127 46596 159222 140879 167543 192333 51167 113322 66915 31578 54221 249274 30522 23650 40223 28713 10212 17149 218752 142199 383973 290407 43320 146089 104597 83808 41158 81719
internal_count=3705464 1657669 2047795 1344179 738251 692958 703616 556945 405868 512841 525367 136013 831338 612123 919418 219215 358635 204803 297748 325546 199821 357431 821733 80876 153832 244670 238346 211558 272445 235108 59402 64343 793280 52205 80864 339678 154206 216552 26788 633247 118957 160033 70947 140460 77127 46596 159222 140879 167543 192333 51167 113322 66915 31578 54221 249274 30522 23650 40223 28713 10212 17149 218752 142199 383973 290407 43320 146089 104597 83808 41158 81719
cat_boundaries=0 1 2 3 4 5 6 7 8 9 10 11 12 13 14 15 16 17 18 19 20 21 22
cat_threshold=649 20 1 64 1 129 134 208 3 9 157 452 75 790 6 776 270 464 193 6 452 78
is_linear=0
shrinkage=1


Tree=1
num_leaves=73
num_cat=14
split_feature=53 75 75 79 75 46 77 78 69 75 67 109 67 75 79 52 83 75 91 67 98 49 45 77 80 47 84 53 75 69 54 44 69 78 53 81 30 49 76 30 90 44 49 69 107 94 49 46 71 67 44 75 90 90 52 100 67 71 52 84 106 104 77 100 46 30 51 75 75 76 90 52
split_gain=141188 83394.2 54899 37632.3 39053.6 34931.6 26418.1 24682.7 20116.9 8922.61 7420.42 6469.71 6039.1 9507.84 5920.68 5868.09 5511.29 5010.71 5004.55 5835.58 4569.78 4561.37 3957.41 3894.26 3594.42 3202.08 3173.04 3031.05 3012.78 2983.41 2781.83 2689.81 2627.58 2613.81 2523.71 2485.52 2601.47 2149.46 2140.11 2131.63 1948.25 1929.6 1827.23 1815.01 1747.95 1710.3 1696.08 1668.73 1635.72 1556.42 2089.72 1508.19 1499.74 1450.21 1412.82 1378.65 1361.48 1613.64 2232.15 1543.09 1423.82 1234.36 1210.35 1210.34 1205.81 1175.03 1162.87 1161.06 1154.32 1151.53 1147.69 1146.86
threshold=5.2249999046325692 6.6246678829193124 6.4425883293151864 1.0000000180025095e-35 5.7614052295684823 1.0000000180025095e-35 1.0000000180025095e-35 1.0000000180025095e-35 -1.0000000180025095e-35 6.9888138771057138 0 3.5000000000000004 1 6.8567068576812753 1.0000000180025095e-35 7.258594512939454 1.0000000180025095e-35 5.6858818531036386 2 3 6.2958936691284189 0.87500000000000011 4 1.0000000180025095e-35 1.0000000180025095e-35 0.18328517675399783 1.0000000180025095e-35 5.9349999427795419 5.1517126560211191 -1.0000000180025095e-35 1.0000000180025095e-35 5 1.0744051933288576 1.0000000180025095e-35 6.1949999332427987 1.0000000180025095e-35 5.1050000190734872 3.3750000000000004 6.0350000858306894 6.7049999237060556 6 7 2.3750000000000004 1.0744051933288576 1.0000000180025095e-35 0.95323583483695995 3.3750000000000004 -1.0000000180025095e-35 -0.65363845229148854 8 9 6.4896459579467782 10 11 6.2892661094665536 1.0000000180025095e-35 12 -1.0000000180025095e-35 6.3977565765380868 1.0000000180025095e-35 1.0000000180025095e-35 1.0000000180025095e-35 1.0000000180025095e-35 1.0000000180025095e-35 1.0153881907463076 6.7249999046325692 1.0000000180025095e-35 6.2695419788360605 6.3153166770935067 3.8850001096725468 13 6.7613482475280771
decision_type=2 2 2 2 2 2 2 2 2 2 1 2 1 2 2 2 2 2 1 1 2 2 9 2 2 2 2 2 2 2 2 9 2 2 2 2 2 2 2 2 1 9 2 2 2 2 2 2 2 1 9 2 1 1 2 2 1 2 2 2 2 2 2 2 2 2 2 2 2 2 1 2
left_child=2 3 6 4 11 12 8 10 66 18 23 62 13 29 69 24 21 -18 19 31 26 48 -10 41 34 -20 43 44 -24 -4 52 -7 -19 47 56 36 -31 -11 46 -25 42 -6 -23 -12 55 -21 -15 -13 -8 50 -36 -9 -30 61 -55 -22 -3 59 60 -58 -59 -29 -2 65 -49 -51 -1 -46 -50 -14 -17 -52
right_child=1 15 5 -5 7 9 16 51 22 37 20 33 14 38 -16 70 17 32 25 45 27 40 28 39 -26 -27 -28 53 30 35 -32 -33 -34 -35 49 -37 -38 -39 -40 -41 -42 -43 -44 -45 67 -47 -48 64 68 63 71 -53 -54 54 -56 -57 57 58 -60 -61 -62 -63 -64 -65 -66 -67 -68 -69 -70 -71 -72 -73
leaf_value=0.16574395005058931 0.044454802471837723 -0.0089106048289030581 0.14789514015050415 0.06252802087051916 -0.016137510594366043 0.0022277392771518677 0.07313566933664721 0.099727441997745095 -0.0095695649872139608 -0.028283500699843901 -0.016873533804867558 0.064712829821556919 0.006688060636178687 -0.006960518462738618 0.057924255243012007 -0.026342307918882535 0.10942424894317454 0.025932547854846676 0.00091533341825262356 0.0094216804357532598 -0.0093598748481045768 0.045864235421004415 0.066190320837657315 0.020107657522683012 -0.0019834419071665644 -0.020375028421083841 0.032851584380915101 -0.023103344029895306 0.0075646707572441206 0.051787345605084779 0.004151693491839685 -0.022884210621008809 0.14635560296166228 0.097184855322247798 -0.038225953715245266 0.046656636631730621 0.021239175388142979 -0.0096386844962490763 0.0046221611016116996 -0.022742365236348702 0.097139730262563964 0.00011339130285928196 0.099107239583317713 0.012000208570970667 0.059222798801392376 0.033224374126363844 0.021946944726101311 -0.0084363965567538501 0.044027384844783274 -0.024761142283601368 -0.0085563211741211936 0.062708575853324747 0.023621219196954618 -0.022277156489359587 -0.03671417193642821 -0.031081377845777355 -0.021128307791375277 -0.0076805289256374129 -0.033705531894668697 0.0011520003992480522 -0.040083007102993819 0.0070404886388450317 0.10261690919867567 -0.04367514476950473 0.019639808355024286 -0.031192126546312829 0.062631888064354338 -0.0050429581412891299 -0.016868505610852125 -0.0040162197798702939 -0.046155673092101668 -0.021044541602891601
leaf_weight=29190 41158 29941 8137 45293 71669 34435 29681 24930 37456 113827 53798 6373 99946 13133 7584 16760 32565 75676 49235 96302 41051 12933 16002 72035 28453 104597 9929 46921 54178 65509 122455 43896 5506 5609 32371 35384 163415 40379 217097 8829 101376 47288 19516 17149 3931 30170 109448 23196 16135 146707 31587 6648 127340 38982 74340 25864 155038 26068 82971 14475 8221 7300 42650 34898 17027 143190 19247 6281 4360 111685 80925 87813
leaf_count=29190 41158 29941 8137 45293 71669 34435 29681 24930 37456 113827 53798 6373 99946 13133 7584 16760 32565 75676 49235 96302 41051 12933 16002 72035 28453 104597 9929 46921 54178 65509 122455 43896 5506 5609 32371 35384 163415 40379 217097 8829 101376 47288 19516 17149 3931 30170 109448 23196 16135 146707 31587 6648 127340 38982 74340 25864 155038 26068 82971 14475 8221 7300 42650 34898 17027 143190 19247 6281 4360 111685 80925 87813
internal_value=0.000120235 -0.0191122 0.0156887 0.00307671 -0.00204014 0.00518745 0.0357502 -0.0124399 0.021038 -0.0130071 -0.0170152 0.0405448 0.0164114 0.0209328 0.0037852 -0.036929 0.0558049 0.0404652 -0.00533976 0.00373578 -0.0252688 0.0652875 0.0137728 -0.003567 -0.0344872 -0.0174225 -0.00700163 -0.0313081 0.0169641 0.0332693 0.0149905 -0.0152769 0.0286811 0.0160481 -0.0355975 0.0316415 0.0282617 -0.0308389 0.0110386 0.0114425 0.073834 -0.0137705 0.0548526 -0.0135704 -0.0167656 0.0155115 0.0204027 0.00916577 0.0424929 -0.0396737 -0.0322514 0.0636789 0.0219558 -0.0380025 -0.0437101 -0.021979 -0.029464 -0.031342 -0.0393384 -0.0258122 -0.0203122 -0.0260605 0.055804 -0.0431396 0.00248788 -0.0412632 0.0746496 0.0173948 0.0232305 0.00102744 -0.0574695 -0.0268293
internal_weight=3.70546e+06 1.65767e+06 2.0478e+06 738251 692958 1.34418e+06 703616 556945 405868 512841 525367 136013 831338 612123 219215 919418 297748 113747 358635 204803 325546 184001 357431 199821 821733 153832 80876 244670 319975 272445 303973 78331 81182 52205 793280 264308 228924 154206 339678 80864 133825 118957 32449 70947 77127 126472 122581 46596 50176 476566 151771 31578 181518 167543 113322 66915 316714 286773 117260 169513 34289 54221 83808 324795 40223 289897 48437 10212 20495 211631 97685 119400
internal_count=3705464 1657669 2047795 738251 692958 1344179 703616 556945 405868 512841 525367 136013 831338 612123 219215 919418 297748 113747 358635 204803 325546 184001 357431 199821 821733 153832 80876 244670 319975 272445 303973 78331 81182 52205 793280 264308 228924 154206 339678 80864 133825 118957 32449 70947 77127 126472 122581 46596 50176 476566 151771 31578 181518 167543 113322 66915 316714 286773 117260 169513 34289 54221 83808 324795 40223 289897 48437 10212 20495 211631 97685 119400
cat_boundaries=0 1 2 3 4 5 6 7 8 9 10 11 12 13 14
cat_threshold=649 20 1 320 4 527 192 157 131 68 148 75 2 20
is_linear=0
shrinkage=0.0886469


Tree=2
num_leaves=73
num_cat=18
split_feature=53 75 75 46 79 75 77 69 78 75 67 75 78 79 67 109 90 75 53 98 91 67 67 78 69 79 49 70 113 24 47 75 84 44 49 78 81 90 50 67 75 100 44 84 103 2 111 72 112 69 45 76 49 84 52 76 51 80 90 113 90 100 76 30 44 52 84 75 44 75 75 44
split_gain=122099 60817.6 55719.1 34740.2 29251.5 30781.9 29039.6 20966.5 17440.8 8162.13 7028.53 7140.23 6521.66 7014.2 6477.06 5444.98 5348.73 5331.07 4664.45 4242.92 4228.72 5426.45 3940.37 3759.4 3413.07 3518.19 4701.08 3351.93 3256.29 3156.09 3134.45 2931.34 2735.04 2723.82 2581.17 2416.58 2551.4 2324.78 2318.62 1949.2 1905.43 1903.43 1860.4 1811.66 1765.99 1757.07 1734.31 1599.3 1573.61 1536.33 1530.32 1527.05 1882.45 1521.87 1488.88 1473.22 1372.89 1369.74 1359.62 1351.96 1329.91 1311.06 1261.95 1199.9 1178.11 1161.26 1152.33 1174.92 1147.21 1145.04 1066.81 1070.05
threshold=5.4349999427795419 6.6246678829193124 6.4425883293151864 1.0000000180025095e-35 1.0000000180025095e-35 5.8239629268646249 1.0000000180025095e-35 -1.0000000180025095e-35 1.0000000180025095e-35 6.9888138771057138 0 6.8761136531829843 1.0000000180025095e-35 1.0000000180025095e-35 1 2.5000000000000004 2 5.8239629268646249 4.3949999809265146 6.2958936691284189 3 4 5 1.0000000180025095e-35 -1.0000000180025095e-35 1.0000000180025095e-35 1.6250000000000002 0.39916852116584783 6 0.18328517675399783 0.18328517675399783 6.3916432857513437 1.0000000180025095e-35 7 0.87500000000000011 1.0000000180025095e-35 1.0000000180025095e-35 8 -1.0000000180025095e-35 9 5.0829954147338876 1.0000000180025095e-35 10 1.0000000180025095e-35 1.0000000180025095e-35 0.95323583483695995 6.5000000000000009 0.62500000000000011 0.73030304908752453 1.4253905415534975 11 6.3949999809265146 3.3750000000000004 1.0000000180025095e-35 6.4752988815307626 4.5250000953674325 1.0000000180025095e-35 1.0000000180025095e-35 12 13 14 1.0000000180025095e-35 4.5250000953674325 5.4249999523162851 15 6.4436945915222177 1.0000000180025095e-35 7.1517565250396737 16 5.2686030864715585 5.1517126560211191 17
decision_type=2 2 2 2 2 2 2 2 2 2 1 2 2 2 1 2 1 2 2 2 1 1 1 2 2 2 2 2 9 2 2 2 2 9 2 2 2 1 2 1 2 2 9 2 2 2 2 2 2 2 9 2 2 2 2 2 2 2 1 9 1 2 2 2 9 2 2 2 9 2 2 9
left_child=2 4 6 10 5 15 7 56 14 20 11 24 13 17 31 70 29 58 40 28 21 33 43 45 -4 26 49 53 48 39 -22 32 -7 -5 -29 36 63 44 -11 -3 -9 69 -39 -18 -21 -17 -23 -30 -16 -26 -42 52 -13 59 -31 -12 -1 65 62 -19 -43 -32 -8 -28 -40 -41 67 -66 -64 -20 -2 -72
right_child=1 16 3 9 -6 8 12 18 -10 38 55 51 -14 -15 19 23 22 27 41 37 30 46 -24 -25 25 -27 35 34 47 54 61 -33 -34 -35 -36 -37 -38 42 64 57 50 60 -44 -45 -46 -47 -48 -49 -50 -51 -52 -53 -54 -55 -56 -57 -58 -59 -60 -61 -62 -63 68 -65 66 -67 -68 -69 -70 -71 71 -73
leaf_value=0.1513340922788268 0.10120766373527815 -0.0094952259767574869 0.13478469455555089 0.0013838465386991992 0.056302892132549152 -0.011966872186501096 0.093730346838531181 0.079949520433891266 0.089473135969253728 0.0023593291182325473 0.004324937940797826 -0.0076074325744751791 0.10210422619088752 0.060267547039180525 -0.0074238736724483402 0.018362259792112923 -0.023326928961301469 0.053520620881963334 0.038702360478596889 -0.015780968799479461 0.00032092550713515771 0.0025034339897594951 -0.037034772455693699 0.092861183311936546 -0.0078195474217374345 0.053849258709767554 0.034976079519176063 0.033563042410017674 -0.00020612916887052855 -0.0183197388182352 -0.012844552004932466 0.01341298091717558 0.031603298540136146 -0.021882184669763612 0.11347367383932055 0.090804083333439201 0.04252442325832477 -0.030401845294886865 -0.030766519891021339 -0.01573626406992195 -0.0054101907363093499 0.0096863821990328183 -0.010948244435387108 0.0099363955462483614 0.072585288537399345 -0.014978493932272078 0.021986727856061643 -0.024807078582630537 0.039103933821779527 0.039320864885565202 0.018897336300095224 0.0031108002154378515 0.017179861020855367 0.037357369349853772 -0.028310178028348686 -0.0080297206532953073 0.05788926490501576 0.0020890168845883092 0.098478380955915268 0.010091702068709033 -0.013615408364837687 -0.029654391799643812 -0.038664243904562808 0.018351427109570075 -0.033114224781443671 -0.023740368534314549 -0.0023443083813730154 -0.016828265432897505 0.038712552856439042 0.0040898756651831444 -0.0073131637920273015 0.055907600738776313
leaf_weight=29582 20692 84665 8137 38093 36990 99901 10378 9499 20474 15862 123434 18521 68693 44810 5472 27007 69540 19779 7506 73237 53035 79135 180324 5968 35546 9953 74351 18459 23460 53498 67288 60087 6997 52871 16055 9689 35460 123098 68529 86148 16308 16316 21079 6092 1993 15365 66428 25478 10756 5876 173571 180456 146089 28719 197061 70415 19987 9852 61782 62304 51615 49235 2517 148870 26035 152460 14777 53503 4649 124456 2944 46253
leaf_count=29582 20692 84665 8137 38093 36990 99901 10378 9499 20474 15862 123434 18521 68693 44810 5472 27007 69540 19779 7506 73237 53035 79135 180324 5968 35546 9953 74351 18459 23460 53498 67288 60087 6997 52871 16055 9689 35460 123098 68529 86148 16308 16316 21079 6092 1993 15365 66428 25478 10756 5876 173571 180456 146089 28719 197061 70415 19987 9852 61782 62304 51615 49235 2517 148870 26035 152460 14777 53503 4649 124456 2944 46253
internal_value=0.0002521 -0.0196265 0.0132781 0.0029804 0.00125708 -0.00353513 0.0322722 0.017492 -0.0136664 -0.0137158 0.0142446 0.0185287 0.0518909 0.0456749 -0.0172948 0.0369143 -0.0352275 0.0392869 0.0107412 -0.0254272 -0.00676825 0.000890814 -0.0459141 0.0140395 0.0278965 0.0264536 0.0247868 0.0291971 -0.00556626 -0.03054 -0.0174524 -0.0034339 -0.0122399 -0.0160934 0.0533203 0.029077 0.0274489 -0.0313272 -0.0295029 -0.0248871 0.020335 0.00117203 -0.0379192 -0.0289183 -0.0186859 0.00476135 0.0115048 -0.0169765 0.0288348 -0.00300867 0.0183965 0.009628 0.0158025 0.0216828 -0.0380568 -0.00062869 0.0718683 -0.0288456 0.0577702 0.0155373 -0.0108844 -0.0255837 0.0359145 0.0239399 -0.0326543 -0.0301842 -0.0262157 -0.0304419 0.00732159 0.00737853 0.0527359 0.0456322
internal_weight=3.70546e+06 1.46689e+06 2.23857e+06 1.45159e+06 627251 590261 786985 448840 472032 584791 866797 672948 338145 269452 451558 118229 839640 224642 399271 284573 406085 236527 255956 48340 327882 319745 309792 145316 65166 583684 169558 166985 106898 90964 34514 268370 258681 219407 178706 333125 199378 199893 144177 75632 75230 42372 145563 48938 16228 41422 189879 345066 164610 110802 250559 193849 49569 248460 79326 82083 67931 116523 17544 223221 162844 238608 94315 79538 7166 131962 69889 49197
internal_count=3705464 1466891 2238573 1451588 627251 590261 786985 448840 472032 584791 866797 672948 338145 269452 451558 118229 839640 224642 399271 284573 406085 236527 255956 48340 327882 319745 309792 145316 65166 583684 169558 166985 106898 90964 34514 268370 258681 219407 178706 333125 199378 199893 144177 75632 75230 42372 145563 48938 16228 41422 189879 345066 164610 110802 250559 193849 49569 248460 79326 82083 67931 116523 17544 223221 162844 238608 94315 79538 7166 131962 69889 49197
cat_boundaries=0 1 2 3 4 5 6 7 8 9 10 11 12 13 14 15 16 17 18
cat_threshold=276 649 30 1 320 133 13 527 585 3 466 4 192 385 520 152 1 14
is_linear=0
shrinkage=0.0886469


Tree=3
num_leaves=73
num_cat=29
split_feature=75 53 78 79 75 53 53 69 67 69 75 84 85 67 90 69 76 90 67 44 47 44 50 85 69 44 72 67 82 7 50 82 24 75 67 44 30 113 91 67 85 67 81 72 90 108 67 90 90 70 85 94 4 69 21 75 67 114 44 90 113 21 44 47 89 30 3 113 77 44 43 7
split_gain=106379 80287.2 42071.4 46972.5 38537.9 33555.9 12680.4 12031.8 8104.82 7355.2 6592.38 6216.25 5832.42 5431.51 4750.39 4577.23 4319.36 4012.5 5037.54 4532.54 3480.26 3405.65 3109.72 2974.95 2899.08 2877.54 2715.38 2670.93 4685.2 2636.96 2582 2565.04 2504.73 2429.88 2113.02 2093.94 1925.72 1857.6 1827.35 1792.57 1767.76 1706.46 1693.1 1665.63 1640.34 1602.39 1734.21 1443.81 1438.31 1334.51 1300.8 1508.32 1299.04 1297.59 1296.43 1276.61 1270.13 1260.41 1203.33 1191.57 1180.02 1173.07 1109.04 1017.88 1015.01 1367.34 951.725 941.851 925.076 899.067 878.059 862.005
threshold=6.6246678829193124 3.8850001096725468 1.0000000180025095e-35 1.0000000180025095e-35 5.8091156482696542 5.0850000381469735 5.5050001144409189 -1.0000000180025095e-35 0 -1.0000000180025095e-35 5.0829954147338876 1.0000000180025095e-35 1.0000000180025095e-35 1 2 -1.0000000180025095e-35 6.7249999046325692 3 4 5 0.52360680699348461 6 -1.0000000180025095e-35 1.0000000180025095e-35 1.0744051933288576 7 0.62500000000000011 8 1.0000000180025095e-35 4.9149999618530282 1.0000000180025095e-35 1.0000000180025095e-35 0.18328517675399783 6.4896459579467782 9 10 6.0750000476837167 11 12 13 1.0000000180025095e-35 14 1.0000000180025095e-35 0.62500000000000011 15 1.0000000180025095e-35 16 17 18 -0.29682953655719752 1.0000000180025095e-35 0.95323583483695995 1.0000000180025095e-35 1.7017783522605898 19 6.8700993061065683 20 21 22 23 24 25 26 0.91602516174316417 0.96666666865348827 6.8350000381469735 2.8750000000000004 27 1.0000000180025095e-35 28 0.89444443583488475 3.6550000905990605
decision_type=2 2 2 2 2 2 2 2 1 2 2 2 2 1 1 2 2 1 1 9 2 9 2 2 2 9 2 1 2 2 2 2 2 2 1 9 2 9 1 1 2 1 2 2 1 2 1 1 1 2 2 2 2 2 9 2 1 9 9 1 9 9 9 2 2 2 2 9 2 9 2 2
left_child=2 8 3 4 9 7 27 -6 15 43 -11 13 29 21 32 -2 42 18 40 24 52 26 33 30 45 36 -7 67 35 -12 44 55 41 -4 58 -29 -13 -32 -26 -25 -9 54 53 -1 -15 -19 -47 66 -37 -28 -43 -52 -16 61 -8 59 -45 -20 -21 -10 -54 -17 -39 68 65 -34 -23 -3 -60 -41 -31 -18
right_child=1 6 22 -5 5 11 14 17 31 10 12 25 -14 23 20 16 71 19 57 34 -22 47 -24 39 38 -27 49 28 -30 70 37 -33 64 -35 -36 48 -38 62 -40 69 -42 50 -44 56 -46 46 -48 -49 -50 -51 51 -53 60 -55 -56 -57 -58 -59 63 -61 -62 -63 -64 -65 -66 -67 -68 -69 -70 -71 -72 -73
leaf_value=0.10946343577652207 0.12283644931094932 -0.0098632080393555119 0.10057432641156203 0.052668011714071837 0.13548654422291426 -0.0013658322798491944 -0.014758119246278369 0.036790013883309831 0.015215298097275837 0.082195952364205321 0.024570813896683141 0.02609833145716953 0.13007573064420933 -0.029550192844475444 -0.026102825299280583 0.027260792170958888 0.016102121481301714 -0.0051395733810284212 0.018945381612951145 0.029487637323759249 -0.03856105028532443 0.002842643065113139 0.088686789576089525 0.097300377555563727 0.10932821172352479 0.031380939614850049 -0.037914693869059699 -0.020473189897003984 -0.028107504096249118 -0.00098589324207992062 0.029110865211723163 -0.022284687123221951 -0.016908665266951846 0.033004090850775408 0.0032907629425263821 0.0010700240466951757 -0.019664015433556298 -0.010489825369595735 0.012871894881386172 -0.03983801471642151 0.098607683397785459 -0.02018261699317192 0.031534760332231571 0.084357783599184444 -0.010552126521785068 0.0093180443956654251 -0.038720648262248088 0.0013616442498966127 -0.010462152353136387 -0.021576935009856094 -0.015193759183160946 0.0519334368971388 0.010713476217854047 0.04132129291540039 -0.0011255102985668142 -0.0078475201091933889 0.04169564495708164 0.0021280068923299768 0.011103130095030259 -0.0077906740606223084 -0.017238296012127046 0.013224206844457105 0.0040878203573725931 -0.017179474629858405 -0.033348330534808041 -0.025554482366086262 -0.033032827925059197 0.0031027364376883864 0.027510450633343491 0.024020379784591699 0.089863947778741529 0.00030182782719275348
leaf_weight=26996 8137 37932 15988 92713 21624 21569 72833 85796 39556 39987 78824 9676 13967 23588 94957 47581 24069 82910 36441 53632 113125 5356 90800 4711 3060 22698 39518 66829 76272 64387 24707 32675 90198 13884 83748 64444 11633 60316 19971 1854 13221 196773 38714 33380 96962 4859 14218 42186 187644 137431 9784 2731 5938 16852 38855 61164 46267 63347 89197 19148 33260 267259 38286 5517 51389 101324 12942 65700 31955 17325 2021 140853
leaf_count=26996 8137 37932 15988 92713 21624 21569 72833 85796 39556 39987 78824 9676 13967 23588 94957 47581 24069 82910 36441 53632 113125 5356 90800 4711 3060 22698 39518 66829 76272 64387 24707 32675 90198 13884 83748 64444 11633 60316 19971 1854 13221 196773 38714 33380 96962 4859 14218 42186 187644 137431 9784 2731 5938 16852 38855 61164 46267 63347 89197 19148 33260 267259 38286 5517 51389 101324 12942 65700 31955 17325 2021 140853
internal_value=0.000395449 -0.0134295 0.0167139 0.0128579 0.00903867 0.00177195 -0.0263564 0.0162364 0.0109009 0.0370823 0.0270231 -0.0136742 0.0189405 -0.0163482 -0.0331957 0.0159687 0.014966 0.0138476 0.0240929 0.0086116 -0.0434419 -0.0255003 0.0671638 -0.00749372 -0.00529342 0.0183326 -0.0311117 -0.0152344 -0.018556 0.0136786 -0.0104187 -0.00715487 -0.0287012 0.0423525 0.0151951 -0.0138361 -0.00506817 -0.0013996 0.0231128 0.0223597 0.0382589 -0.0235619 0.0202793 0.0558706 -0.0196441 -0.0117088 -0.0348735 -0.00708053 -0.0101362 -0.034733 -0.0282842 -0.000572767 -0.0337862 0.0182317 -0.014709 -0.00115358 0.0494202 0.0100337 0.0205999 0.00818434 -0.0202086 0.0169489 -0.00684625 0.0158841 -0.0354932 -0.0325247 -0.0278697 -0.00256584 0.0175812 0.0102966 0.000664588 0.00303255
internal_weight=3.70546e+06 2.006e+06 1.69947e+06 1.5788e+06 1.48608e+06 1.18025e+06 1.30999e+06 609496 696008 305829 199186 570758 159199 526751 811167 543465 535328 587872 198805 389067 247280 259002 120672 267749 125018 44007 198518 498821 395189 145232 243859 152543 563887 29872 264049 318917 21309 123309 23031 23890 99017 320976 370406 106643 120550 101987 19077 60484 252088 176949 209288 12515 134155 331692 111688 119868 79647 99788 180301 58704 39198 314840 98602 126669 242911 191522 18298 103632 121152 19179 66408 164922
internal_count=3705464 2005996 1699468 1578796 1486083 1180254 1309988 609496 696008 305829 199186 570758 159199 526751 811167 543465 535328 587872 198805 389067 247280 259002 120672 267749 125018 44007 198518 498821 395189 145232 243859 152543 563887 29872 264049 318917 21309 123309 23031 23890 99017 320976 370406 106643 120550 101987 19077 60484 252088 176949 209288 12515 134155 331692 111688 119868 79647 99788 180301 58704 39198 314840 98602 126669 242911 191522 18298 103632 121152 19179 66408 164922
cat_boundaries=0 1 2 3 4 5 6 7 8 9 10 11 12 13 14 15 16 17 18 19 20 21 22 23 24 25 26 27 28 29
cat_threshold=19 322 30 524 29 24 338 648 3 602 144 257 1 4 131 258 849 193 74 78 531 2 577 78 130 515 285 400 8
is_linear=0
shrinkage=0.0886469


Tree=4
num_leaves=73
num_cat=17
split_feature=75 53 78 79 69 53 67 53 75 75 69 84 83 52 69 45 72 91 53 51 76 50 82 49 80 53 44 91 75 67 84 77 52 77 50 67 81 46 82 52 44 75 44 75 81 20 100 75 106 107 55 69 75 106 67 21 113 72 75 84 76 67 24 108 67 113 75 45 44 66 88 30
split_gain=93457.1 68439.7 40474.3 42583.7 33737.2 27989 10390.9 8053.02 7847.09 7238.08 6384.32 5663.24 5635.4 4427.01 4399.27 4356.49 3700.19 4076.51 3649.99 3379.98 3371.19 3139.37 3003.25 2870.69 2830.2 2709.78 2477.5 2469.77 2337.67 2244.76 2182.04 1891.65 1668.36 1562.77 1604.74 1554.76 1672.67 1527.31 3200.38 1502.79 1496.42 1492.93 1444.89 1431.69 1405.07 1350.91 1284.71 1259.32 1218.67 1465.71 1195.25 1170.5 1159.31 1141.86 1055.15 1027.63 1024.07 1017.91 990.845 959.598 957.006 949.354 971.11 948.789 948.452 930.081 908.883 870.473 869.622 867.731 866.712 1008.97
threshold=6.6246678829193124 4.3750000000000009 1.0000000180025095e-35 1.0000000180025095e-35 -1.0000000180025095e-35 5.1549999713897714 0 5.5050001144409189 5.2258183956146249 6.4835393428802499 1.0744051933288576 1.0000000180025095e-35 1.0000000180025095e-35 7.258594512939454 -1.0000000180025095e-35 1 1.1250000000000002 2 5.9349999427795419 1.0000000180025095e-35 6.7249999046325692 -1.0000000180025095e-35 1.0000000180025095e-35 4.3750000000000009 1.0000000180025095e-35 4.1349999904632577 3 4 6.4896459579467782 5 1.0000000180025095e-35 1.0000000180025095e-35 6.1855430603027353 1.0000000180025095e-35 -1.0000000180025095e-35 6 1.0000000180025095e-35 1.0000000180025095e-35 1.0000000180025095e-35 6.5174405574798593 7 5.493741750717164 8 6.8700993061065683 1.0000000180025095e-35 0.44949495792388922 1.0000000180025095e-35 6.8207843303680429 1.0000000180025095e-35 1.0000000180025095e-35 1.0000000180025095e-35 1.7017783522605898 6.2703738212585458 1.0000000180025095e-35 9 10 11 0.62500000000000011 6.2101957798004159 1.0000000180025095e-35 6.0750000476837167 12 0.52360680699348461 1.0000000180025095e-35 13 14 5.8091156482696542 15 16 0.16025641560554507 2.5000000000000004 6.995000123977662
decision_type=2 2 2 2 2 2 1 2 2 2 2 2 2 2 2 9 2 1 2 2 2 2 2 2 2 2 9 1 2 1 2 2 2 2 2 1 2 2 2 2 9 2 9 2 2 2 2 2 2 2 2 2 2 2 1 9 9 2 2 2 2 1 2 2 1 9 2 9 9 2 2 2
left_child=2 6 3 4 9 10 14 37 -7 19 15 16 33 24 -2 31 17 42 27 -1 44 28 43 32 35 41 60 68 -4 63 52 46 -20 50 -35 36 40 -3 45 48 65 -17 -10 47 51 53 -6 -8 49 -37 -12 55 -27 -39 -34 -16 -15 -21 -36 61 -13 -43 -63 -29 -33 -9 -56 -45 -18 -46 71 -41
right_child=1 7 21 -5 5 8 22 13 11 -11 12 26 -14 56 20 25 18 -19 23 57 -22 -23 -24 -25 -26 30 -28 29 -30 -31 -32 64 54 34 58 39 -38 38 -40 70 -42 59 -44 67 69 -47 -48 -49 -50 -51 -52 -53 -54 -55 66 -57 -58 -59 -60 -61 -62 62 -64 -65 -66 -67 -68 -69 -70 -71 -72 -73
leaf_value=0.13655443041585241 0.11194737895928271 -0.0051716639460759675 0.09165872422662194 0.047999155783653713 -0.0039827288575520038 0.065360195958501746 -0.0029212981148494465 -0.0047716594440892447 -0.024515107803598543 0.0015528645034386065 0.019857630197260393 0.01979116407264693 0.11657574318110915 -0.037202345098340923 0.02417748418281411 0.068215574093561326 -0.00023301295592325543 0.018715522985763428 -0.012087958770553025 0.075370082589254872 0.0021935718377107546 0.080824980671854035 -0.021094513286130503 0.00873679506425111 -0.0001359199852524076 0.0081930001610175489 0.028934545086264737 0.01770360011836334 0.030078380532845738 -0.0045760281137866322 0.027593066780588229 0.031389420861160103 -0.013154902165859734 0.10603535190805824 0.072727013273535382 -0.017141677361926878 0.0039657025106300805 -0.0041172128150646628 -0.026585353725600676 -0.017554355432077888 -0.013532626963259334 0.022504529067284163 -0.005029592828171392 -0.029861884335821907 0.031746487264906739 -0.015892838880464437 -0.026418435330913558 0.016444544395845338 -0.030947026836496166 0.019729774014055491 -0.0122436666605248 0.037658288423642328 -0.0046760350255971679 -0.022307241074119504 0.038505547330826506 0.011534604950824603 -0.021276928870906549 0.048250205690915468 0.025579256064013581 0.037748151458132588 -0.013304587262633451 0.012352018470361156 -0.011887380559746825 0.079410470246409043 -0.0036981501674451943 -0.029558420129218037 -0.026301125215577141 -0.0066004801828332951 -0.016832827028922661 -0.00011488278068241447 -0.028926588329501596 -0.025754054657077922
leaf_weight=35133 8137 119482 15988 92713 24799 15054 53784 6608 25431 22767 147422 9220 16163 70585 50205 14204 17316 59409 59537 19019 164922 90800 46726 18491 27123 82719 25132 15054 13884 58650 24069 13094 27068 6829 12476 180074 14467 117008 58612 95058 137445 99445 47465 5842 35256 97270 22353 35453 22707 5486 8229 16852 78559 16867 1374 283785 23149 74050 30646 17134 14347 99164 11240 5125 21766 48448 122549 79411 83581 5217 105824 74193
leaf_count=35133 8137 119482 15988 92713 24799 15054 53784 6608 25431 22767 147422 9220 16163 70585 50205 14204 17316 59409 59537 19019 164922 90800 46726 18491 27123 82719 25132 15054 13884 58650 24069 13094 27068 6829 12476 180074 14467 117008 58612 95058 137445 99445 47465 5842 35256 97270 22353 35453 22707 5486 8229 16852 78559 16867 1374 283785 23149 74050 30646 17134 14347 99164 11240 5125 21766 48448 122549 79411 83581 5217 105824 74193
internal_value=0.000515209 -0.0124428 0.0158105 0.0120283 0.00839193 0.00390052 0.00796544 -0.0255799 -0.0102036 0.0481122 0.0155807 -0.0118168 0.028132 -0.0306947 0.0143482 0.0101074 -0.014423 -0.0015376 -0.0185938 0.0562919 0.0134018 0.0652935 -0.00831863 -0.0260147 -0.0283275 0.0137052 0.0171379 -0.00913758 0.0403643 0.00261891 0.00564502 -0.00860382 -0.028956 0.0241698 0.0378128 -0.0294311 -0.0229966 -0.0154417 -0.0189193 -0.0321853 -0.0251824 0.0198992 -0.015585 -0.00297396 0.017882 -0.0142279 -0.0201799 0.00487441 -0.026505 -0.0241328 0.0197914 0.0160778 0.00192921 -0.00845108 -0.0339114 0.0149276 -0.0488127 0.0474479 0.0314893 0.0181544 -0.00351497 0.0165073 0.0108449 0.028114 0.00705376 -0.0375346 -0.0373755 -0.0111892 -0.0183228 0.0335218 -0.0364871 -0.0325521
internal_weight=3.70546e+06 2.006e+06 1.69947e+06 1.5788e+06 1.48608e+06 1.33511e+06 785590 1.22041e+06 604803 150969 730311 589749 221765 811167 564374 508546 541050 132305 408745 128202 556237 120672 221216 229019 717433 426534 48699 179726 29872 78829 185347 82012 210528 205602 49951 690310 206968 409239 289757 483342 192501 241187 72896 174490 391315 231145 47152 89237 208267 185560 155651 350842 161278 133875 150991 333990 93734 93069 43122 226983 23567 209849 110404 20179 34860 55056 123923 85253 100897 40473 275075 169251
internal_count=3705464 2005996 1699468 1578796 1486083 1335114 785590 1220406 604803 150969 730311 589749 221765 811167 564374 508546 541050 132305 408745 128202 556237 120672 221216 229019 717433 426534 48699 179726 29872 78829 185347 82012 210528 205602 49951 690310 206968 409239 289757 483342 192501 241187 72896 174490 391315 231145 47152 89237 208267 185560 155651 350842 161278 133875 150991 333990 93734 93069 43122 226983 23567 209849 110404 20179 34860 55056 123923 85253 100897 40473 275075 169251
cat_boundaries=0 1 2 3 4 5 6 7 8 9 10 11 12 13 14 15 16 17
cat_threshold=19 4 1 648 2 13 131 332 832 641 515 158 530 517 71 4 832
is_linear=0
shrinkage=0.0886469


Tree=5
num_leaves=73
num_cat=25
split_feature=75 53 78 79 75 53 67 69 75 52 69 85 75 67 81 53 90 67 85 50 85 44 69 75 53 71 90 75 77 76 113 77 76 52 67 107 98 76 67 72 77 100 26 89 81 67 71 52 45 7 44 90 107 69 26 90 90 21 70 91 90 90 113 26 81 76 44 67 47 90 45 113
split_gain=81930.1 58265.3 38429.4 37772.6 29531.7 24422.7 10915.4 10164.7 5835.69 5637.13 4558.77 5634.62 4178.37 4135.02 4041.79 3634.01 3383.24 3145.98 4927.38 3079.68 3064.2 3018.96 2881.98 2645.62 2350.64 2289.3 2323.58 2247.65 2074.79 2051.97 1962.32 1748.5 1706.4 1697.19 1610.03 1607.15 2941.85 2035.65 1551.22 1544.87 1482.1 1480.4 1447.19 1446.63 1526.55 1426 1420.46 1392.79 1360.36 1277.08 1244.08 1223.1 1504.6 1218.5 1139.03 1412.64 1118.26 1110.93 1102.15 1083.85 1033.06 1014.9 1006.22 1005.84 956.542 928.027 915.747 910.833 907.236 896.218 894.401 890.375
threshold=6.6246678829193124 4.6150000095367441 1.0000000180025095e-35 1.0000000180025095e-35 5.8091156482696542 5.0850000381469735 0 -1.0000000180025095e-35 5.2258183956146249 7.258594512939454 -1.0000000180025095e-35 1.0000000180025095e-35 6.9371728897094735 1 1.0000000180025095e-35 6.1949999332427987 2 3 1.0000000180025095e-35 -1.0000000180025095e-35 1.0000000180025095e-35 4 -1.0000000180025095e-35 6.9888138771057138 6.1949999332427987 0.95323583483695995 5 6.4896459579467782 1.0000000180025095e-35 4.9249999523162851 6 1.0000000180025095e-35 6.0350000858306894 7.2351520061492929 7 1.0000000180025095e-35 7.045631170272828 5.1250000000000009 8 0.87500000000000011 1.0000000180025095e-35 1.0000000180025095e-35 3.3750000000000004 0.69615384936332714 1.0000000180025095e-35 9 0.95323583483695995 6.7770652770996103 10 6.7249999046325692 11 12 1.0000000180025095e-35 1.0744051933288576 0.87500000000000011 13 14 15 -0.29682953655719752 16 17 18 19 0.62500000000000011 1.0000000180025095e-35 6.0200002193450937 20 21 0.18328517675399783 22 23 24
decision_type=2 2 2 2 2 2 1 2 2 2 2 2 2 1 2 2 1 1 2 2 2 9 2 2 2 2 1 2 2 2 9 2 2 2 1 2 2 2 1 2 2 2 2 2 2 1 2 2 9 2 9 1 2 2 2 1 1 9 2 1 1 1 9 2 2 2 9 1 2 1 9 9
left_child=2 6 3 4 8 7 12 -6 40 15 45 29 22 14 24 35 21 18 43 27 25 42 -2 51 62 26 31 -4 48 50 -27 66 -14 41 -25 37 46 -3 -22 -26 69 49 -9 44 65 -10 -37 -44 -19 54 59 52 -8 -53 55 -17 -11 -16 -41 -12 -31 -30 -7 -34 -24 68 -15 -39 -18 -1 -40 -69
right_child=1 9 19 -5 5 13 23 16 10 56 11 -13 32 20 57 33 17 28 -20 -21 38 -23 64 34 39 30 -28 -29 61 60 -32 -33 63 -35 -36 36 -38 67 70 58 -42 -43 47 -45 -46 -47 -48 -49 -50 -51 -52 53 -54 -55 -56 -57 -58 -59 -60 -61 -62 -63 -64 -65 -66 -67 -68 71 -70 -71 -72 -73
leaf_value=0.091945453087590653 0.10202359093048258 -0.010520809105972872 0.083533462530713171 0.043744179454716293 0.11144483296973921 -0.016127593554606759 0.0032650930772945446 0.0011891472927029764 0.025811010318076998 -0.0171058415979395 -0.0081136537929278451 0.1107690395851488 0.014068482531384952 -0.014117012886864148 -0.0051690911682860663 -0.0042653595011243571 0.032422570008626986 0.0093470953936098927 0.092580973817990561 0.073660096749818826 0.08342250037766262 0.014704115599935662 0.01865733289745497 0.0019215206945146861 -0.0014269864383174408 -0.0044141408732309047 -0.0080380727141954288 0.027412025362832187 0.038949658290573452 0.0086779913817568357 -0.027810988507701497 0.03535789295364343 0.02762990082535063 -0.0072042374690985114 -0.01679129483344341 -0.0012759136689528003 0.034412668180145947 -0.011434450032333657 -0.035140356950277125 -0.036714306220462317 0.084897371553334364 -0.031598541617073303 -0.001866128695310598 -0.0044114564594753877 0.047567108316069952 0.067926202294646867 -0.020891291508030138 -0.023895665971367872 -0.002821075104709156 -0.026014024796929148 0.026138511500422436 -0.0076417217990832594 0.044638996013560521 0.0085269586190635602 -0.018190837167330859 -0.02079813491772247 -0.032326119298003157 0.023397551381768449 -0.019698025182786502 0.03381412671575601 -0.01120708533783394 0.012306105819055132 -0.0049821425402205247 0.0015076198530129851 0.031644652067253601 0.0081088505389699909 0.0039991020094089736 -0.0090099519320624242 -0.00050133316900560136 0.033693613883057222 0.023834730565381171 -0.022318916251958181
leaf_weight=13506 8137 275104 15988 92713 21624 77209 59144 67829 20109 17780 16783 13967 127685 14095 8061 45028 61578 82341 13772 90800 5273 61606 155307 24605 11981 32389 112257 13884 36708 29427 31682 31791 9743 44512 92210 33237 9885 54271 1854 28734 44957 35794 21896 14657 15554 38529 19124 26937 87260 71142 56464 108080 8889 27394 269389 31641 83262 12909 78092 6055 29125 52848 60990 207354 26208 36323 43179 22713 8563 36907 20262 138358
leaf_count=13506 8137 275104 15988 92713 21624 77209 59144 67829 20109 17780 16783 13967 127685 14095 8061 45028 61578 82341 13772 90800 5273 61606 155307 24605 11981 32389 112257 13884 36708 29427 31682 31791 9743 44512 92210 33237 9885 54271 1854 28734 44957 35794 21896 14657 15554 38529 19124 26937 87260 71142 56464 108080 8889 27394 269389 31641 83262 12909 78092 6055 29125 52848 60990 207354 26208 36323 43179 22713 8563 36907 20262 138358
internal_value=0.00058272 -0.0115499 0.0149037 0.0112183 0.0077935 0.00143231 0.00598344 0.0137723 0.0323426 -0.0245678 0.0240993 0.0159909 0.0137388 -0.0117452 -0.0194886 -0.0226437 0.0115766 0.016013 0.0262098 0.0631205 -0.00439246 0.00138226 0.0243076 -0.00695596 -0.0225426 -0.007306 -0.00266126 0.0384294 0.0100927 0.0105549 -0.0219004 0.00803008 0.00792564 -0.02814 -0.0175896 -0.0176963 -0.00427791 -0.0193992 0.023837 -0.0316863 0.0505333 -0.029763 -0.00700065 0.0211189 0.0242797 0.0450927 -0.0126515 -0.0186375 0.00432928 -0.0282786 0.0198482 -0.000852402 0.00884457 -0.0057224 -0.0260547 -0.0165212 -0.0445663 0.0179317 -0.0350716 0.00238169 -0.00203156 0.0210084 -0.0146819 0.00314285 0.0219938 0.0204896 -0.00122252 -0.0258544 0.0264456 0.0400968 0.0135092 -0.0292018
internal_weight=3.70546e+06 2.006e+06 1.69947e+06 1.5788e+06 1.48608e+06 1.18025e+06 854756 609496 305829 1.15124e+06 210459 151821 534434 570758 277976 1.0502e+06 587872 409604 150447 120672 292782 178268 189652 320322 257006 265393 201322 29872 259157 137854 64071 89065 344782 497506 116815 552692 62246 490446 27389 118807 95370 452994 116662 136675 122018 58638 52361 48833 169601 417200 79302 203507 68033 135474 346058 76669 101042 20970 106826 22838 58552 89556 138199 217097 181515 106464 57274 215342 70141 50413 22116 161071
internal_count=3705464 2005996 1699468 1578796 1486083 1180254 854756 609496 305829 1151240 210459 151821 534434 570758 277976 1050198 587872 409604 150447 120672 292782 178268 189652 320322 257006 265393 201322 29872 259157 137854 64071 89065 344782 497506 116815 552692 62246 490446 27389 118807 95370 452994 116662 136675 122018 58638 52361 48833 169601 417200 79302 203507 68033 135474 346058 76669 101042 20970 106826 22838 58552 89556 138199 217097 181515 106464 57274 215342 70141 50413 22116 161071
cat_boundaries=0 1 2 3 4 5 6 7 8 9 10 11 12 13 14 15 16 17 18 19 20 21 22 23 24 25
cat_threshold=18 322 400 20 31 278 782 65 4 324 1 20 6 90 20 193 2 523 518 30 20 3 529 1 192
is_linear=0
shrinkage=0.0886469


Tree=6
num_leaves=73
num_cat=17
split_feature=75 53 78 79 69 53 53 69 83 75 51 67 90 53 69 81 75 50 67 76 47 77 75 80 107 90 98 77 75 67 75 76 100 67 52 77 83 50 54 69 44 81 90 71 75 26 75 89 70 44 45 24 30 67 26 89 90 44 90 106 107 67 89 59 81 89 30 67 47 90 52 30
split_gain=71427.4 49672 36172.8 33162.2 25632.1 20629.5 8121.78 6059.75 6021.14 5781.85 5579.29 4763.48 3787.93 3780.19 3678.92 3557.47 3361.98 2992.46 2831.96 2706.97 2645.99 2592.53 2134.36 2040.64 1978.17 2422.51 2233.16 1916.35 1855.25 1785.98 2110.08 2024.8 1767.68 1734.11 1718.62 1707.66 1676.39 1586.35 1572.38 1471.94 1467.17 1426.53 1396.81 1386.99 1365.36 1335.35 1284.42 1094.99 1085.23 1423.59 1079.56 1078.45 1044.98 1033.44 1912.53 1032.09 1014.18 990.868 981.102 942.243 1153.88 898.726 889.698 872.526 1013.15 860.167 1173.62 835.84 830.204 818.547 952.825 894.682
threshold=6.6246678829193124 3.8850001096725468 1.0000000180025095e-35 1.0000000180025095e-35 -1.0000000180025095e-35 5.3350000381469735 5.5050001144409189 1.0744051933288576 1.0000000180025095e-35 5.6615464687347421 1.0000000180025095e-35 0 1 4.1349999904632577 -1.0000000180025095e-35 1.0000000180025095e-35 6.4835393428802499 -1.0000000180025095e-35 2 6.0650000572204599 0.52360680699348461 1.0000000180025095e-35 6.4896459579467782 1.0000000180025095e-35 1.0000000180025095e-35 3 6.3333652019500741 1.0000000180025095e-35 6.3916432857513437 4 6.9888138771057138 3.9250000715255742 1.0000000180025095e-35 5 6.3977565765380868 1.0000000180025095e-35 1.0000000180025095e-35 -1.0000000180025095e-35 1.0000000180025095e-35 1.0744051933288576 6 1.0000000180025095e-35 7 -1.0000000180025095e-35 6.9888138771057138 0.62500000000000011 4.7783524990081796 0.79285714030265819 0.18328517675399783 8 9 0.91602516174316417 3.6350001096725468 10 3.6250000000000004 0.96666666865348827 11 12 13 1.0000000180025095e-35 1.0000000180025095e-35 14 0.240384615957737 1.0000000180025095e-35 1.0000000180025095e-35 0.240384615957737 5.4149999618530282 15 0.18328517675399783 16 6.6930923461914071 7.180000066757203
decision_type=2 2 2 2 2 2 2 2 2 2 2 1 1 2 2 2 2 2 1 2 2 2 2 2 2 1 2 2 2 1 2 2 2 1 2 2 2 2 2 2 9 2 1 2 2 2 2 2 2 9 9 2 2 1 2 2 1 9 1 2 2 1 2 2 2 2 2 1 2 1 2 2
left_child=2 11 3 4 10 7 29 13 35 21 -1 14 23 46 -2 18 58 22 28 65 51 -7 -4 34 26 -26 47 32 62 -3 36 -32 -15 42 59 38 39 -37 -9 48 -35 52 -29 -17 -13 -28 -6 -20 49 -31 -48 61 -21 54 -36 -23 -47 -34 -12 60 67 -14 -11 64 -33 66 -16 -8 -39 70 -52 -72
right_child=1 6 17 -5 5 9 12 8 -10 15 16 44 20 27 19 43 -18 -19 24 41 -22 55 -24 -25 25 -27 45 33 -30 30 31 63 57 40 53 37 -38 68 -40 -41 -42 -43 -44 -45 -46 56 50 -49 -50 -51 69 -53 -54 -55 -56 -57 -58 -59 -60 -61 -62 -63 -64 -65 -66 -67 -68 -69 -70 -71 71 -73
leaf_value=0.11556119607298589 0.092979515939683774 -0.001246592992694903 0.076128480090096803 0.039866393583907374 0.083658078133339378 -3.6377666242558716e-05 -0.00070036776214707779 0.019453859374828752 0.098018792353905634 0.0046081146453387399 0.059338267122087653 0.00092199522267935217 -0.012389414778880623 0.0012510962777776094 0.0288915601376953 0.022396470942851524 0.0015191447144742862 0.067130357571271504 -0.0013919236619451942 0.017862126614847606 -0.029565378229600328 0.075435230571483436 0.024982034311056129 0.00068962312944989546 0.06327894088368137 -0.0077707677285352144 -0.0031133001897590872 0.047343953134037109 0.013798847303094254 -0.016153043152741027 -0.006261877379829377 -0.025302697620198985 -0.023027478847268038 -0.011760385633773112 -0.010328877440417696 0.089419231109775357 0.0035277660335664217 0.039228980754680044 0.0037482076834484089 0.0055457691112157266 0.016131576912540309 0.01994297595154652 0.0072825202546314702 -0.0016993185167288461 -0.012080400327769714 -0.026835011764866808 -0.0027212188271382282 -0.019410899262979366 -0.02013509456046161 -0.0021781225191473317 0.012826524101181676 0.00076187135764885694 0.0012741841653189213 -0.019975794637650656 -0.02163468495006525 0.016953574091465771 -0.017752905363069366 -0.0073790367310478198 0.037356724640252768 -0.029207175743804756 0.032198484283722559 -0.021762874312504298 -0.010554739129636601 -0.003197669923254977 -0.0080242530138550493 0.0032074176737714841 0.01382258191265808 -0.012795874300286558 0.00393256333529797 0.0089397290747098585 0.034573130741445073 0.0069659303549242059
leaf_weight=35133 8137 103632 15988 92713 5222 19384 29317 110898 17253 20040 28944 95415 42443 103390 75226 18859 22767 90800 44349 29857 113125 13922 13884 27123 4884 35189 15422 25166 41597 50704 54314 76840 21192 36956 132275 7193 56662 38335 59315 22748 22149 23358 33265 24221 57128 64894 25264 21936 46210 62928 73237 9728 228988 225078 56482 5324 96749 50389 64125 8611 3832 81984 107546 9303 15480 28284 149615 81169 8846 99119 51370 12239
leaf_count=35133 8137 103632 15988 92713 5222 19384 29317 110898 17253 20040 28944 95415 42443 103390 75226 18859 22767 90800 44349 29857 113125 13922 13884 27123 4884 35189 15422 25166 41597 50704 54314 76840 21192 36956 132275 7193 56662 38335 59315 22748 22149 23358 33265 24221 57128 64894 25264 21936 46210 62928 73237 9728 228988 225078 56482 5324 96749 50389 64125 8611 3832 81984 107546 9303 15480 28284 149615 81169 8846 99119 51370 12239
internal_value=0.000622816 -0.0107055 0.0139944 0.0104189 0.00720987 0.00329498 -0.0208733 0.0122959 0.0240194 -0.010195 0.0418316 0.00843178 -0.026347 0.00722358 0.012317 -0.0127693 0.0324462 0.0607742 -0.0150862 0.011418 -0.035496 0.0228372 0.0364352 -0.0223338 -0.0205037 -0.00225386 -0.0235097 0.000265741 -0.00600899 -0.0119723 -0.0146884 -0.0227124 -0.00561499 0.00902025 -0.0235329 0.0201424 -0.00945924 0.0338191 0.0157734 -0.0135929 -0.00168681 0.00544782 0.0198479 0.0115724 -0.00541044 -0.0287055 0.0148618 -0.00963014 -0.0165955 -0.0119373 0.0139915 -0.0270767 0.00355446 -0.0262668 -0.021424 0.0458842 -0.0310833 -0.0163234 0.0399157 -0.0143293 -0.0121991 -0.029299 -0.0113099 -0.0300972 -0.0327047 0.0180739 0.0199068 -0.0138578 0.0279066 0.0158562 0.0203 0.0282388
internal_weight=3.70546e+06 2.006e+06 1.69947e+06 1.5788e+06 1.48608e+06 1.33511e+06 1.30999e+06 800798 241840 534316 150969 696008 811167 558958 543465 495686 115836 120672 452606 535328 247280 38630 29872 563887 283423 40073 243350 292507 169183 498821 395189 155937 174971 117536 536764 224587 239252 54374 170213 182590 59105 282203 58431 43080 152543 177065 266451 66285 159842 113632 261229 134155 258845 413835 188757 19246 161643 71581 93069 122929 114318 124427 127586 101623 92320 253125 224841 110486 47181 235965 136846 63609
internal_count=3705464 2005996 1699468 1578796 1486083 1335114 1309988 800798 241840 534316 150969 696008 811167 558958 543465 495686 115836 120672 452606 535328 247280 38630 29872 563887 283423 40073 243350 292507 169183 498821 395189 155937 174971 117536 536764 224587 239252 54374 170213 182590 59105 282203 58431 43080 152543 177065 266451 66285 159842 113632 261229 134155 258845 413835 188757 19246 161643 71581 93069 122929 114318 124427 127586 101623 92320 253125 224841 110486 47181 235965 136846 63609
cat_boundaries=0 1 2 3 4 5 6 7 8 9 10 11 12 13 14 15 16 17
cat_threshold=19 30 649 138 3 525 27 396 848 4 387 274 528 537 5 386 589
is_linear=0
shrinkage=0.0886469


Tree=7
num_leaves=73
num_cat=6
split_feature=75 53 78 79 75 53 50 69 75 52 77 44 75 69 85 71 50 69 53 69 75 85 75 53 84 75 50 24 53 48 7 49 69 100 24 49 49 107 98 106 82 49 44 98 77 113 7 111 75 71 87 75 47 49 54 81 113 111 54 60 88 100 61 85 75 75 59 99 44 45 41 47
split_gain=61871.5 42267.8 33343.7 28706.2 22867.8 17792.2 7743.3 7435.42 4781.23 4087.03 4009.97 4083.14 3460.94 3373.16 4980.87 3116.27 2789.67 2246.98 2231.72 2059.16 2039.72 2142.49 2006.45 1963.15 1908.23 1844.6 1854.07 1816.11 1714.59 1624.25 1605.72 1536.95 1402.12 1364.74 1568.71 1362.62 1291.47 1227.77 2136.71 1414.59 1411.63 1728.93 1298.89 1225.69 1210.29 1197.63 1140.92 1129.54 1182.6 1080.19 1075.05 1055.28 1266.21 1040.91 1012.72 1006.61 996.076 966.593 963.71 928.221 880.964 879.005 1327.21 872.575 858.679 938.131 833.207 826.233 805.546 787.427 782.437 778.369
threshold=6.6246678829193124 4.7550001144409189 1.0000000180025095e-35 1.0000000180025095e-35 5.8091156482696542 4.8350000381469735 -1.4999999999999998 -1.0000000180025095e-35 5.1170532703399667 7.258594512939454 1.0000000180025095e-35 0 6.9371728897094735 -1.0000000180025095e-35 1.0000000180025095e-35 0.95323583483695995 -1.0000000180025095e-35 -1.0000000180025095e-35 6.1949999332427987 1.0744051933288576 6.4669008255004892 1.0000000180025095e-35 6.4896459579467782 6.2850000858306894 1.0000000180025095e-35 6.9888138771057138 1.0000000180025095e-35 0.91602516174316417 1.0000000180025095e-35 0.95323583483695995 4.9149999618530282 4.3750000000000009 1.0744051933288576 1.0000000180025095e-35 0.18328517675399783 0.62500000000000011 1.1250000000000002 1.0000000180025095e-35 7.045631170272828 1.0000000180025095e-35 1.0000000180025095e-35 1.1250000000000002 1 5.707172393798829 1.0000000180025095e-35 2 4.5950000286102304 5.5000000000000009 6.2744469642639169 0.95323583483695995 2.5000000000000004 6.4728324413299569 0.18328517675399783 1.6250000000000002 1.0000000180025095e-35 1.0000000180025095e-35 3 8.5000000000000018 1.0000000180025095e-35 1.0000000180025095e-35 5.5000000000000009 1.0000000180025095e-35 1.0000000180025095e-35 1.0000000180025095e-35 6.8130462169647226 6.8700993061065683 1.0000000180025095e-35 6.7049999237060556 4 5 1.0000000180025095e-35 0.91602516174316417
decision_type=2 2 2 2 2 2 2 2 2 2 2 9 2 2 2 2 2 2 2 2 2 2 2 2 2 2 2 2 2 2 2 2 2 2 2 2 2 2 2 2 2 2 9 2 2 9 2 2 2 2 2 2 2 2 2 2 9 2 2 2 2 2 2 2 2 2 2 2 9 9 2 2
left_child=2 6 3 4 8 7 12 -6 44 18 11 19 17 43 30 20 22 -2 37 35 21 27 -4 -23 28 45 -27 29 55 53 -15 47 51 34 36 -7 70 39 49 40 42 69 -3 -10 -1 -8 -14 -17 -49 -39 -36 57 -53 -12 -21 68 -11 -30 71 -43 -48 62 -37 64 -47 -66 -28 -19 -9 -42 -20 -13
right_child=1 9 16 -5 5 10 25 24 13 56 15 58 46 14 -16 31 -18 67 33 54 -22 23 -24 -25 -26 26 66 -29 32 -31 -32 -33 -34 -35 50 61 -38 38 -40 -41 41 59 -44 -45 -46 63 60 48 -50 -51 -52 52 -54 -55 -56 -57 -58 -59 -60 -61 -62 -63 -64 -65 65 -67 -68 -69 -70 -71 -72 -73
leaf_value=0.043218513061987061 0.084737170153799224 -0.011841548303718625 0.069379926382165544 0.036332361406670684 0.091406119455612209 -0.00071767414489695626 -0.0089923852377349709 0.0083489539210040258 0.075184445623382848 -0.030085936340132246 0.015576890729566053 0.0027883099123457 0.013317701760067441 0.018037900659117836 0.093266373746595604 -0.014905553886566704 0.061179459524099172 0.021367933607398408 -0.0014485287404125439 0.0061359785372785145 -0.010190781141852423 0.058505240721005172 0.022767454431331529 -0.031038560762361299 0.031292763816811078 -0.00053058677681658555 -0.016881499876309783 -0.012958742928842073 0.00040684328696822137 0.033212463831637055 -0.00026404084179147875 0.018612946274590092 0.015668090916121015 -0.024843054583594839 -0.015893344105049764 -0.011238573388861882 -0.013823463081695075 -0.00050422545269860784 0.030499555653112999 -0.023250657839480552 -0.02258670049725376 -0.028804157923521635 -0.0033611123639548332 0.033651465619554885 0.077368125216321956 -0.0035596386313303018 0.00083223345616180889 0.01972337210183811 -0.01334910283616343 -0.017845227170638998 -0.027945870180136195 0.00048277960719883171 -0.02439732484513599 -0.00522799846774929 -0.014569677742593098 0.030463395746949975 -0.018590367303207431 0.014845693547618766 -0.0089819110617300902 -0.012848225935836493 0.014379158599039737 -0.025823946927016051 -0.027134667765093774 0.038788125756912178 0.014557905891182927 -0.00020989472145687319 0.0010363119137496522 0.004315736152729851 0.020667354473009589 -0.0029832892555262933 -0.016922237560882056 -0.018225048289750627
leaf_weight=37873 8137 207650 15988 92713 21624 15338 56159 104043 15855 53068 26708 90172 83872 78494 13967 72407 90800 140170 51798 22642 32336 13320 13884 1786 33909 61624 77476 17442 114774 37934 66172 18004 61335 44210 162947 73184 194846 29956 9176 36997 12276 37384 105404 55767 37701 83534 205947 12765 16551 17659 29766 24438 14942 30938 18521 20076 47820 37983 71615 23926 36726 53532 37114 5360 46343 52185 11660 26639 78637 31342 13939 6184
leaf_count=37873 8137 207650 15988 92713 21624 15338 56159 104043 15855 53068 26708 90172 83872 78494 13967 72407 90800 140170 51798 22642 32336 13320 13884 1786 33909 61624 77476 17442 114774 37934 66172 18004 61335 44210 162947 73184 194846 29956 9176 36997 12276 37384 105404 55767 37701 83534 205947 12765 16551 17659 29766 24438 14942 30938 18521 20076 47820 37983 71615 23926 36726 53532 37114 5360 46343 52185 11660 26639 78637 31342 13939 6184
internal_value=0.000653868 -0.00988949 0.0130989 0.00966605 0.00668041 0.00108275 0.00443514 0.0135223 0.0282828 -0.0214486 -0.00844029 -0.0142724 0.0117435 0.0219327 0.0147231 -0.000357782 0.0580121 0.0218047 -0.019748 -0.022209 0.00771752 0.0127385 0.0345123 0.0440937 0.011278 -0.00485897 -0.0125655 0.00854755 0.00976996 0.0133479 0.00984222 -0.0111808 0.00490947 -0.0239759 -0.0225258 -0.0263177 -0.0180411 -0.0156379 -0.00334798 -0.017172 -0.0157013 -0.0245998 -0.0127187 0.0379008 0.0476299 -8.91132e-05 0.00635315 -0.0154063 -0.000725305 -0.0108965 -0.02859 0.00118428 -0.0117547 0.00397341 -0.0043305 0.0158462 -0.0384609 0.00451998 -0.0038602 -0.0341977 0.00327261 -0.0286831 -0.0241592 0.00331346 0.00227573 0.00788136 -0.0207394 0.0195857 0.0137754 -0.0111085 -0.00729659 0.00192818
internal_weight=3.70546e+06 2.006e+06 1.69947e+06 1.5788e+06 1.48608e+06 1.18025e+06 895832 511761 305829 1.11016e+06 668493 388302 501491 230255 158633 280191 120672 174946 1.00928e+06 220331 160464 128128 29872 15106 490137 394341 150760 113022 456228 95580 144666 119727 253472 497506 453296 179168 260583 511770 56791 454979 417982 104928 313054 71622 75574 243581 326545 101723 29316 47615 192713 192137 39380 57646 41163 202756 100888 152757 167971 61310 242673 163830 110298 187422 182062 98528 89136 166809 182680 43618 65737 96356
internal_count=3705464 2005996 1699468 1578796 1486083 1180254 895832 511761 305829 1110164 668493 388302 501491 230255 158633 280191 120672 174946 1009276 220331 160464 128128 29872 15106 490137 394341 150760 113022 456228 95580 144666 119727 253472 497506 453296 179168 260583 511770 56791 454979 417982 104928 313054 71622 75574 243581 326545 101723 29316 47615 192713 192137 39380 57646 41163 202756 100888 152757 167971 61310 242673 163830 110298 187422 182062 98528 89136 166809 182680 43618 65737 96356
cat_boundaries=0 1 2 3 4 5 6
cat_threshold=336 468 272 146 284 2
is_linear=0
shrinkage=0.0886469


Tree=8
num_leaves=73
num_cat=11
split_feature=75 65 78 79 75 50 76 76 30 30 69 75 77 90 85 69 47 69 77 50 85 75 48 45 88 113 75 81 23 104 100 55 75 52 71 90 76 90 46 76 80 54 90 75 81 66 7 107 47 30 80 106 71 49 81 24 106 77 49 113 90 71 105 90 90 52 24 90 52 1 71 81
split_gain=53284.7 34157 30419.2 24570.2 19580 10814.9 7635.37 7242.93 5005.98 4313.75 4282.8 4175.78 3889.44 3625.03 2976.71 3858.63 2878.9 2864.41 2823.59 2531.6 2496.31 2486.57 2864.13 2482.08 2194.81 1917.79 1878.41 1832.77 1742.07 1669.06 1633.93 1632.37 1580.34 2145.64 1529 2604.24 1525.54 1474.71 1333.21 1304.07 1267.68 1266.64 1231.61 1197.71 1355.88 1274.86 1156.82 1144.72 1144.48 1139.77 1046.43 1021.1 1013.75 975.93 951.201 939.027 948.51 925.078 903.781 884.779 861.943 853.145 812.829 790.325 776.727 759.944 775.678 859.417 717.146 715.368 718.993 772.184
threshold=6.6246678829193124 1.5000000000000002 1.0000000180025095e-35 1.0000000180025095e-35 5.8091156482696542 -1.4999999999999998 5.2950000762939462 5.3350000381469735 6.9649999141693124 6.805000066757203 -1.0000000180025095e-35 5.1517126560211191 1.0000000180025095e-35 0 1.0000000180025095e-35 -1.0000000180025095e-35 0.52360680699348461 -1.0000000180025095e-35 1.0000000180025095e-35 -1.0000000180025095e-35 1.0000000180025095e-35 6.9730169773101816 0.68863588571548473 1 5.5000000000000009 2 6.4896459579467782 1.0000000180025095e-35 1.1840170025825503 1.0000000180025095e-35 1.0000000180025095e-35 1.0000000180025095e-35 6.8130462169647226 7.083808660507203 0.77628836035728466 3 4.9249999523162851 4 1.7017783522605898 2.6149998903274541 1.0000000180025095e-35 1.0000000180025095e-35 5 6.8847763538360605 1.0000000180025095e-35 0.48333333432674414 4.6150000095367441 1.0000000180025095e-35 0.18328517675399783 5.3550000190734872 1.0000000180025095e-35 1.0000000180025095e-35 -0.65363845229148854 3.6250000000000004 1.0000000180025095e-35 0.18328517675399783 1.0000000180025095e-35 1.0000000180025095e-35 1.6250000000000002 6 7 0.95323583483695995 1.0000000180025095e-35 8 9 6.1855430603027353 0.18328517675399783 10 6.7849948406219491 0.52360680699348461 0.95323583483695995 1.0000000180025095e-35
decision_type=2 2 2 2 2 2 2 2 2 2 2 2 2 1 2 2 2 2 2 2 2 2 2 9 2 9 2 2 2 2 2 2 2 2 2 1 2 1 2 2 2 2 1 2 2 2 2 2 2 2 2 2 2 2 2 2 2 2 2 9 1 2 2 1 1 2 2 1 2 2 2 2
left_child=2 17 3 4 11 10 9 8 12 21 -6 39 23 20 15 53 40 -2 30 26 52 32 58 62 27 -15 -4 46 -27 68 65 51 37 -34 35 -20 59 47 -36 -1 43 48 -22 55 45 -45 -19 -3 -37 -12 69 -25 -14 -13 -51 56 -8 -41 -23 -17 -38 -46 -7 -48 -39 -9 67 -67 -18 70 71 -24
right_child=1 6 19 -5 5 7 16 18 -10 -11 49 14 13 25 -16 36 29 24 34 -21 42 22 50 31 -26 28 -28 -29 -30 -31 -32 -33 33 -35 38 41 60 64 -40 57 -42 -43 -44 44 61 -47 63 -49 -50 54 -52 -53 -54 -55 -56 -57 -58 -59 -60 -61 -62 -63 -64 -65 -66 66 -68 -69 -70 -71 -72 -73
leaf_value=0.077281589764274294 0.077225482764740047 -0.0020743978494515833 0.063229611035159575 0.033111610223950282 0.083209843957384677 -0.0076511289762083547 -0.0078969829739397659 -0.0011358065638318983 -0.031023866198251517 -0.016164323529915644 0.035290698155374015 0.046890778528654385 0.03457699231502432 0.017668574179896458 0.069342706295042855 0.028351457430726649 -0.01023916610004191 0.010682862854535997 0.028347821978163441 0.055756090136821757 0.074783636813299165 0.0016483743358253235 -0.012229168277863035 0.005116704949000548 0.021252195887682099 0.0014923159194283602 0.020749190191182782 0.019645139704299059 -0.02882868464193334 -0.0054058908769089838 -0.020567131777720831 -0.017234856641788865 0.0057681606352838555 -0.014462886995656052 -0.01129349336093606 -0.0011302657123657511 0.0072072281541545593 -0.026794515784377543 0.016130477843286882 0.021448290051728408 0.0042429227229285917 0.012863881687218488 0.02553296189524433 -0.014388102143430403 0.0050594778657596391 -0.024729639409033419 0.0048433194372672099 0.041636908444138331 -0.019127749052700333 0.0085662465735963349 0.011324113265956065 -0.006863782296244474 0.0085457682425332162 0.014529140197824475 0.030132433483522569 -0.016717195366611409 -0.02032531744061002 0.057395513501588558 -0.0072374175525498352 0.0085140903504183265 -0.010656739447870836 -0.016848781632967054 -0.024765241990527622 -0.0027954792178833399 -0.0098290059866564666 0.00026654656934938393 -0.017607140718638638 -0.013065562263718463 -0.025816144074323168 -0.023490346039302779 -0.018725980981800599 0.011768925119526799
leaf_weight=37252 8137 84522 15988 92713 21559 44597 154602 34478 16778 126799 30783 47392 33860 64136 20160 31352 10479 112273 34078 90800 15103 70322 118984 261816 90322 60792 13884 38011 10730 16458 69301 21998 144222 26875 86873 33988 30094 9479 16771 24823 12172 14152 5527 73055 12241 59431 169096 4408 24066 84065 4964 39457 26546 14408 11784 89893 22108 21025 129906 50198 29125 7869 14056 120528 97367 29677 43848 29435 115043 34299 36957 5174
leaf_count=37252 8137 84522 15988 92713 21559 44597 154602 34478 16778 126799 30783 47392 33860 64136 20160 31352 10479 112273 34078 90800 15103 70322 118984 261816 90322 60792 13884 38011 10730 16458 69301 21998 144222 26875 86873 33988 30094 9479 16771 24823 12172 14152 5527 73055 12241 59431 169096 4408 24066 84065 4964 39457 26546 14408 11784 89893 22108 21025 129906 50198 29125 7869 14056 120528 97367 29677 43848 29435 115043 34299 36957 5174
internal_value=0.000617265 -0.00916714 0.0121665 0.00888761 0.00612541 0.000945754 -0.0161731 -0.00226971 0.00384089 -0.0110534 0.0233396 0.0261147 0.00517943 0.0146657 0.0197875 0.0165544 -0.0241586 0.00993171 -0.0112948 0.0550648 0.0294992 -0.00855086 -0.0133796 -0.000202829 0.00913066 0.00580219 0.0326783 0.0065463 -0.00417862 -0.0351078 -0.0186483 0.00284114 -0.00327814 0.00294538 -0.00405292 0.00341785 0.00844778 -0.0087172 -0.0117141 0.0430731 -0.0205547 -0.00611535 0.0561266 -0.0213736 -0.0276369 -0.0308924 0.00478658 -0.000282927 -0.0119132 0.0171214 -0.0208723 0.00454334 0.02041 0.0350196 0.0123551 -0.0177887 -0.0140361 0.0330625 -0.00588116 0.0163117 -0.00238141 -0.00618836 -0.0169801 0.00182539 -0.0157356 -0.013052 -0.0168666 -0.0102394 -0.0385881 -0.0218933 -0.0194184 -0.0161874
internal_weight=3.70546e+06 2.006e+06 1.69947e+06 1.5788e+06 1.48608e+06 1.18025e+06 1.46763e+06 1.03206e+06 615396 894278 148191 305829 598618 216694 222729 202569 573351 538367 416667 120672 81036 767479 400606 381924 530230 135658 29872 439908 71522 141980 206739 323271 366873 171097 209928 106284 140769 195776 103644 83100 431371 72206 20630 419199 152596 132486 401897 88930 58054 126632 200378 301273 60406 61800 95849 266603 176710 45848 200228 81550 59219 20110 58653 289624 106846 137438 102960 59112 125522 195414 161115 124158
internal_count=3705464 2005996 1699468 1578796 1486083 1180254 1467629 1032063 615396 894278 148191 305829 598618 216694 222729 202569 573351 538367 416667 120672 81036 767479 400606 381924 530230 135658 29872 439908 71522 141980 206739 323271 366873 171097 209928 106284 140769 195776 103644 83100 431371 72206 20630 419199 152596 132486 401897 88930 58054 126632 200378 301273 60406 61800 95849 266603 176710 45848 200228 81550 59219 20110 58653 289624 106846 137438 102960 59112 125522 195414 161115 124158
cat_boundaries=0 1 2 3 4 5 6 7 8 9 10 11
cat_threshold=526 4 409 262 262 10 211 523 590 64 75
is_linear=0
shrinkage=0.0886469


Tree=9
num_leaves=73
num_cat=21
split_feature=75 53 78 79 75 53 67 69 77 52 77 44 74 71 76 69 50 67 82 69 75 113 54 102 76 80 67 54 7 82 45 50 67 51 44 47 82 69 60 51 52 44 67 69 75 104 45 54 21 71 30 113 52 24 30 44 55 76 67 75 45 91 30 100 67 67 89 21 47 75 44 70
split_gain=45770.8 30814.5 27307.1 21011 16538.8 13103.7 6285.09 5426.19 3835.36 2982.1 2979.65 3178.89 2718.26 2484.71 2466.07 2425.38 2280.71 2264.34 2061.3 1970.58 1736.08 1679.08 1861.23 1708.33 1667.73 1656.69 1640.77 1572.02 1519.33 1498.99 1451.82 1409.78 1384.16 1380.99 1308.85 1287.71 1675.3 1265.19 1240.63 1237.33 1179.18 1173.11 1173 1112.13 1102.38 1049.89 1039.17 990.668 985.099 965.208 941.75 911.241 885.867 878.003 873.151 810.059 790.298 854.8 784.018 783.215 1243.42 865.055 776.04 1118.29 759.334 746.849 745.267 740.523 709.172 707.572 698.38 684.456
threshold=6.6246678829193124 4.8350000381469735 1.0000000180025095e-35 1.0000000180025095e-35 5.8091156482696542 4.7550001144409189 0 -1.0000000180025095e-35 1.0000000180025095e-35 7.258594512939454 1.0000000180025095e-35 1 1.0000000180025095e-35 0.95323583483695995 1.0000000180025095e-35 -1.0000000180025095e-35 -1.0000000180025095e-35 2 1.0000000180025095e-35 1.0744051933288576 6.4896459579467782 3 1.0000000180025095e-35 1.0000000180025095e-35 6.7249999046325692 1.0000000180025095e-35 4 1.0000000180025095e-35 6.1549999713897714 1.0000000180025095e-35 5 -1.0000000180025095e-35 6 1.0000000180025095e-35 7 -0.29682953655719752 1.0000000180025095e-35 1.0744051933288576 1.0000000180025095e-35 1.0000000180025095e-35 6.7849948406219491 8 9 1.7017783522605898 7.1517565250396737 1.0000000180025095e-35 10 1.0000000180025095e-35 11 0.95323583483695995 5.3949999809265146 12 6.3916432857513437 0.18328517675399783 6.8350000381469735 13 1.0000000180025095e-35 6.0899999141693124 14 6.7957708835601816 15 16 6.4049999713897714 1.0000000180025095e-35 17 18 0.67948719859123241 19 0.39916852116584783 6.00319528579712 20 0.39916852116584783
decision_type=2 2 2 2 2 2 1 2 2 2 2 9 2 2 2 2 2 1 2 2 2 9 2 2 2 2 1 2 2 2 9 2 1 2 9 2 2 2 2 2 2 9 1 2 2 2 9 2 9 2 2 9 2 2 2 9 2 2 1 2 9 1 2 2 1 1 2 9 2 2 9 2
left_child=2 6 3 4 8 7 15 -6 12 25 11 19 27 21 -10 -2 20 39 45 42 -4 69 23 50 43 28 -15 58 35 30 37 -31 56 -14 -29 49 40 -9 -38 41 -37 -16 -7 48 -40 46 -8 -21 -17 53 68 -11 -24 -3 -30 -28 57 -32 -1 -50 61 -61 63 -44 -5 -33 -34 -54 -23 -12 -48 -67
right_child=1 9 16 64 5 10 18 29 14 51 13 -13 33 26 17 24 -18 -19 -20 47 -22 22 52 -25 -26 -27 55 34 54 31 32 65 66 -35 -36 36 38 -39 44 -41 -42 -43 62 -45 -46 -47 70 -49 59 -51 -52 -53 67 -55 -56 -57 -58 -59 -60 60 -62 -63 -64 -65 -66 71 -68 -69 -70 -71 -72 -73
leaf_value=0.042384077336172478 0.070379683171184745 -0.0017830018004993797 0.057624502073344318 0.042219827720337444 0.075985616112462726 0.00021964463792976962 -0.01928770118389099 -0.0080077899039006604 0.075968281527788034 -0.02453567585907061 0.063540174419948345 -0.0016130463803567031 0.10500015779876871 0.017165856545312472 -0.017557315370565381 0.018411000491159121 0.05081348562945099 0.04986972503124612 -0.014041121579236947 0.0072437871584273075 0.018909838817878631 0.0059615438608964883 0.00083034459967562719 0.04280176262697008 0.0004943255473435882 0.0013584845615882757 -0.012640735441818455 -0.0097872272888281011 -0.014218664798275712 0.082646328076231693 0.017671651643546348 0.03567746580732948 0.0077895403241323357 0.003995007764426098 0.017203251119147611 -0.0069025322525563242 -0.021731902998908322 0.051351027119582594 -0.013054651701667331 0.03357820053371418 -0.013011841309461382 0.021978436770585624 -0.010642465250884843 0.029938061916445869 0.0076957454360442488 0.0092445784536014357 0.0042620780292171746 -0.012298204305441523 0.01328271911250878 -0.013708159892841075 -0.015955766622319165 -0.013198013574032417 0.0079075490909852799 -0.0099278998752673833 -0.023800291903599557 0.0031221864378935277 -0.010917748533923742 0.0045373152996291324 0.013360294815224523 0.016458325987574924 0.0085603216970529458 -0.0062407352124177733 -0.027516148640731219 -0.021174070349247464 0.024330243743049557 -0.00063793389261242726 -0.0027082473856775858 0.03263455047103142 -0.011125004686921462 0.020874244982593888 -0.0049749117873518819 0.0404071978193149
leaf_weight=12458 8137 113176 15988 33556 21624 16628 13622 41228 34660 65175 3739 158114 10730 22862 11636 58989 90800 52230 67207 26006 13884 31771 17394 12325 164922 33126 83121 33199 180254 4490 157827 28859 90556 3313 22451 162886 67604 2395 39748 18471 217279 12731 99176 20484 8120 32831 51706 19193 115193 65537 31594 35428 13337 65449 33484 16063 7397 45247 93950 10293 146708 70154 25454 55264 59157 17884 70557 19011 15901 20393 158484 4844
leaf_count=12458 8137 113176 15988 33556 21624 16628 13622 41228 34660 65175 3739 158114 10730 22862 11636 58989 90800 52230 67207 26006 13884 31771 17394 12325 164922 33126 83121 33199 180254 4490 157827 28859 90556 3313 22451 162886 67604 2395 39748 18471 217279 12731 99176 20484 8120 32831 51706 19193 115193 65537 31594 35428 13337 65449 33484 16063 7397 45247 93950 10293 146708 70154 25454 55264 59157 17884 70557 19011 15901 20393 158484 4844
internal_value=0.000583677 -0.00848466 0.0112876 0.00818104 0.00562673 0.000866289 0.00346759 0.0118963 0.0239981 -0.0185842 -0.00704354 -0.0119929 0.0154776 -0.000160595 0.0355644 0.00887734 0.0519324 0.0281843 -0.0064696 -0.0183853 0.0306841 0.00691692 0.00322548 -0.00427101 0.00821089 -0.0171017 -0.0097561 0.0122354 -0.0177788 0.00990401 0.00806666 0.0235079 0.00986272 0.0528917 0.00016226 -0.0158768 -0.0184726 -0.00723201 -0.0278241 0.0130667 -0.0156321 -4.67929e-05 -0.0222246 0.011166 -0.0169039 -0.00285062 -0.00502221 -0.00169622 0.0101377 -0.0106073 -0.00904503 -0.0331234 0.0170298 -0.00723114 -0.0243621 -0.0146901 0.0145962 0.0156336 0.0185493 0.0083137 0.00529445 -0.00356238 -0.0243061 -0.0219435 0.0491236 0.0193609 0.00367789 0.0257047 -0.00117868 0.0285227 -0.00348441 0.00732887
internal_weight=3.70546e+06 2.006e+06 1.69947e+06 1.5788e+06 1.48608e+06 1.18025e+06 918730 492908 305829 1.08727e+06 687346 399835 176101 287511 129728 594880 120672 95068 323850 241721 29872 165465 141333 91591 586743 986663 122046 162058 953537 471284 415207 56077 371584 14043 55650 739799 495637 43623 115472 42838 380165 24367 196522 421821 47868 256643 223812 45199 401337 244162 79266 100603 49742 178625 213738 99184 210471 203074 106408 342348 227155 80447 179894 154440 92713 51587 161113 32348 47672 24132 210190 22728
internal_count=3705464 2005996 1699468 1578796 1486083 1180254 918730 492908 305829 1087266 687346 399835 176101 287511 129728 594880 120672 95068 323850 241721 29872 165465 141333 91591 586743 986663 122046 162058 953537 471284 415207 56077 371584 14043 55650 739799 495637 43623 115472 42838 380165 24367 196522 421821 47868 256643 223812 45199 401337 244162 79266 100603 49742 178625 213738 99184 210471 203074 106408 342348 227155 80447 179894 154440 92713 51587 161113 32348 47672 24132 210190 22728
cat_boundaries=0 1 2 3 4 5 6 7 8 9 10 11 12 13 14 15 16 17 18 19 20 21
cat_threshold=19 464 448 521 520 4 538 196 81 513 4 515 154 154 529 2 2 23 517 325 10
is_linear=0
shrinkage=0.0886469


Tree=10
num_leaves=73
num_cat=19
split_feature=75 65 78 79 75 67 7 76 69 71 30 90 83 72 47 69 76 82 50 76 75 67 49 54 113 88 75 67 81 67 30 104 67 67 72 67 90 52 104 24 85 68 90 81 75 90 67 50 81 7 21 81 90 76 48 7 83 113 75 52 113 89 52 89 75 75 30 30 7 70 67 30
split_gain=39102.8 24323.4 24203.2 17881 14629.1 9178.06 6753.06 5732.32 4154.21 3600.12 3259.11 2784.19 2337.48 3032.94 2219.23 2059.88 2054.56 2021.37 1978.8 1967.06 1925.9 2542.27 1871.84 1852.86 1718.23 1677.44 1577.53 1492.87 1421.28 1406.97 1399.55 1362.05 1310.04 1226.19 1175.11 1326.85 1155.39 1205.85 1216.02 1048.39 1171.44 1067.47 1352.48 1033.71 1017.45 1016.42 1502.36 1007.13 1006.83 1000.07 994.072 976.188 962.311 929.011 1050.66 918.767 887.796 881.604 864.778 863.735 855.022 824.899 804.929 804.67 782.799 736.518 727.629 721.099 705.315 701.459 701.096 700.13
threshold=6.6246678829193124 1.5000000000000002 1.0000000180025095e-35 1.0000000180025095e-35 5.4643912315368661 0 5.4249999523162851 5.2049999237060556 -1.0000000180025095e-35 0.95323583483695995 6.805000066757203 1 1.0000000180025095e-35 1.3750000000000002 0.52360680699348461 -1.0000000180025095e-35 6.1949999332427987 1.0000000180025095e-35 -1.0000000180025095e-35 4.0350000858306894 6.9730169773101816 2 2.3750000000000004 1.0000000180025095e-35 3 5.5000000000000009 6.4896459579467782 4 1.0000000180025095e-35 5 6.9649999141693124 1.0000000180025095e-35 6 7 -1.0000000180025095e-35 8 9 6.871638536453248 1.0000000180025095e-35 0.18328517675399783 1.0000000180025095e-35 10 11 1.0000000180025095e-35 6.8700993061065683 12 13 1.0000000180025095e-35 1.0000000180025095e-35 4.6150000095367441 14 1.0000000180025095e-35 15 5.5950000286102304 0.31234753131866466 5.4249999523162851 1.0000000180025095e-35 16 6.8847763538360605 6.8340463638305673 17 0.82575756311416637 5.8135764598846444 0.39230769872665411 6.8207843303680429 6.3333652019500741 6.0750000476837167 4.2149999141693124 5.5350000858306894 0.91602516174316417 18 6.3550000190734872
decision_type=2 2 2 2 2 1 2 2 2 2 2 1 2 2 2 2 2 2 2 2 2 1 2 2 9 2 2 1 2 1 2 2 1 1 2 1 1 2 2 2 2 1 1 2 2 1 1 2 2 2 9 2 1 2 2 2 2 9 2 2 9 2 2 2 2 2 2 2 2 2 1 2
left_child=2 15 3 4 19 8 9 10 -6 12 20 -11 16 32 39 -2 17 23 26 34 29 68 48 52 56 28 -4 -21 49 -3 45 -16 -14 -13 -1 -36 -31 38 -38 41 44 58 -43 55 64 46 -26 -15 60 -17 -29 -47 69 -35 -55 -10 62 -34 63 -50 -19 -23 -8 -9 -41 -20 -42 -27 -22 -7 -5 -60
right_child=1 7 18 70 5 6 24 14 43 11 -12 33 13 47 31 25 -18 22 65 27 21 61 -24 -25 30 67 -28 50 -30 36 -32 -33 57 53 35 -37 37 -39 -40 40 66 42 -44 -45 -46 51 -48 -49 59 -51 -52 -53 -54 54 -56 -57 -58 -59 71 -61 -62 -63 -64 -65 -66 -67 -68 -69 -70 -71 -72 -73
leaf_value=0.1076329191931332 0.06414074248478438 0.0061597814097817949 0.05251626864119744 0.038477170904214222 0.069489038306303999 0.003261600895249666 0.0115059324452121 0.01672678153547651 0.020560233631066391 -0.013830727634742905 -0.013449263588811074 0.031564130544229484 0.032525795087025723 -0.013922922202736538 -0.020616974999478618 0.0093972634412361686 -0.0099126047707073697 0.033838720621901339 0.053623535367543128 0.041369758127186032 0.0015390050706703582 -0.0095225654137973906 0.067943465590727781 -0.0047255030913215873 0.053396292218352882 0.045408299359534526 0.01723354024052955 -0.0099401636684487253 0.017091039152861143 -0.019981529380127951 -0.025743307641056375 -0.0039290591398309519 0.01775417074909752 0.0018407587231460477 0.0579401558699442 0.023977740108226092 -0.0020493432343288583 -0.0097698913072673775 0.01676071228633989 -0.014560003506435196 -0.0073831406590599055 -0.0039219963532620911 -0.014900010395119661 0.031605310899192045 -0.022741316612665121 -0.0058492113261572939 0.0022537368038287706 0.079746231079496549 0.019785721041735458 0.00084119834598608758 0.017630751317092283 0.016924366546992232 0.010879179172788607 0.0067790730932384144 -0.017349142280698313 0.0063043902404602333 -0.0066798149744966631 -0.0017333306658604008 -0.0068840412338937703 0.066118673085956675 0.0036530105725608606 -0.017640575643318435 -0.014877709093601133 -0.004793140341975837 0.0051377861921564046 0.038287254983606106 0.02543225196711188 0.01480189029630255 -0.0078830517028003252 -0.015289535202407079 0.022173443076167632 -0.019237303698208197
leaf_weight=12007 8137 96451 15988 33556 26101 53230 4818 10131 72188 79909 126799 9866 41215 1319 127495 112273 44063 12248 47416 32619 103014 205738 7128 110679 5487 12230 13884 12422 38011 15919 8272 17021 16725 131746 37404 37407 153107 69403 18665 70540 12572 47157 123550 16508 45821 87070 16067 10161 13848 289624 45484 8263 97127 10185 18626 100424 67979 39393 49574 3623 46289 48572 139806 67910 7506 43384 3047 78092 36178 8377 59157 11459
leaf_count=12007 8137 96451 15988 33556 26101 53230 4818 10131 72188 79909 126799 9866 41215 1319 127495 112273 44063 12248 47416 32619 103014 205738 7128 110679 5487 12230 13884 12422 38011 15919 8272 17021 16725 131746 37404 37407 153107 69403 18665 70540 12572 47157 123550 16508 45821 87070 16067 10161 13848 289624 45484 8263 97127 10185 18626 100424 67979 39393 49574 3623 46289 48572 139806 67910 7506 43384 3047 78092 36178 8377 59157 11459
internal_value=0.000542864 -0.00783894 0.0104365 0.00751175 0.00515536 0.00191769 -0.00137574 -0.013751 0.0186506 0.00328133 -0.00918417 -0.00541228 0.00758721 0.0190966 -0.0204719 0.00827787 0.0044295 0.00668515 0.0487016 0.0290484 -0.00695376 -0.0112201 0.0187686 0.00295635 -0.0117962 0.00759857 0.0289095 0.0199051 0.00533924 -0.0022052 -0.00355445 -0.0300273 0.0140137 0.000989731 0.0385818 0.0344497 -0.00563037 -0.00410288 -0.000118626 -0.0173982 -0.02378 -0.0145246 -0.0192215 0.014076 -0.0266647 -0.00106089 0.0163196 0.0621906 0.014695 0.0037896 0.0113539 -0.0049918 0.00909503 -0.000874981 -0.0152945 0.0120491 -0.0166471 0.00519591 -0.00875917 0.0333706 0.00912086 -0.0164912 -0.0205753 -0.0025772 -0.0205084 0.0552128 -0.000901634 0.0186023 -0.00158815 0.000427088 0.0452818 -0.0166637
internal_weight=3.70546e+06 2.006e+06 1.69947e+06 1.5788e+06 1.48608e+06 1.30874e+06 1.09352e+06 1.46763e+06 215221 755757 873846 250332 505425 108813 593783 538367 396612 352549 120672 177343 747047 393502 83136 269413 337762 530230 29872 90525 439908 353545 125159 144516 97333 170423 86818 74811 257094 241175 171772 449267 139486 309781 170707 189120 123867 116887 21554 11480 76008 401897 57906 95333 158734 160557 28811 172612 212603 56118 139074 17471 58537 254310 144624 78041 78046 90800 15619 90322 139192 61607 92713 61033
internal_count=3705464 2005996 1699468 1578796 1486083 1308740 1093519 1467629 215221 755757 873846 250332 505425 108813 593783 538367 396612 352549 120672 177343 747047 393502 83136 269413 337762 530230 29872 90525 439908 353545 125159 144516 97333 170423 86818 74811 257094 241175 171772 449267 139486 309781 170707 189120 123867 116887 21554 11480 76008 401897 57906 95333 158734 160557 28811 172612 212603 56118 139074 17471 58537 254310 144624 78041 78046 90800 15619 90322 139192 61607 92713 61033
cat_boundaries=0 1 2 3 4 5 6 7 8 9 10 11 12 13 14 15 16 17 18 19
cat_threshold=528 258 67 466 531 134 194 4 721 65 1 8 522 132 266 208 523 73 23
is_linear=0
shrinkage=0.0886469


Tree=11
num_leaves=73
num_cat=26
split_feature=75 53 77 78 69 76 53 70 47 48 90 67 51 75 75 113 76 72 91 44 75 52 69 75 72 89 53 90 69 45 100 67 75 88 78 70 89 113 58 90 7 113 90 75 59 90 90 107 21 53 44 67 44 85 100 21 90 67 53 76 67 111 89 1 77 53 84 44 33 44 44 114
split_gain=33429.7 22802.2 20703.9 9837.23 9382.53 7189.54 5804.78 4925.83 4637.17 4378.47 3824.25 3246.55 2795.56 2737.74 4352.57 2369.92 2367.93 2160.19 1920.08 2444.19 1794.5 1784.98 1757.22 1666.75 1654.5 1616.17 1569.71 1478.87 1415.05 1372.07 1296.67 1256.89 1252.7 1681.82 1197.37 1178.9 1161.52 1149.64 1117.78 1112.81 1111.43 1015.69 995.371 966.28 957.284 896.477 874.528 1311.05 887.536 873.461 870.304 817.14 803.814 779.647 770.481 743.342 724.273 719.465 717.661 686.649 671.629 669.716 669.175 657.099 922.717 815.213 680.874 641.301 632.118 629.379 629.056 627.744
threshold=6.4425883293151864 4.8350000381469735 1.0000000180025095e-35 1.0000000180025095e-35 -1.0000000180025095e-35 6.0200002193450937 5.3750000000000009 -0.29682953655719752 -1.4999999999999998 -1.0000000180025095e-35 0 1 1.0000000180025095e-35 6.6260447502136239 6.6041400432586679 2 -1.0000000180025095e-35 1.3750000000000002 3 4 6.8700993061065683 6.7759654521942148 1.0744051933288576 6.9888138771057138 1.6250000000000002 0.96666666865348827 2.8649998903274541 5 -1.0000000180025095e-35 6 1.0000000180025095e-35 7 6.8974313735961923 4.5000000000000009 1.0000000180025095e-35 -0.4159144908189773 0.16025641560554507 8 1.0000000180025095e-35 9 5.4249999523162851 10 11 5.5142700672149667 1.0000000180025095e-35 12 13 1.0000000180025095e-35 14 5.4049999713897714 15 16 17 1.0000000180025095e-35 1.0000000180025095e-35 18 19 20 6.7549998760223398 5.9549999237060556 21 7.5000000000000009 0.96666666865348827 0.52360680699348461 1.0000000180025095e-35 6.995000123977662 1.0000000180025095e-35 22 1.0000000180025095e-35 23 24 25
decision_type=2 2 2 2 2 2 2 2 2 2 1 1 2 2 2 9 2 2 1 9 2 2 2 2 2 2 2 1 2 9 2 1 2 2 2 2 2 9 2 1 2 9 1 2 2 1 1 2 9 2 9 1 9 2 2 9 1 1 2 2 1 2 2 2 2 2 2 9 2 9 9 9
left_child=2 8 4 5 12 10 26 21 20 13 16 17 -1 14 24 45 -4 25 19 53 28 -7 38 27 -3 -12 69 50 -2 39 61 -18 33 37 36 -17 40 59 54 -15 -30 42 -29 -5 -25 -13 48 -48 -31 -33 -10 -21 -22 -11 62 -53 -32 -27 -24 -20 -44 -28 -8 64 65 -34 -65 -66 -42 -6 -39 -54
right_child=1 9 3 43 6 7 22 -9 23 18 11 15 -14 29 -16 35 31 -19 32 51 52 -23 58 44 -26 57 30 41 34 46 56 49 63 -35 -36 -37 -38 70 -40 -41 68 -43 60 -45 -46 -47 47 -49 -50 -51 -52 55 71 -55 -56 -57 -58 -59 -60 -61 -62 -63 -64 66 67 -67 -68 -69 -70 -71 -72 -73
leaf_value=0.071042928479982365 0.058589695709958325 -0.014919657268369753 0.097484824635617986 0.07235560625738488 0.023461733846223531 0.028022105303040858 -0.0013811688150174996 -0.010214552655237932 0.013585368227915905 -0.0069473777922357226 0.042329653994100748 0.040718202414545775 0.015932891994958388 -0.019969014004243051 0.020477365859643489 0.044563718307440547 0.03451501848163456 0.042655475275056608 -0.010700021080991122 9.0124517359469816e-06 0.010231895932689996 -0.0068454932279995049 -0.0022208345283184689 -0.011575282918581438 0.0015986638152255777 -0.025995221386280833 0.0023461405621929467 -0.0029804038188192476 0.021708026086032537 -0.0051369034365791591 0.0040811545673405123 0.0070675791969815578 -0.0067642629144499351 0.00063747511748913895 0.03887407781808274 0.017410785133866336 0.0023847499067616252 -0.013993968117467811 -0.021670131491050258 -0.0087898468004102698 0.0096685734120868488 -0.0041126855029794728 0.019198584653207361 0.038034345022223269 0.0035495289216435841 0.00491281682179333 -0.009603441210684743 0.02255465070931937 0.0053237309514009758 -0.011069333523150317 -0.021786438698186968 -0.020208578372675846 -0.011553505950943904 0.0077886386804074418 -0.015343694033263442 -0.012288470031581875 -0.0092370864718073174 0.014275098413116197 0.032966249120030898 -0.027238215472027007 0.0027554892006403289 0.012759470703658132 -0.011686528809721503 -0.022487674059055513 -0.0039931338629600448 -0.014402585116957483 -0.0013082172158825974 -0.018450754756980339 -0.011154841273222109 0.0090579752983584484 -0.0044335300198423706 0.0021255046933189277
leaf_weight=32289 8202 32569 4494 17709 31098 45146 46200 66410 3409 33389 38479 3294 45268 36794 27388 45754 14547 76308 16817 7620 61091 12979 64441 91797 85682 3769 143349 42482 96997 82821 29116 57348 117875 74028 6606 24437 108068 34889 33016 157246 147185 100626 45189 78061 18329 51301 122361 6543 50336 16660 18390 148746 16412 12585 44449 49379 66789 11381 3490 19924 36593 37180 37270 31195 8921 37444 6040 35273 10146 78789 82289 314967
leaf_count=32289 8202 32569 4494 17709 31098 45146 46200 66410 3409 33389 38479 3294 45268 36794 27388 45754 14547 76308 16817 7620 61091 12979 64441 91797 85682 3769 143349 42482 96997 82821 29116 57348 117875 74028 6606 24437 108068 34889 33016 157246 147185 100626 45189 78061 18329 51301 122361 6543 50336 16660 18390 148746 16412 12585 44449 49379 66789 11381 3490 19924 36593 37180 37270 31195 8921 37444 6040 35273 10146 78789 82289 314967
internal_value=0.000503391 -0.00554343 0.0122278 0.024772 0.00194095 0.0195191 -0.00172209 0.00124203 0.00371769 -0.0134579 0.0260639 0.0316822 0.0309966 -0.00788324 0.00269817 0.0214648 0.0106793 0.041492 -0.0181403 -0.0243758 0.00759022 0.020087 -0.0129097 -0.0046356 -0.00467696 0.0278605 0.00490569 -0.000587482 0.0119564 -0.011262 0.00134296 0.00749463 -0.0147626 -0.0100719 0.0111468 0.0322393 0.010465 -0.0153525 -0.0179562 -0.0169125 0.0137364 0.00154979 0.00691053 0.0506777 -0.0137035 0.00760875 -0.00707821 -0.0122826 -0.00203889 0.0028095 -0.0226276 -0.0285046 0.00339388 -0.00589102 -0.0142028 -0.0296008 -0.0069868 0.00333442 -0.000953742 -0.029034 0.0126284 0.00576817 -0.00918208 -0.0192789 -0.0172612 -0.0140453 -0.0300898 -0.0285631 0.00913501 0.013868 -0.0110592 0.00167104
internal_weight=3.70546e+06 2.44464e+06 1.26082e+06 568077 692744 472307 615187 124535 1.12649e+06 1.31815e+06 347772 254723 77557 601740 145639 124786 93049 129937 716414 251719 769674 58125 228866 356815 118251 53629 386321 246689 377204 456101 276434 88555 464695 227947 369002 70191 362396 153919 160935 194040 254328 224890 124264 95770 110126 54595 262061 128904 133157 74008 21799 205745 392470 45974 127919 198125 95905 15150 67931 36741 81782 180529 83470 236748 199513 155319 37235 44194 157331 109887 117178 331379
internal_count=3705464 2444643 1260821 568077 692744 472307 615187 124535 1126489 1318154 347772 254723 77557 601740 145639 124786 93049 129937 716414 251719 769674 58125 228866 356815 118251 53629 386321 246689 377204 456101 276434 88555 464695 227947 369002 70191 362396 153919 160935 194040 254328 224890 124264 95770 110126 54595 262061 128904 133157 74008 21799 205745 392470 45974 127919 198125 95905 15150 67931 36741 81782 180529 83470 236748 199513 155319 37235 44194 157331 109887 117178 331379
cat_boundaries=0 1 2 3 4 5 6 7 8 9 10 11 12 13 14 15 16 17 18 19 20 21 22 23 24 25 26
cat_threshold=193 780 30 2 576 256 2 515 12 8 203 80 2 26 590 961 4 515 31 521 4 14 6 67 320 4
is_linear=0
shrinkage=0.0886469


Tree=12
num_leaves=73
num_cat=17
split_feature=75 53 78 69 79 53 79 72 85 46 67 90 47 30 44 51 75 67 69 83 75 75 113 90 69 84 69 21 53 30 52 80 44 75 75 75 44 20 75 49 4 44 98 80 113 85 76 85 71 70 106 110 67 44 44 55 76 27 98 75 75 80 21 75 49 30 81 21 54 62 44 105
split_gain=28430.9 19200.2 17131.3 9514.91 9921.68 7899.79 5938.82 3735.32 3348.49 3248.33 2948.57 2682.55 2869.73 2746.45 2116.08 2083.99 2039.7 2015.14 1981.88 2248.42 1668.63 1365.67 1285.56 1233.67 1219.3 1210.83 1159.77 1088.14 1071.91 1045.72 1013.82 987.025 945.45 943.935 934.722 926.99 925.316 913.569 881.033 880.463 850.017 816.891 768.699 754.257 751.487 736.664 708.049 667.49 915.18 733.512 660.339 781.221 719.552 647.563 641.947 636.173 618.671 614.559 601.3 592.518 587.023 584.284 852.984 778.354 579.006 572.653 566.047 701.839 561.958 558.692 533.353 528.742
threshold=6.4425883293151864 4.6150000095367441 1.0000000180025095e-35 -1.0000000180025095e-35 1.0000000180025095e-35 5.1549999713897714 1.0000000180025095e-35 1.1250000000000002 1.0000000180025095e-35 1.0000000180025095e-35 0 1 0.18328517675399783 5.5850000381469735 2 1.0000000180025095e-35 5.1852266788482675 3 1.0744051933288576 1.0000000180025095e-35 6.8700993061065683 6.6260447502136239 4 5 1.1840170025825503 1.0000000180025095e-35 -1.0000000180025095e-35 6 4.3949999809265146 6.3949999809265146 6.7710077762603769 1.0000000180025095e-35 7 6.4728324413299569 5.5142700672149667 6.9730169773101816 8 0.32051283121109014 6.1094226837158212 2.6250000000000004 -1.4999999999999998 9 7.083808660507203 1.0000000180025095e-35 10 1.0000000180025095e-35 5.9349999427795419 1.0000000180025095e-35 0.95323583483695995 0.91602516174316417 1.0000000180025095e-35 3.5000000000000004 11 12 13 1.0000000180025095e-35 5.305000066757203 1.5000000000000002 6.2101957798004159 7.0007855892181405 6.8130462169647226 1.0000000180025095e-35 14 6.8700993061065683 2.1250000000000004 6.7249999046325692 1.0000000180025095e-35 15 1.0000000180025095e-35 1.0000000180025095e-35 16 1.0000000180025095e-35
decision_type=2 2 2 2 2 2 2 2 2 2 1 1 2 2 9 2 2 1 2 2 2 2 9 1 2 2 2 9 2 2 2 2 9 2 2 2 9 2 2 2 2 9 2 2 9 2 2 2 2 2 2 2 1 9 9 2 2 2 2 2 2 2 9 2 2 2 2 9 2 2 9 2
left_child=2 9 3 15 5 8 11 17 16 20 -10 13 40 21 44 -1 -5 69 29 56 26 64 -19 24 37 28 -2 -28 53 46 41 57 47 71 -4 -34 -27 -11 -12 -17 70 45 58 50 -14 -15 -9 48 49 60 51 -25 -52 -18 -29 -30 -20 -22 -35 -50 -23 62 63 -32 -3 -64 -58 -68 -36 -7 -13 -16
right_child=1 6 34 4 -6 7 -8 18 10 23 38 12 14 30 33 39 25 22 19 -21 31 32 -24 43 -26 36 27 54 55 -31 61 -33 35 42 68 -37 -38 -39 -40 -41 -42 -43 -44 -45 -46 -47 -48 -49 59 -51 52 -53 -54 -55 -56 -57 66 -59 -60 -61 -62 -63 65 -65 -66 -67 67 -69 -70 -71 -72 -73
leaf_value=0.070891552933619401 0.053395900854707593 0.022369168730312802 0.065941506116149975 0.038985537231478296 0.024315496779450552 0.00027211712228133181 0.017722339237764478 -0.0051212916362223656 0.059159966919725672 -0.0041726767863097492 0.055980042326951925 -0.016159266178740302 0.0079162504858533468 -0.011478888498219977 -0.01266422153642611 0.033659325664401059 0.014020505685085395 -0.0048736483215213984 0.015791972853356977 0.083053108907159015 0.0016088923984347834 -0.0069067280534296366 0.027036362644487728 -0.0019644892628774054 0.018490168269520192 0.0066162796380345766 0.016794291775196413 0.010904265229003458 0.0014464625927578293 -0.022860901731028917 -0.0031721713611460403 0.019694773363047896 0.0047190125901247241 -0.010841377787710087 0.02947077522508388 -0.0056199958788816454 0.039207078795642537 -0.014815319349872272 0.0058201670783033527 0.011756898587598321 -0.0023150709083473277 -0.0043334261644988785 -0.010847870133035536 0.019896718770326168 -0.0071809348948937285 0.024405731292736495 -0.010789772195576664 0.021620597177461551 -0.0098474528794680761 -0.017173770255815093 0.028497910022690032 0.010326881543735305 -0.017825637816689707 0.0049900798476967961 0.0023539657023146227 -0.020079969394441431 -0.005832362966897397 0.078804931518860047 -0.020095683305001642 -0.017732898730185562 0.0010590894277712468 0.0016784029498282918 -0.0049917848609949958 -0.020006582946253092 0.0024168988792062931 -0.011750476069303364 0.022765727002480394 -0.0067106971344865199 0.043719537214336399 -0.015144056586537455 -0.0043194632476788808 0.0057544569853716686
leaf_weight=35133 8202 10589 17709 29572 64854 54350 23346 102623 18883 58149 6477 34477 12034 117958 17176 61418 104013 13238 11778 3070 367775 64055 49390 111802 8804 13372 105095 133649 161705 19507 9018 15954 63919 20624 49308 72595 17400 51025 21970 31788 96962 160812 44772 8266 40723 3270 120269 5057 57146 13679 2842 42174 13428 124816 111153 8723 68406 1195 159380 23045 59043 8509 44957 54695 70499 87589 7000 5760 28753 9536 21266 7935
leaf_count=35133 8202 10589 17709 29572 64854 54350 23346 102623 18883 58149 6477 34477 12034 117958 17176 61418 104013 13238 11778 3070 367775 64055 49390 111802 8804 13372 105095 133649 161705 19507 9018 15954 63919 20624 49308 72595 17400 51025 21970 31788 96962 160812 44772 8266 40723 3270 120269 5057 57146 13679 2842 42174 13428 124816 111153 8723 68406 1195 159380 23045 59043 8509 44957 54695 70499 87589 7000 5760 28753 9536 21266 7935
internal_value=0.000468654 -0.00510778 0.011281 0.00831836 0.00549967 0.00325942 -0.011865 -0.00508605 0.0109134 0.00402602 0.0333645 -0.0126141 -0.0181855 -0.00987535 -0.0231848 0.0310873 0.00860137 0.00790927 -0.00994433 0.000834509 0.0071563 -0.00479641 0.0192072 -0.00381863 -0.010852 0.0070527 0.0115117 0.0107393 0.00574676 -0.0142139 -0.0144622 0.00310437 -0.00714608 -0.0265904 0.0473214 -0.00134009 0.0239964 -0.0134121 0.0153166 0.0241517 -0.00827858 -0.0110151 -0.0284126 0.00083018 -0.00704723 -0.01651 -0.0124913 -0.0107153 -0.0114579 -0.00704943 -0.000439398 0.00135516 -0.0174235 0.00971074 0.00749908 0.000424365 -0.00163081 0.00217091 -0.0309981 -0.018977 -0.00488528 -0.0192101 -0.020196 -0.0286278 0.00559275 -0.0161395 -0.00438599 0.0127542 0.0431496 -0.00316854 -0.0170014 -0.01029
internal_weight=3.70546e+06 2.44464e+06 1.26082e+06 1.16505e+06 1.03671e+06 971858 1.40513e+06 464927 506931 1.03951e+06 47330 1.38178e+06 455349 926435 302644 128339 459601 126514 338413 96014 743023 439627 62628 296490 117978 430029 358099 349897 399257 242399 486808 384924 358539 249887 95770 136514 30772 109174 28447 93206 152705 282040 224776 178512 52757 121228 222892 222025 216968 136777 170246 153976 16270 228829 244802 170428 92944 368970 180004 80191 123098 204768 196259 63713 81088 132546 81166 12760 78061 63886 55743 25111
internal_count=3705464 2444643 1260821 1165051 1036712 971858 1405130 464927 506931 1039513 47330 1381784 455349 926435 302644 128339 459601 126514 338413 96014 743023 439627 62628 296490 117978 430029 358099 349897 399257 242399 486808 384924 358539 249887 95770 136514 30772 109174 28447 93206 152705 282040 224776 178512 52757 121228 222892 222025 216968 136777 170246 153976 16270 228829 244802 170428 92944 368970 180004 80191 123098 204768 196259 63713 81088 132546 81166 12760 78061 63886 55743 25111
cat_boundaries=0 1 2 3 4 5 6 7 8 9 10 11 12 13 14 15 16 17
cat_threshold=526 30 832 268 536 328 523 976 70 324 199 132 587 203 330 784 716
is_linear=0
shrinkage=0.0886469


Tree=13
num_leaves=73
num_cat=18
split_feature=78 53 79 75 69 75 77 67 75 67 76 90 77 67 79 104 71 46 72 90 44 85 26 81 107 90 30 72 55 90 47 75 89 75 68 21 21 75 76 45 49 80 96 44 30 75 30 110 81 30 98 76 49 69 55 90 90 50 98 23 72 59 52 90 44 30 49 81 80 51 67 75
split_gain=24468.3 21207.1 11859.8 10466.1 7990.38 4977.85 5316.69 4278.44 2903.98 2300.56 1938.32 1833 1762.09 1657.61 1499.78 1480.21 1660.92 1428.07 1381.9 1337.26 1365.29 1307.32 1395.91 1283.79 1215.03 1148.08 1125.65 1096.62 1096.18 1086.71 1053.08 1039.84 1060.16 975.219 963.304 962.013 943.935 927.383 886.361 881.248 861.996 860.789 850.48 838.544 824.329 804.189 795.124 787.823 767.106 741.088 727.976 726.126 706.147 700.251 700.108 688.536 685.274 878.351 667.592 666.842 666.681 621.768 617.617 616.652 616.336 601.305 716.695 588.392 615.382 587.24 586.586 576.962
threshold=1.0000000180025095e-35 5.1050000190734872 1.0000000180025095e-35 5.8091156482696542 -1.0000000180025095e-35 6.4425883293151864 1.0000000180025095e-35 0 6.7613482475280771 1 6.0200002193450937 2 1.0000000180025095e-35 3 1.0000000180025095e-35 1.0000000180025095e-35 0.95323583483695995 1.0744051933288576 1.8750000000000002 4 5 1.0000000180025095e-35 1.1250000000000002 1.0000000180025095e-35 1.0000000180025095e-35 6 6.1949999332427987 1.3750000000000002 1.0000000180025095e-35 7 0.18328517675399783 6.8700993061065683 0.78174602985382091 6.4896459579467782 8 9 10 4.9444956779479989 -1.0000000180025095e-35 11 1.8750000000000002 1.0000000180025095e-35 -1.0000000180025095e-35 12 1.0000000180025095e-35 7.0007855892181405 6.995000123977662 3.5000000000000004 1.0000000180025095e-35 7.180000066757203 6.4425883293151864 5.5850000381469735 2.3750000000000004 1.0744051933288576 1.0000000180025095e-35 13 14 -1.4999999999999998 7.083808660507203 1.0744051933288576 2.6250000000000004 1.0000000180025095e-35 6.2065823078155526 15 16 6.7799999713897714 3.3750000000000004 1.0000000180025095e-35 1.0000000180025095e-35 1.0000000180025095e-35 17 5.1852266788482675
decision_type=2 2 2 2 2 2 2 1 2 1 2 1 2 1 2 2 2 2 2 1 9 2 2 2 2 1 2 2 2 1 2 2 2 2 1 9 9 2 2 9 2 2 2 9 2 2 2 2 2 2 2 2 2 2 2 1 1 2 2 2 2 2 2 1 9 2 2 2 2 2 1 2
left_child=1 4 3 12 69 6 28 10 9 23 36 38 25 27 15 16 31 71 37 35 62 22 -11 26 60 -3 51 42 39 41 59 55 54 -19 -28 46 67 -14 -8 -6 63 45 -13 -15 -12 -18 -10 -17 -46 -37 -20 64 -39 -54 -33 -9 57 -41 -32 -22 -23 -31 -21 -24 -5 66 -38 68 -7 -1 -40 -2
right_child=17 2 -4 8 5 7 11 14 19 21 44 13 18 43 -16 47 29 33 50 20 30 24 40 -25 -26 -27 34 -29 -30 61 58 32 -34 -35 -36 49 65 52 70 56 -42 -43 -44 -45 48 -47 -48 -49 -50 -51 -52 -53 53 -55 -56 -57 -58 -59 -60 -61 -62 -63 -64 -65 -66 -67 -68 -69 -70 -71 -72 -73
