tree
version=v4
num_class=1
num_tree_per_iteration=1
label_index=0
max_feature_idx=114
objective=regression_l1
feature_names=Column_0 Column_1 Column_2 Column_3 Column_4 Column_5 Column_6 Column_7 Column_8 Column_9 Column_10 Column_11 Column_12 Column_13 Column_14 Column_15 Column_16 Column_17 Column_18 Column_19 Column_20 Column_21 Column_22 Column_23 Column_24 Column_25 Column_26 Column_27 Column_28 Column_29 Column_30 Column_31 Column_32 Column_33 Column_34 Column_35 Column_36 Column_37 Column_38 Column_39 Column_40 Column_41 Column_42 Column_43 Column_44 Column_45 Column_46 Column_47 Column_48 Column_49 Column_50 Column_51 Column_52 Column_53 Column_54 Column_55 Column_56 Column_57 Column_58 Column_59 Column_60 Column_61 Column_62 Column_63 Column_64 Column_65 Column_66 Column_67 Column_68 Column_69 Column_70 Column_71 Column_72 Column_73 Column_74 Column_75 Column_76 Column_77 Column_78 Column_79 Column_80 Column_81 Column_82 Column_83 Column_84 Column_85 Column_86 Column_87 Column_88 Column_89 Column_90 Column_91 Column_92 Column_93 Column_94 Column_95 Column_96 Column_97 Column_98 Column_99 Column_100 Column_101 Column_102 Column_103 Column_104 Column_105 Column_106 Column_107 Column_108 Column_109 Column_110 Column_111 Column_112 Column_113 Column_114
feature_infos=[-1:2.657536506652832] [-2:1] [-2:0.99227786064147949] [-5:4.75] [-5:2] [-1:1] [-1:7.4738717079162598] [-1:7.7300000190734863] [-1:1] [-1:1] [-1:1] [-1:1] [-1:1] [-1:1] [-1:1] [-1:1] [-1:1] [-1:66] [-1:14] [-1:16] [-1:1] -1:3:4:6:2:8:1:7:0:9 -1:0:1:2 [-1:3.25] [-2:1] [-2:0.99227786064147949] [-5:4.75] [-5:2] [-1:1] [-1:7.4738717079162598] [-1:7.7300000190734863] [-1:1] [-1:1] [-1:1] [-1:1] [-1:1] [-1:1] [-1:1] [-1:1] [-1:1] [-1:67] [-1:15] [-1:16] [-1:1] -1:4:3:6:2:8:7:1:0:9 -1:0:1:2 [-1:3.25] [-2:1] [-2:0.99227786064147949] [-1:4.75] [-2:2] [0:1] [-1:7.4738717079162598] [-1:7.7300000190734863] [-1:1] [-1:1] [-1:1] [-1:1] [-1:1] [-1:1] [-1:1] [-1:1] [-1:1] [0:68] [-1:15] [-1:16] [-1:1] -1:3:4:2:6:8:1:7:0:9 -1:0:1:2 [-1:3.25] [-2:1] [-2:0.99227786064147949] [-1:4.75] [-2:2] [0:1] [-1:7.4738717079162598] [-1:7.7300000190734863] [0:1] [0:1] [0:1] [0:1] [-1:1] [0:1] [0:1] [-1:1] [0:1] [1:69] [-1:15] [-1:16] [-1:1] -1:4:3:6:8:2:1:0:7:9 -1:0:1:2 [-1:3.25] [-2:1] [-2:0.99227786064147949] [-5:4.75] [-5:2] [-1:1] [-1:7.4738717079162598] [-1:7.7300000190734863] [-1:1] [-1:1] [-1:1] [-1:1] [-1:1] [-1:1] [-1:1] [-1:1] [-1:1] [-1:69] [-1:15] [-1:16] [-1:1] -1:3:4:6:2:8:1:7:0:9 -1:0:1:2
tree_sizes=7079 7203 7189 7166 7275 7195 7146 7280 7235 7224 7209 7107 7190 7232 7218 7146 7175 7248 7233 7221 7132 7253 7172 7165 7110 7226 7260 7249 7173 7261 7171 7160 7129 7204 7195 7097 7124 7167 7214 7125 7243 7079 7162 7227 7077 7223 7126 7098 7266 7057 7130 7130 7196 7235 7149 7265 7141 7223 7182 7240 7075 7189 7132 7162 7122 7071 7083 7044 7201 7045 7092 7178 7115 7153 7117 7150 7196 7064 7192 7136 7050 7049 7149 7057 7081 7013 7061 6892 6998 7110 7138 7071 6996 6941 7006 7149 6964 7055 6865 6972 6993 6942 6928 7033 6919 6943 7004 6898 6807 6826 6862 6787 6812 6906 6923 6979 6862 6883 6912 6841 6886 6801 6944 6999 6818 7026 6918 6866 6995 6945 7002 6832 6884 7006 6974 6932 6948 6885 6758 6866 6778 6955 7016 6927 6921 6933 6819 6772 6699 6907 6855 6874 6952 6926 7134 6775 6860 6857 6753 6970 6775 6749 7046 6916 6862 7032 6766 6813 6870 6804 7019 6817 6920 6791 6784 6910 6932 6904 6823 6743 6896 6748 6913 6886 6841 6846 6683 6860 7018 6820 7011 6840 6787 6708 6841 6743 6880 6854 6884 6758 6897 7073 6875 6862 6753 6806 6891 6888

Tree=0
num_leaves=73
num_cat=15
split_feature=53 75 75 75 79 46 78 69 77 78 52 67 75 79 83 82 75 67 53 69 77 106 81 71 67 52 80 89 77 76 30 90 72 48 81 85 44 45 72 49 110 53 53 46 75 87 100 72 75 75 67 72 75 53 84 76 44 67 78 44 72 55 55 69 44 44 44 59 21 90 52 30
split_gain=184603 70323.9 69432.4 32842.2 40677.2 29133.1 24146.9 23480.7 29530.8 16314.4 8785.53 8081.53 14964.8 9036.04 8006.43 8664.33 7431.74 7413.23 6843.5 6283.88 6155.38 5213.89 4897.3 4870.82 4754.24 4659.54 4157.71 3860.17 3748.85 3472.43 3224.23 3131.83 3063.54 2864.08 2750.79 2664.7 2468.22 2387.68 2253.19 2158.19 2131.92 2104.08 2034.06 2006.12 1977.9 1949.08 1944.8 1902.92 1877.21 1750.51 1793.25 1704.37 1692.48 1658.74 1631.09 1584.65 1571.34 1495.83 1422.45 1344.11 1293.15 1276.34 1217.83 1196.68 1194.87 1189.74 1160.1 1144.05 1109.29 1107.15 1097.82 1078.56
threshold=5.4649999141693124 6.6246678829193124 6.4461941719055185 5.7654244899749765 1.0000000180025095e-35 1.0000000180025095e-35 1.0000000180025095e-35 -1.0000000180025095e-35 1.0000000180025095e-35 1.0000000180025095e-35 7.258594512939454 0 6.9369800090789804 1.0000000180025095e-35 1.0000000180025095e-35 1.0000000180025095e-35 6.8707101345062265 1 4.0850000381469735 1.0744051933288576 1.0000000180025095e-35 1.0000000180025095e-35 1.0000000180025095e-35 0.95323583483695995 2 6.00319528579712 1.0000000180025095e-35 0.96666666865348827 1.0000000180025095e-35 6.7249999046325692 6.9649999141693124 3 0.62500000000000011 -1.0000000180025095e-35 1.0000000180025095e-35 1.0000000180025095e-35 4 5 3.3750000000000004 3.3750000000000004 3.5000000000000004 4.6150000095367441 6.2550001144409189 1.0744051933288576 5.8734397888183603 1.5000000000000002 1.0000000180025095e-35 3.8750000000000004 5.4989993572235116 5.2272384166717538 6 2.3750000000000004 7.4117555618286142 4.7950000762939462 1.0000000180025095e-35 7.5799999237060556 7 8 1.0000000180025095e-35 9 3.3750000000000004 1.0000000180025095e-35 1.0000000180025095e-35 1.0000000180025095e-35 10 11 12 1.0000000180025095e-35 13 14 6.8340463638305673 5.3949999809265146
decision_type=2 2 2 2 2 2 2 2 2 2 2 1 2 2 2 2 2 1 2 2 2 2 2 2 1 2 2 2 2 2 2 1 2 2 2 2 9 9 2 2 2 2 2 2 2 2 2 2 2 2 1 2 2 2 2 2 9 1 2 9 2 2 2 2 9 9 9 2 9 1 2 2
left_child=2 3 7 21 9 11 16 -1 18 17 26 12 31 41 15 -10 23 20 48 53 25 45 32 40 35 -5 30 -24 47 39 33 71 59 36 -33 46 -3 -20 58 -14 66 -13 -34 49 -39 -2 -25 61 -9 -17 -51 -52 -38 -16 68 -31 -23 -50 69 70 -43 -18 -46 -44 -41 -57 -7 -30 -40 -35 -19 -4
right_child=1 10 5 4 -6 6 -8 8 14 -11 -12 13 29 -15 19 43 28 22 37 -21 -22 56 27 24 -26 -27 -28 -29 67 55 -32 34 42 38 -36 -37 52 44 54 64 -42 60 63 -45 62 -47 -48 -49 57 50 51 -53 -54 -55 -56 65 -58 -59 -60 -61 -62 -63 -64 -65 -66 -67 -68 -69 -70 -71 -72 -73
leaf_value=-0.096045289704010134 -0.13952099064749582 -0.2471153883742167 -0.12259385410608614 -0.21027392609202125 -0.15243446950190009 -0.21231670139274239 -0.10974647253425336 -0.15151721812815655 -0.12287505618278421 -0.1090813202488867 -0.26972038954155109 -0.21545108081808073 -0.22825821593710988 -0.15540559241718022 -0.1815330524823873 -0.089834787025761809 -0.22749694400540252 -0.24216661093460881 -0.23514267365645164 -0.069362726330380181 -0.1864294664706499 -0.23907763227672688 -0.18018707097513459 -0.21983533795563187 -0.26040019980183005 -0.24338794705873815 -0.22195901862601727 -0.23232620924147199 -0.25410934687968195 -0.21695313225187851 -0.25394594110320762 -0.19322411005902634 -0.24171525967387558 -0.25055721830948341 -0.16633582520088944 -0.1939104502498338 -0.23595792190936363 -0.20163153541640344 -0.25276378543190114 -0.20708225643289885 -0.20636914405546289 -0.23520007914240215 -0.27175461867947764 -0.079626898020808579 -0.2170125726485729 -0.20050326957815748 -0.24235666142683418 -0.24930845283021205 -0.18447989516762331 -0.16495762724564444 -0.23804977845145228 -0.1749221208473174 -0.19706568503353095 -0.20794502952757823 -0.21047496120548534 -0.25688541689638356 -0.16420953963340121 -0.20515604152628997 -0.11843649909330321 -0.19658284021017036 -0.22114578613019398 -0.24333570909685776 -0.24172152622146981 -0.24926653670705448 -0.19361075763071928 -0.2234222812662168 -0.228438491460491 -0.2289719868040011 -0.24102369515850341 -0.2639173128484984 -0.21761139120279738 -0.17192634915924893
leaf_weight=102416 73642 137016 26308 27764 33666 34023 21607 21095 96764 15452 103998 134648 18731 9956 70603 10551 116788 20856 25631 19190 36829 9081 10751 32155 29860 46399 27122 17341 76853 139594 159269 143859 119304 65953 23087 17225 116496 57574 82512 105941 70619 54782 24715 9201 116728 10945 41886 28475 57907 52102 9093 8607 5155 43449 4875 10283 2841 97682 689 7147 54757 25568 12180 83989 66277 18898 65888 10317 96036 61124 13227 28573
leaf_count=102416 73642 137016 26308 27764 33666 34023 21607 21095 96764 15452 103998 134648 18731 9956 70603 10551 116788 20856 25631 19190 36829 9081 10751 32155 29860 46399 27122 17341 76853 139594 159269 143859 119304 65953 23087 17225 116496 57574 82512 105941 70619 54782 24715 9201 116728 10945 41886 28475 57907 52102 9093 8607 5155 43449 4875 10283 2841 97682 689 7147 54757 25568 12180 83989 66277 18898 65888 10317 96036 61124 13227 28573
internal_value=-0.220035 -0.245062 -0.204076 -0.220428 -0.230343 -0.215983 -0.231411 -0.183413 -0.18915 -0.237793 -0.260925 -0.205436 -0.199673 -0.218624 -0.169185 -0.157319 -0.235025 -0.241177 -0.205559 -0.185778 -0.221626 -0.173436 -0.248474 -0.22533 -0.238923 -0.236337 -0.257603 -0.213255 -0.245984 -0.21084 -0.258871 -0.181565 -0.25215 -0.255754 -0.187611 -0.228872 -0.248861 -0.216293 -0.261484 -0.202652 -0.215675 -0.221999 -0.256171 -0.17719 -0.212806 -0.1657 -0.23618 -0.238351 -0.192673 -0.18168 -0.186768 -0.211167 -0.239665 -0.193675 -0.255188 -0.220104 -0.228318 -0.196037 -0.270522 -0.229913 -0.231122 -0.234166 -0.218907 -0.264943 -0.199544 -0.238891 -0.224008 -0.260943 -0.25657 -0.271211 -0.237241 -0.163188
internal_weight=3.63192e+06 1.41419e+06 2.21773e+06 553949 457440 1.40696e+06 571264 810773 708357 423774 860245 835694 581551 254143 319560 186318 549657 408322 388797 133242 110992 96509 297330 291656 121126 74163 756247 28092 258001 359724 729125 221827 269238 569856 166946 91266 258667 212113 311189 190949 170530 244187 228008 89554 186482 84587 74041 170831 176684 80353 69802 17700 121651 114052 183423 168775 11922 155589 127766 41230 109539 142356 128908 108704 172218 29181 99911 87170 178548 127077 34083 54881
internal_count=3631925 1414194 2217731 553949 457440 1406958 571264 810773 708357 423774 860245 835694 581551 254143 319560 186318 549657 408322 388797 133242 110992 96509 297330 291656 121126 74163 756247 28092 258001 359724 729125 221827 269238 569856 166946 91266 258667 212113 311189 190949 170530 244187 228008 89554 186482 84587 74041 170831 176684 80353 69802 17700 121651 114052 183423 168775 11922 155589 127766 41230 109539 142356 128908 108704 172218 29181 99911 87170 178548 127077 34083 54881
cat_boundaries=0 1 2 3 4 5 6 7 8 9 10 11 12 13 14 15
cat_threshold=20 648 72 134 460 4 517 660 528 796 452 320 523 201 266
is_linear=0
shrinkage=1


Tree=1
num_leaves=73
num_cat=13
split_feature=53 75 75 79 75 78 67 69 77 78 79 76 52 83 67 69 53 75 70 81 77 106 98 49 53 80 84 53 26 67 75 71 70 90 75 99 49 77 51 67 71 30 87 26 51 90 75 113 2 113 75 90 52 75 104 44 77 55 50 105 104 67 71 107 44 50 104 52 67 30 69 75
split_gain=161190 62076.8 61801 30030.6 35478.6 24813.3 31591.1 21143.1 27715.9 15087.2 11883.5 8336.78 8289.19 7931.74 6547.22 6306.17 5755.43 5263.35 5018.7 5015.46 4566.45 4342.4 4124.49 3880.5 3694.74 3598.18 3480.99 3426.09 3255.48 3227.62 2722.66 2655.26 3173.62 2500.13 2421.53 2221.57 2214.23 2156.42 2088.37 2014.48 2009.1 2001.83 1978.32 1695.49 1578.93 1548.05 1507.77 1458.74 1436.37 1407.85 1387.55 1375.31 1351.69 1335.13 1321.24 1313.67 1377.83 1276.08 1241.59 1210.51 1210.17 1122.97 1111.97 1861.66 1097.07 1076.94 1860.62 1059.55 1041.41 1199.33 1040.83 1017.03
threshold=5.4649999141693124 6.4461941719055185 6.6246678829193124 1.0000000180025095e-35 5.7930293083190927 1.0000000180025095e-35 0 -1.0000000180025095e-35 1.0000000180025095e-35 1.0000000180025095e-35 1.0000000180025095e-35 6.7249999046325692 7.258594512939454 1.0000000180025095e-35 1 1.0744051933288576 3.6950000524520878 6.979229450225831 0.18328517675399783 1.0000000180025095e-35 1.0000000180025095e-35 1.0000000180025095e-35 6.2987723350524911 0.87500000000000011 4.8350000381469735 1.0000000180025095e-35 1.0000000180025095e-35 4.1349999904632577 0.87500000000000011 2 6.4431371688842782 0.95323583483695995 0.91602516174316417 3 6.1094226837158212 5.4049999713897714 1.8750000000000002 1.0000000180025095e-35 1.0000000180025095e-35 4 -0.58969762921333302 6.7049999237060556 1.5000000000000002 3.3750000000000004 1.0000000180025095e-35 5 5.910323143005372 6 -1.0000000180025095e-35 7 5.1713943481445321 8 6.4509029388427743 5.8012783527374276 1.0000000180025095e-35 9 1.0000000180025095e-35 1.0000000180025095e-35 -1.0000000180025095e-35 1.0000000180025095e-35 1.0000000180025095e-35 10 0.95323583483695995 1.0000000180025095e-35 11 1.0000000180025095e-35 1.0000000180025095e-35 6.8427946567535409 12 5.4649999141693124 1.0153881907463076 6.237760305404664
decision_type=2 2 2 2 2 2 1 2 2 2 2 2 2 2 1 2 2 2 2 2 2 2 2 2 2 2 2 2 2 1 2 2 2 1 2 2 2 2 2 1 2 2 2 2 2 1 2 9 2 9 2 1 2 2 2 9 2 2 2 2 2 1 2 2 9 2 2 2 1 2 2 2
left_child=1 7 3 4 21 6 11 44 16 14 17 19 25 23 18 43 53 24 37 27 57 42 26 40 31 28 46 35 29 48 33 32 -8 36 50 -3 -25 38 -6 -33 -10 51 68 -15 -1 60 -16 -13 -4 -23 -18 -30 -47 -9 -41 56 -26 -19 -31 -20 -24 -55 63 -53 -36 66 -64 -48 70 -70 -2 -46
right_child=2 5 12 -5 9 -7 10 8 13 -11 -12 47 -14 15 22 -17 34 20 59 -21 -22 49 45 30 55 -27 -28 -29 41 58 -32 39 -34 -35 64 -37 -38 -39 -40 54 -42 -43 -44 -45 71 52 67 -49 -50 -51 -52 62 -54 61 -56 -57 -58 -59 -60 -61 -62 -63 65 -65 -66 -67 -68 -69 69 -71 -72 -73
leaf_value=0.16982765926694635 0.088014692862556157 0.030761302517571264 0.0036585807431840991 0.061608606419931253 -0.0096846582916912029 0.099132937810831073 0.0084877078633069838 0.053782760491074943 0.076229706443859693 0.1011186334170469 0.058078913664119908 -0.00402715704303859 -0.045280280477392763 0.033348713583861413 0.017044387347546087 0.13731629714037116 0.053977725746592098 -0.0065148166441582585 -0.01341629448280795 0.0457504603657359 -0.028293946379755887 -0.020836331104710604 -0.020735822069374656 0.018175806526274256 -0.026644584508310403 -0.0017528069995385823 0.033673337934803517 -0.0010100508520738932 -0.041097991215937706 -0.013033615742995559 0.025921473695675962 -0.033845209316833706 -0.02197559481358223 0.091531050657953347 -0.0094110794816235199 0.014571311567537076 0.089417356307089926 0.030940127286577444 0.023103253202609541 -0.0084855054179194429 0.026649086711015693 -0.030754076162331043 0.016412400089201536 0.0064366890910857308 0.082966860773627374 -0.022965319580901325 -0.022384839381096901 0.0090740220055679794 -0.020407511436136276 0.034644754553654802 0.0090958221801863953 -0.022599863584443679 -0.036283587820796756 0.030096503203383553 0.011484918726411787 -0.009115348930690553 0.00064395401817785448 -0.022093037163384219 -0.030170083289683333 -0.04617036311960436 0.007372962722316541 0.011556589855127671 -0.026381001634227644 0.012844782606699521 0.0031701904518999569 -0.03581489632524839 0.04460443520950462 0.0019182854428720336 0.06011040368698483 0.13489392435662337 0.010301486641974769 0.009593702742821798
leaf_weight=40037 4428 167696 34351 33666 33239 34313 172015 28644 26220 15452 10996 115615 103998 82172 7874 19190 8163 129191 51465 42572 95062 7692 69674 9345 36910 27122 9302 51511 28179 21831 10295 15985 17613 90863 58707 181401 25482 36072 13025 86188 24113 210519 11801 31880 59660 59209 36166 61857 12892 4230 112724 289900 64145 65519 19548 133693 9482 25310 47221 9351 7900 54520 33109 6121 60520 42491 2511 9611 43816 17803 8028 2719
leaf_count=40037 4428 167696 34351 33666 33239 34313 172015 28644 26220 15452 10996 115615 103998 82172 7874 19190 8163 129191 51465 42572 95062 7692 69674 9345 36910 27122 9302 51511 28179 21831 10295 15985 17613 90863 58707 181401 25482 36072 13025 86188 24113 210519 11801 31880 59660 59209 36166 61857 12892 4230 112724 289900 64145 65519 19548 133693 9482 25310 47221 9351 7900 54520 33109 6121 60520 42491 2511 9611 43816 17803 8028 2719
internal_value=0.000142708 0.0150557 -0.0232437 -0.000150564 -0.00540092 0.00379712 0.00193581 0.034593 0.0291497 -0.0165384 -0.0102817 0.0167387 -0.0381144 0.0484911 -0.0198023 0.0319759 0.0132526 -0.0116393 -0.00453622 0.0232404 -0.0221234 0.0427126 -0.0280827 0.0603016 -0.00631522 -0.0348874 -0.00828391 0.0201662 -0.0360668 -0.022469 0.068085 -0.000469462 0.0060893 0.0716749 0.00476541 0.0233152 0.0514187 0.00972844 -0.00293905 -0.0106874 0.0392729 -0.0386472 0.0496725 0.0240651 0.072241 -0.0342873 -0.0169638 0.000503425 -0.00460908 -0.00741966 0.0136063 -0.034982 -0.0404603 0.0269589 -0.00625025 -0.0164219 -0.0292749 -0.0127174 -0.0346823 -0.0238494 -0.0244627 0.0228552 -0.033556 -0.0310742 -0.00419852 -0.0429654 -0.031596 -0.0231273 0.0550429 0.0597723 0.0315722 0.0634221
internal_weight=3.63192e+06 2.21773e+06 1.41419e+06 553949 520283 1.40696e+06 1.37264e+06 810773 708357 422485 751993 620652 860245 319560 407033 133242 388797 740997 143152 443180 249563 97798 263881 186318 491434 756247 62953 400608 729125 116295 135985 311349 189628 125690 240114 349097 34827 82336 46264 121721 50333 612830 85876 114052 102416 200928 53651 177472 47243 11922 120887 402311 123354 148683 105736 180085 46392 154501 69052 60816 77574 120039 374132 296021 119227 78111 35620 45777 74075 61619 12456 62379
internal_count=3631925 2217731 1414194 553949 520283 1406958 1372645 810773 708357 422485 751993 620652 860245 319560 407033 133242 388797 740997 143152 443180 249563 97798 263881 186318 491434 756247 62953 400608 729125 116295 135985 311349 189628 125690 240114 349097 34827 82336 46264 121721 50333 612830 85876 114052 102416 200928 53651 177472 47243 11922 120887 402311 123354 148683 105736 180085 46392 154501 69052 60816 77574 120039 374132 296021 119227 78111 35620 45777 74075 61619 12456 62379
cat_boundaries=0 1 2 3 4 5 6 7 8 9 10 11 12 13
cat_threshold=18 649 7 192 132 587 88 768 129 144 592 464 8
is_linear=0
shrinkage=0.0886469


Tree=2
num_leaves=73
num_cat=15
split_feature=53 75 75 79 75 78 67 69 77 78 79 52 76 79 78 67 75 53 75 81 70 77 106 81 24 90 76 99 72 53 72 49 108 70 51 88 100 48 4 45 90 85 87 67 67 67 44 69 90 53 69 7 75 51 110 44 98 84 30 69 70 67 54 30 55 80 105 113 77 94 90 67
split_gain=139915 55407.3 54238.7 27422.2 30604.3 23923.8 26536.8 19609 25657.2 13959.8 10940.2 7697.64 6965.64 6782.38 9654.52 5561.93 5399.07 4997.64 4522.99 4321.84 4251.76 3953.19 3792.85 3688.81 3217.22 3452.37 3082.53 3046.31 2843.36 2842.18 2096.79 2824.45 1962.28 1954.34 1937.08 1924.69 1904.91 1895.62 2083.23 1893.83 1839.17 1759.25 1744.35 1738.91 1718.75 1620.85 1577.36 1524.8 1424.28 1385.42 1343.15 1332.09 1310.99 1285.88 1275.29 1274.3 1271.79 1222.14 1216.36 1168.04 2424.19 1377.17 1162.62 1133.26 1103.06 1086.28 1080.88 1071.79 1060.33 1384.52 1135.83 1039.79
threshold=5.4649999141693124 6.4461941719055185 6.6246678829193124 1.0000000180025095e-35 5.7930293083190927 1.0000000180025095e-35 0 -1.0000000180025095e-35 1.0000000180025095e-35 1.0000000180025095e-35 1.0000000180025095e-35 7.258594512939454 6.7249999046325692 1.0000000180025095e-35 1.0000000180025095e-35 1 5.5697653293609628 4.4149999618530282 6.979229450225831 1.0000000180025095e-35 0.18328517675399783 1.0000000180025095e-35 1.0000000180025095e-35 1.0000000180025095e-35 1.0000000180025095e-35 2 4.8350000381469735 5.7650001049041757 0.62500000000000011 4.0450000762939462 2.3750000000000004 2.3750000000000004 1.0000000180025095e-35 0.91602516174316417 1.0000000180025095e-35 5.5000000000000009 1.0000000180025095e-35 0.68863588571548473 -1.0000000180025095e-35 3 4 1.0000000180025095e-35 1.5000000000000002 5 6 7 8 1.7017783522605898 9 6.0350000858306894 1.0000000180025095e-35 4.5950000286102304 5.1341700553894052 1.0000000180025095e-35 2.5000000000000004 10 6.4316136837005624 1.0000000180025095e-35 5.4049999713897714 1.0744051933288576 0.18328517675399783 11 1.0000000180025095e-35 6.0750000476837167 1.0000000180025095e-35 1.0000000180025095e-35 1.0000000180025095e-35 12 1.0000000180025095e-35 -0.58969762921333302 13 14
decision_type=2 2 2 2 2 2 1 2 2 2 2 2 2 2 2 1 2 2 2 2 2 2 2 2 2 1 2 2 2 2 2 2 2 2 2 2 2 2 2 9 1 2 2 1 1 1 9 2 1 2 2 2 2 2 2 9 2 2 2 2 2 1 2 2 2 2 2 9 2 2 1 1
left_child=1 7 3 4 22 6 12 34 17 15 18 24 19 14 16 20 45 39 26 29 40 64 42 28 25 43 32 -25 67 35 44 -32 33 -8 -1 58 -19 38 -27 -9 49 -26 68 -4 -18 50 -30 52 -48 71 -10 -14 -41 -24 -38 -40 -34 -46 -3 60 61 -28 -56 -43 -20 -23 -22 -17 70 -70 -2 -6
right_child=2 5 11 -5 9 -7 10 8 13 -11 -12 -13 51 -15 -16 23 30 36 21 -21 66 65 53 27 41 37 59 -29 46 -31 31 -33 56 -35 -36 -37 54 -39 55 47 -42 63 -44 -45 57 -47 48 -49 -50 -51 -52 -53 -54 -55 62 -57 -58 -59 -60 -61 -62 -63 -64 -65 -66 -67 -68 -69 69 -71 -72 -73
leaf_value=0.15477296385862011 0.064471463696289089 0.024815420997186834 -0.015837944439434308 0.056147194490996796 0.02982613776442717 0.090345110256023098 0.0025110403869631711 -0.0052778235728748847 -0.038217411692022647 0.092154780103806733 0.05293039805344766 -0.041266324013921656 0.011530377802491465 0.059844452434083116 0.10242089323026562 -0.01577469769973271 0.036604715299436763 0.0061546313516627673 -0.0059372983491864702 0.041694823913052896 -0.012226981576895501 -0.02757071434717635 -0.015199150810083386 -0.010219831054268375 -0.027360947876507277 -0.0025578019634781113 0.0031371926209880106 0.035640593403580008 -0.027110488221604907 -0.00052500608683871608 0.03641837310343965 0.13000586119252372 0.0075888462318085869 -0.020027526473222878 0.072634251387545742 0.032357553216230218 -0.024974130565628569 -0.020584914624896384 -0.028816359601280768 0.074679300982866723 -0.0074978715043542317 -0.017895107612876916 0.014957491711325746 -0.036457981256364347 0.0041666544924301597 0.11144054922227624 -0.036296295491993785 0.09837109313333503 -0.00065751265317558747 0.03023023629739055 0.06750938088049542 -0.0029942735010850593 0.018582482371643966 0.062796060994047109 0.0064556712401019241 -0.013465504021379896 -0.028138989951229588 0.027079458343789036 0.011148366017627434 -0.00060404481539979779 -0.026729365735707278 -0.013919619472286825 -0.017071174697047307 0.029492788687386418 -0.020134557922869147 0.0013797318334485933 -0.042077503589786021 0.0082226722385894922 0.10624931071158797 0.035287149044144442 0.02258048332689051 -0.0099520702901987144
leaf_weight=40037 17147 82844 27515 33666 9483 34313 282162 16636 1743 15452 10996 103998 43783 45113 51651 23952 60706 121981 129191 42572 51465 89270 9583 17846 303113 59586 32566 9009 169017 53774 43772 9926 7581 17613 62379 100138 14379 165901 27855 8024 24168 6078 11801 61847 52131 33999 7665 8576 19114 33861 5292 133689 172444 2339 25515 101305 20576 15227 163852 32899 43887 54150 21242 3047 25310 5792 9351 17278 29189 8104 19635 14824
leaf_count=40037 17147 82844 27515 33666 9483 34313 282162 16636 1743 15452 10996 103998 43783 45113 51651 23952 60706 121981 129191 42572 51465 89270 9583 17846 303113 59586 32566 9009 169017 53774 43772 9926 7581 17613 62379 100138 14379 165901 27855 8024 24168 6078 11801 61847 52131 33999 7665 8576 19114 33861 5292 133689 172444 2339 25515 101305 20576 15227 163852 32899 43887 54150 21242 3047 25310 5792 9351 17278 29189 8104 19635 14824
internal_value=0.000289838 0.0141838 -0.0214986 0.000135521 -0.00488159 0.00354723 0.00171959 0.0326418 0.0273997 -0.0152257 -0.00947797 -0.0354298 0.0152867 0.0460089 0.0407728 -0.0183654 0.0327673 0.0121044 -0.0107806 0.0212298 -0.00429473 -0.0204994 0.0398048 -0.0259973 -0.0323201 -0.0274714 -0.00584514 0.00513911 -0.0295262 0.018376 0.0262104 0.0409142 -0.000887697 0.00121385 0.0688982 0.0213161 0.00145272 -0.0235451 -0.0174695 0.0215876 0.00883482 -0.039215 0.0463094 -0.0430457 0.0200449 0.061811 -0.0339816 0.024111 -0.0139738 0.0173732 0.0229621 0.000446482 0.0223753 -0.00704788 -0.0113185 -0.0237951 -0.0232624 0.0102898 0.0171087 -0.0157881 -0.0195486 -0.0109565 -0.00421813 -0.00086327 -0.0117477 -0.0347231 -0.0220711 -0.00836772 0.0513522 0.0618858 0.0406718 0.00122853
internal_weight=3.63192e+06 2.21773e+06 1.41419e+06 553949 520283 1.40696e+06 1.37264e+06 810773 708357 422485 751993 860245 620652 319560 274447 407033 222796 388797 740997 443180 143152 249563 97798 263881 756247 444009 491434 26855 237026 400608 181762 53698 327932 299775 102416 346834 183117 354647 188746 205680 82336 312238 85876 89362 128064 41034 195796 189044 26779 58168 7035 177472 180468 11922 61136 129160 28157 67358 246696 163502 130603 86716 46757 9125 154501 95062 60816 41230 74075 37293 36782 24307
internal_count=3631925 2217731 1414194 553949 520283 1406958 1372645 810773 708357 422485 751993 860245 620652 319560 274447 407033 222796 388797 740997 443180 143152 249563 97798 263881 756247 444009 491434 26855 237026 400608 181762 53698 327932 299775 102416 346834 183117 354647 188746 205680 82336 312238 85876 89362 128064 41034 195796 189044 26779 58168 7035 177472 180468 11922 61136 129160 28157 67358 246696 163502 130603 86716 46757 9125 154501 95062 60816 41230 74075 37293 36782 24307
cat_boundaries=0 1 2 3 4 5 6 7 8 9 10 11 12 13 14 15
cat_threshold=18 649 193 4 326 5 648 257 464 192 320 12 348 601 520
is_linear=0
shrinkage=0.0886469


Tree=3
num_leaves=73
num_cat=16
split_feature=53 75 75 79 75 78 50 77 69 78 79 75 78 79 75 90 26 44 81 53 71 75 67 67 109 47 51 76 67 70 85 67 107 53 100 112 89 85 90 71 85 81 30 29 7 72 7 76 30 42 81 90 67 85 99 67 30 77 72 19 44 90 83 44 54 49 44 100 44 75 90 26
split_gain=120994 49169 47439.1 24601.1 26521.2 22938.2 22527.6 18193.6 21372 12891.5 9567.12 8326.87 7269.34 7883.42 7493.38 6341.07 4745.53 4502.45 4389.61 4222.83 3874.55 4446.32 4085.11 3435.27 3315.88 3204.14 3113.52 3056.96 2870.07 3262.97 2766.99 2382.14 2374.78 2225.75 2059.3 2045.89 1994.56 1914.45 1899.15 2453.43 2244.61 1741.51 1718.3 1669.49 1544.12 1478.61 1624.79 1412.9 1379.24 1328.84 1280.44 1273.88 1272.7 1254.93 1241.3 1238.61 1235.33 1183.1 1179.02 1163.47 1153.61 1122.89 1167.36 1081.37 1079.99 1058.36 1109.96 1038.18 1033.56 1026.6 1025.06 1008.74
threshold=5.4649999141693124 6.4461941719055185 6.6246678829193124 1.0000000180025095e-35 5.7930293083190927 1.0000000180025095e-35 -1.4999999999999998 1.0000000180025095e-35 -1.0000000180025095e-35 1.0000000180025095e-35 1.0000000180025095e-35 6.9369800090789804 1.0000000180025095e-35 1.0000000180025095e-35 5.5697653293609628 0 1.1250000000000002 1 1.0000000180025095e-35 3.6550000905990605 0.95323583483695995 6.8707101345062265 2 3 2.5000000000000004 -0.39916852116584772 1.0000000180025095e-35 6.0350000858306894 4 0.18328517675399783 1.0000000180025095e-35 5 1.0000000180025095e-35 4.5750000476837167 1.0000000180025095e-35 0.96666666865348827 0.65476191043853771 1.0000000180025095e-35 6 0.95323583483695995 1.0000000180025095e-35 1.0000000180025095e-35 5.4249999523162851 7.258594512939454 4.7750000953674325 3.1250000000000004 5.2049999237060556 7.5799999237060556 6.7249999046325692 4.5000000000000009 1.0000000180025095e-35 7 8 1.0000000180025095e-35 6.4399998188018808 9 6.9649999141693124 1.0000000180025095e-35 2.6250000000000004 1.5000000000000002 10 11 1.0000000180025095e-35 12 1.0000000180025095e-35 1.1250000000000002 13 1.0000000180025095e-35 14 6.2125542163848886 15 0.62500000000000011
decision_type=2 2 2 2 2 2 2 2 2 2 2 2 2 2 2 1 2 9 2 2 2 2 1 1 2 2 2 2 1 2 2 1 2 2 2 2 2 2 1 2 2 2 2 2 2 2 2 2 2 2 2 1 1 2 2 1 2 2 2 2 9 1 2 9 2 2 9 2 9 2 1 2
left_child=1 7 3 4 24 6 11 8 26 16 20 41 13 14 52 17 54 43 28 63 21 33 -22 50 57 -23 -1 -13 56 61 45 59 48 -8 44 53 60 55 65 40 51 42 -3 -4 -21 46 67 71 -33 -36 -17 -40 -9 -20 -6 -26 69 70 -41 -19 -27 -30 -63 -10 -51 -16 -67 -24 -49 -18 -2 -29
right_child=2 5 15 -5 9 -7 10 12 19 -11 -12 27 -14 -15 38 23 18 31 35 34 22 25 30 -25 37 36 -28 47 29 -31 -32 32 -34 -35 49 -37 -38 -39 39 58 -42 -43 -44 -45 -46 -47 -48 68 -50 64 -52 -53 -54 -55 -56 -57 -58 -59 -60 -61 -62 62 -64 -65 -66 66 -68 -69 -70 -71 -72 -73
leaf_value=0.13765549575174638 0.069505722328211839 0.043773912497464235 -0.021259264969034023 0.051169919795328145 -0.0026997084961996065 0.082336296365476846 0.010715515313519827 0.035311404435088026 0.03381877907842902 0.083985544592509079 0.048238282387626841 0.017742246020983433 0.095465819294457868 0.054597620053095763 0.04326209864472462 -0.022818851433676322 -0.01473039103407566 0.0049834472035825443 -0.007205709831244014 0.014989327424391964 -0.028588339487451538 7.479723604686399e-05 -0.0011394819616350304 -0.034773675940097407 0.023978211894799369 -0.018273480177514657 0.043467564484394733 0.030027831211683616 0.028410642440397604 -0.020688217270860006 0.023693312468246006 -0.01651458352359781 0.05207509477463608 -0.0031554796808702977 -0.020713411865478391 0.032866530246631741 -0.025560634425117228 0.10139703014681474 0.076290612582486997 0.011482633650056672 0.11876241508189234 0.042745732136385731 0.019286317026561559 -0.030208254350582591 0.00086308232053500863 -0.033466446332242356 -0.021308124298664129 -0.032975697914115643 -0.035313087705919094 0.0075448135581806589 0.0012303365215957801 0.034627931715000566 0.093639806373795348 0.037711769170430905 0.026425267833066653 -0.01080157759622425 -0.043589247028522758 0.090423041012159769 0.097039048447577408 -0.0098245901006165197 -0.0055632851262437059 -0.011148709994693713 0.007515857184566579 0.016844347043760817 -0.012178583198976013 -0.0044583137916690465 0.020765254260524595 -0.012246475166582718 -0.0027430151464684434 -0.025566075310580191 0.022158301861635886 0.00224579889730128
leaf_weight=38323 11953 52388 296233 33666 42215 34313 127736 5976 45287 15452 10996 107252 58194 45250 9083 59496 48219 31044 21772 77876 52295 108484 72261 178694 17120 44752 30521 8808 10364 72502 18612 134843 2601 128118 18784 9158 48169 4106 17513 43076 8903 32812 115605 74622 81935 10308 38377 10283 11931 33257 9645 59030 59292 2783 21975 13105 16692 30634 2103 61136 88001 43922 25399 101592 30066 28688 16024 82738 18898 92032 20880 195752
leaf_count=38323 11953 52388 296233 33666 42215 34313 127736 5976 45287 15452 10996 107252 58194 45250 9083 59496 48219 31044 21772 77876 52295 108484 72261 178694 17120 44752 30521 8808 10364 72502 18612 134843 2601 128118 18784 9158 48169 4106 17513 43076 8903 32812 115605 74622 81935 10308 38377 10283 11931 33257 9645 59030 59292 2783 21975 13105 16692 30634 2103 61136 88001 43922 25399 101592 30066 28688 16024 82738 18898 92032 20880 195752
internal_value=0.000427351 0.0133478 -0.0198344 0.000398286 -0.00435375 0.00332785 0.00153825 0.0307356 0.0190707 -0.0139832 -0.00763238 0.0156014 0.0458527 0.040203 0.0340332 -0.0328631 -0.0170003 -0.0280195 -0.021142 0.0110096 -0.00873405 -0.0044094 -0.0173215 -0.0448286 0.037245 -0.0119361 0.064596 0.00716803 -0.0244545 -0.0157767 -0.0120752 -0.018599 -0.0255149 0.00410429 0.00381086 0.00923165 -0.0191589 0.0150508 0.0248972 0.0306699 0.0395064 0.0299224 0.0262737 -0.0341548 0.00967331 -0.0150654 -0.0133215 0.00148245 -0.0270046 -0.00759951 -0.028037 0.034606 0.0598474 -0.00410422 0.00512058 0.00733477 -0.0328661 0.0492502 0.0139642 -0.00739047 -0.0135521 -0.00339621 -0.00746559 0.0228661 -0.00145712 0.010872 0.00526953 -0.00927816 -0.0167653 -0.0301548 0.0375584 0.0040856
internal_weight=3.63192e+06 2.21773e+06 1.41419e+06 553949 520283 1.40696e+06 1.37264e+06 810773 457641 422485 830847 541798 353132 294938 249688 860245 407033 612410 342843 388797 819851 545260 274591 247835 97798 289406 68844 340993 309130 152187 222296 241555 149375 255854 241918 33713 180922 34331 184420 130625 85446 200805 167993 370855 159811 203684 193376 233741 146774 82107 69141 76543 65268 24555 64190 30225 156943 63467 45179 92180 132753 79685 69321 146879 63323 53795 44712 154999 29181 140251 32833 204560
internal_count=3631925 2217731 1414194 553949 520283 1406958 1372645 810773 457641 422485 830847 541798 353132 294938 249688 860245 407033 612410 342843 388797 819851 545260 274591 247835 97798 289406 68844 340993 309130 152187 222296 241555 149375 255854 241918 33713 180922 34331 184420 130625 85446 200805 167993 370855 159811 203684 193376 233741 146774 82107 69141 76543 65268 24555 64190 30225 156943 63467 45179 92180 132753 79685 69321 146879 63323 53795 44712 154999 29181 140251 32833 204560
cat_boundaries=0 1 2 3 4 5 6 7 8 9 10 11 12 13 14 15 16
cat_threshold=30 456 132 133 324 7 193 516 256 75 20 258 579 91 320 595
is_linear=0
shrinkage=0.0886469


Tree=4
num_leaves=73
num_cat=9
split_feature=53 78 75 75 79 67 69 79 79 78 52 75 30 75 53 75 26 7 87 56 81 71 82 77 77 78 75 89 69 49 80 45 76 70 67 84 100 104 105 91 66 0 113 70 100 67 69 49 77 55 81 70 53 112 89 75 44 71 113 30 75 55 53 75 52 113 72 49 104 69 72 49
split_gain=104655 47364.8 37030.6 36593.9 29100.7 21714 18725.6 18037.5 11206.9 11076.2 9011.01 8075.52 5787.07 5409.65 4912.8 3720.97 3676.27 3489.57 3068.76 3012.64 2956.46 2759.74 2562.81 2466.82 2437.65 2336.57 2289.73 2252.18 2165.39 2137.8 2092.74 1938.2 1924.92 1787.15 1726.11 1699.11 1629.15 1616.68 2130.04 1722.11 1596.87 1571.08 1551.25 1855.15 1467.19 1466.16 1339.12 1289.85 1277.69 1272.59 1239.45 1246.85 1222.92 1206.67 1189.61 1318.55 1180.57 1172.9 1140.7 1097.62 1088.66 1045.15 1005.76 985.528 975.863 966.379 953.169 1959.53 931.769 930.354 896.432 1200.34
threshold=5.5750000476837167 1.0000000180025095e-35 6.4632549285888681 5.910323143005372 1.0000000180025095e-35 0 -1.0000000180025095e-35 1.0000000180025095e-35 1.0000000180025095e-35 1.0000000180025095e-35 7.258594512939454 5.4989993572235116 6.7049999237060556 6.9369800090789804 4.5750000476837167 5.5697653293609628 0.87500000000000011 5.1050000190734872 1.0000000180025095e-35 1.0000000180025095e-35 1.0000000180025095e-35 0.77628836035728466 1.0000000180025095e-35 1.0000000180025095e-35 1.0000000180025095e-35 1.0000000180025095e-35 6.4499268531799325 0.16025641560554507 1.0744051933288576 1.1250000000000002 1.0000000180025095e-35 1 6.3949999809265146 -0.29682953655719752 2 1.0000000180025095e-35 1.0000000180025095e-35 1.0000000180025095e-35 1.0000000180025095e-35 3 0.65476191043853771 1.1840170025825503 4 0.18328517675399783 1.0000000180025095e-35 5 1.0000000180025095e-35 1.1250000000000002 1.0000000180025095e-35 1.0000000180025095e-35 1.0000000180025095e-35 -0.29682953655719752 5.3250000476837167 0.96666666865348827 0.10555555671453477 5.0761470794677743 6 0.95323583483695995 7 6.3450000286102304 7.4117555618286142 1.0000000180025095e-35 4.3750000000000009 6.237760305404664 6.2125542163848886 8 2.3750000000000004 2.3750000000000004 1.0000000180025095e-35 1.7017783522605898 2.3750000000000004 2.3750000000000004
decision_type=2 2 2 2 2 1 2 2 2 2 2 2 2 2 2 2 2 2 2 2 2 2 2 2 2 2 2 2 2 2 2 9 2 2 1 2 2 2 2 1 2 2 9 2 2 1 2 2 2 2 2 2 2 2 2 2 9 2 9 2 2 2 2 2 2 9 2 2 2 2 2 2
left_child=1 2 6 15 9 13 18 11 17 10 12 19 16 27 24 59 26 22 -1 34 30 40 28 44 31 33 65 50 35 -24 37 -13 -15 -17 -8 42 60 38 45 -39 -22 47 43 -7 -16 -18 -19 -14 -40 69 51 -4 66 -34 -36 -56 -46 -47 -58 -2 -28 62 -44 -20 -55 -5 -25 -68 -54 -33 -26 -72
right_child=3 -3 5 4 -6 8 7 -9 -10 -11 -12 14 41 32 23 25 20 46 63 -21 21 -23 29 52 70 -27 36 -29 -30 -31 -32 49 53 -35 54 -37 -38 39 48 -41 -42 -43 61 -45 56 57 -48 -49 -50 -51 -52 -53 68 64 55 -57 58 -59 -60 -61 -62 -63 -64 -65 -66 -67 67 -69 -70 -71 71 -73
leaf_value=0.1277592381847282 0.051434860482565521 0.081577784653377491 0.014004869519365184 0.023055659871765014 0.045142717348123265 -0.0061214979927563893 0.025129089803590285 0.050939221378311257 0.042573750871686619 0.080986448767739583 -0.034922377139207761 -0.0089086654418755636 -0.01313903161334864 0.011226457638618388 0.0020936194073311841 0.016426480125599933 0.012589895520480926 -0.0093019782229452619 0.054783410501567181 -0.020070350331458466 0.024130639865405833 -0.01421991189585854 -0.0025571029488498901 0.012871931721668849 0.027488363276197546 0.077341408404069736 -0.0089443161746889065 0.0046693301102579193 0.0075095511040830336 -0.021365591943794258 -0.00039650147991305028 0.015176417737341451 -0.0050807732540528814 -0.018347349004183021 0.09542130547091339 0.02112517150375905 -0.029741459596808902 0.0069118386549244818 -0.038003048896375492 -0.014550426903881799 -0.0075222481153610979 -0.033601747987672119 0.0040583014041479038 -0.022081532769588536 -0.02046480922525433 -0.016433084869081627 -0.02006164606875948 -0.023064478390262814 -0.011160763468627702 -0.011885092695574234 0.03844635499960837 0.032345852776823163 -0.0071340412112540167 0.033520382599929371 0.085687007001082491 0.026493900983844149 0.0091240044162995814 -0.022927026852665591 -0.01549019540169985 0.13295993340910231 0.012220028215102501 -0.014238658911122512 -0.0056792030813941439 -0.00040676277937145606 0.0035758776698737852 -0.0090165984032451445 0.022250370991909213 0.1044615115198433 0.029477593016130753 0.081010974662472882 0.042526442272327408 0.11484850761852339
leaf_weight=43106 51036 97145 64070 26175 25757 86502 19324 49341 13727 11059 100681 19763 50136 171629 113614 27093 6992 78678 51769 5592 17060 27884 39329 56066 70217 4403 58829 43215 68484 71499 27637 192455 95560 11532 25783 12114 13138 21264 40521 58731 9101 57059 97148 50546 28288 336970 109536 166395 8536 10733 30754 89609 26933 7548 18223 18389 18049 127070 16444 5672 10668 31840 110358 3283 98622 8564 20502 5543 4346 5114 25913 5259
leaf_count=43106 51036 97145 64070 26175 25757 86502 19324 49341 13727 11059 100681 19763 50136 171629 113614 27093 6992 78678 51769 5592 17060 27884 39329 56066 70217 4403 58829 43215 68484 71499 27637 192455 95560 11532 25783 12114 13138 21264 40521 58731 9101 57059 97148 50546 28288 336970 109536 166395 8536 10733 30754 89609 26933 7548 18223 18389 18049 127070 16444 5672 10668 31840 110358 3283 98622 8564 20502 5543 4346 5114 25913 5259
internal_value=0.000560568 0.0118631 0.00921752 -0.0194737 -0.023727 0.000190249 0.0237065 0.0189763 -0.00966825 -0.0257541 -0.0265863 0.0153576 -0.0242064 0.0128168 0.0117989 0.0321377 -0.0203967 -0.0111097 0.0601321 0.0405966 -0.0228915 -0.0029965 -0.00764226 0.00337991 0.0192042 0.0124805 -0.00590596 0.0235877 -0.0047094 -0.0197356 -0.0246044 0.0141199 0.00624986 0.00550554 0.0449042 -0.00727137 -0.0139338 -0.0257028 -0.0275073 -0.0139704 0.0176842 -0.0353343 -0.00832311 -0.0158435 -0.00317754 -0.0256765 -0.0215703 -0.0318857 -0.0450866 0.0166371 0.0278557 0.0246047 0.0135811 0.000378731 0.0520742 0.0418098 -0.0140535 -0.0262832 -0.00303907 0.0470526 -0.00852177 -0.00401609 -0.00172156 0.0462619 0.00688323 0.0131899 0.0192631 0.0332765 -0.00133446 0.0182521 0.0306406 0.0431514
internal_weight=3.63192e+06 2.32196e+06 2.22482e+06 1.30996e+06 1.21023e+06 1.37077e+06 854049 755891 769761 1.18447e+06 1.17341e+06 706550 1.07273e+06 601007 619239 99736 799140 756034 98158 87311 681766 54045 567820 289785 329454 43028 117374 227648 456992 110828 627721 228065 373359 38625 81719 388508 82635 600084 520089 79995 26161 273590 376394 137048 176395 471032 188214 216531 49057 208302 184433 153679 113390 201730 62395 36612 62781 464040 34493 56708 69497 239346 207506 55052 106170 34739 82111 26045 31279 197569 101389 31172
internal_count=3631925 2321962 2224817 1309963 1210227 1370768 854049 755891 769761 1184470 1173411 706550 1072730 601007 619239 99736 799140 756034 98158 87311 681766 54045 567820 289785 329454 43028 117374 227648 456992 110828 627721 228065 373359 38625 81719 388508 82635 600084 520089 79995 26161 273590 376394 137048 176395 471032 188214 216531 49057 208302 184433 153679 113390 201730 62395 36612 62781 464040 34493 56708 69497 239346 207506 55052 106170 34739 82111 26045 31279 197569 101389 31172
cat_boundaries=0 1 2 3 4 5 6 7 8 9
cat_threshold=18 4 264 1 336 512 464 13 389
is_linear=0
shrinkage=0.0886469


Tree=5
num_leaves=73
num_cat=17
split_feature=53 75 78 75 79 75 69 67 78 79 52 75 79 75 67 77 109 77 67 51 48 98 71 75 85 44 77 70 45 78 90 52 76 72 49 77 7 44 81 77 75 78 105 73 30 90 104 49 90 80 30 21 7 100 7 89 81 44 44 44 56 112 90 85 90 44 80 81 69 90 77 100
split_gain=90327.9 43111 37752.9 28634.4 23000.6 22905.7 14159.1 14145.4 13774.5 11696.8 6349.95 6251.24 5775.67 4920.28 4152.49 3492.91 2976.92 2885.21 2825.79 2727.56 2680.55 2669.65 2657.65 3177.13 3015.3 2588.11 2385.94 2261.3 2005.27 1981.13 1868 1847.88 1767.18 1764.57 2967.39 1712.1 1689.09 1652.71 1609.94 1543.15 1540.44 1479.1 1462.33 1434.33 1414.32 1412.86 1484.44 1294.9 1224.98 1178.92 1160.76 1077.39 1059.42 1035.97 1027.14 1011.91 1004.94 997.948 987.287 983.125 965.118 964.145 961.618 954.334 899.067 1319.15 1042.93 1091.19 968.708 885.108 878.977 1054.97
threshold=5.2650001049041757 6.6246678829193124 1.0000000180025095e-35 6.4632549285888681 1.0000000180025095e-35 5.7654244899749765 -1.0000000180025095e-35 0 1.0000000180025095e-35 1.0000000180025095e-35 7.258594512939454 5.4989993572235116 1.0000000180025095e-35 6.9369800090789804 1 1.0000000180025095e-35 3.5000000000000004 1.0000000180025095e-35 2 1.0000000180025095e-35 -1.0000000180025095e-35 6.3139925003051767 0.95323583483695995 7.1517565250396737 1.0000000180025095e-35 3 1.0000000180025095e-35 0.91602516174316417 4 1.0000000180025095e-35 5 6.464686632156373 6.0350000858306894 2.3750000000000004 2.3750000000000004 1.0000000180025095e-35 6.3450000286102304 6 1.0000000180025095e-35 1.0000000180025095e-35 6.0676641464233407 1.0000000180025095e-35 1.0000000180025095e-35 -1.0000000180025095e-35 6.9649999141693124 7 1.0000000180025095e-35 3.8750000000000004 8 1.0000000180025095e-35 6.8350000381469735 9 4.7950000762939462 1.0000000180025095e-35 4.8849999904632577 0.78174602985382091 1.0000000180025095e-35 10 11 12 1.0000000180025095e-35 0.86607143282890331 13 1.0000000180025095e-35 14 15 1.0000000180025095e-35 1.0000000180025095e-35 1.0744051933288576 16 1.0000000180025095e-35 1.0000000180025095e-35
decision_type=2 2 2 2 2 2 2 1 2 2 2 2 2 2 1 2 2 2 1 2 2 2 2 2 2 9 2 2 9 2 1 2 2 2 2 2 2 9 2 2 2 2 2 2 2 1 2 2 1 2 2 9 2 2 2 2 2 9 9 9 2 2 1 2 1 9 2 2 2 1 2 2
left_child=2 4 3 6 5 16 19 13 14 11 20 39 22 43 17 18 35 37 57 -1 25 38 23 27 26 31 28 47 -24 63 -19 42 -15 52 -35 62 41 -7 55 60 -20 64 -3 -5 45 -23 -47 58 51 -28 -34 -27 -17 -30 -42 -16 -45 -13 -9 -48 -8 -25 -2 -18 65 -22 67 70 -69 -21 71 -66
right_child=1 10 -4 7 -6 8 9 12 -10 -11 -12 15 -14 32 21 33 29 30 40 69 36 44 24 61 -26 48 49 -29 53 -31 -32 -33 50 34 -36 -37 -38 -39 -40 -41 54 -43 -44 56 -46 46 59 -49 -50 -51 -52 -53 -54 -55 -56 -57 -58 -59 -60 -61 -62 -63 -64 -65 66 -67 -68 68 -70 -71 -72 -73
leaf_value=0.11679004634472009 0.056153453078910807 -0.010597137023765496 0.07583766152627576 0.033263329341330528 0.042419373051682092 -0.014234773092034483 0.037859688504860906 -0.00039313644458864041 0.066106367106524302 0.046109169812384831 -0.031371710774906872 0.010482661231386501 0.038640134252633358 0.011955573206047477 -0.0024985828732444113 0.025764710306314813 0.0035624869070007841 -0.0050183085338737186 0.0098209274561430158 0.066924897498560759 -0.01986356359322854 -0.010627440718716378 -0.023183960932566309 -0.0092990904069728767 0.024936511380151592 -0.0080743783387191553 -0.02187501046261137 -0.01686353829155016 0.0044230322207786787 0.073599934575210871 0.032843958707424299 -0.020667310027760195 0.0032560240593966254 0.030880537481620014 0.10009963857243538 0.077134539335201535 -0.025422023497664432 0.00021076247698805593 0.019168550379976369 0.084450384149324764 0.0021907387287565736 0.085190516336028241 0.044380861371693232 0.014062504438714636 -0.037426025351518816 -0.024229261569014667 0.029964572225292807 -0.010662011100252463 -0.014176124329656977 0.016914957079081 -0.0092842663573755209 0.0045473404339840774 0.005914991424025403 -0.0095906145771731191 -0.0089752521521011906 -0.019296981702750272 0.030529375358357407 0.02881442086159583 0.0089157738160410387 -0.011707868388488059 -0.020083392593878997 -0.024963995371483 0.016932756583033445 0.088786064501522446 -0.0099934547417600307 -0.0092010113477338958 -0.00043720473996005022 -0.015730178113312423 0.0034866995753216009 0.036179998518067295 -0.028166412342378377 -0.031390945841905951
leaf_weight=39442 13592 53865 85216 72280 41310 58989 34560 116866 19953 40045 105495 37537 8455 135780 44170 80630 36680 23614 108420 19204 79488 92055 23202 89100 15572 57155 88163 26172 41216 4782 38100 152782 190631 44875 10705 38461 130985 52869 11340 32013 109679 1154 2890 130449 15327 88692 2684 27459 68298 2752 43110 42291 42226 45774 46886 22104 16516 50275 126203 23022 2356 18695 25303 2377 24031 85125 8543 43159 8107 30302 63320 17047
leaf_count=39442 13592 53865 85216 72280 41310 58989 34560 116866 19953 40045 105495 37537 8455 135780 44170 80630 36680 23614 108420 19204 79488 92055 23202 89100 15572 57155 88163 26172 41216 4782 38100 152782 190631 44875 10705 38461 130985 52869 11340 32013 109679 1154 2890 130449 15327 88692 2684 27459 68298 2752 43110 42291 42226 45774 46886 22104 16516 50275 126203 23022 2356 18695 25303 2377 24031 85125 8543 43159 8107 30302 63320 17047
internal_value=0.000632229 -0.0151295 0.0130318 0.0105048 0.00233577 -0.00197121 0.0243994 0.00218947 -0.0104604 0.0197949 -0.0272591 0.0166998 -0.00704694 0.0120669 -0.0135041 0.0134409 0.0325556 -0.00259424 0.00832877 0.0575404 -0.0246795 -0.0198283 -0.00803762 -0.00379375 -0.01596 -0.0191384 -0.0188699 0.000941701 -0.0100993 0.0140998 0.0127925 -0.0257077 0.0058249 0.0235482 0.0366547 0.0430146 -0.0292147 -0.0110837 -0.00567861 0.0418161 0.00376099 -0.0258337 -0.01205 0.0225877 -0.0247809 -0.022852 -0.0294311 0.00334885 -0.0109301 -0.0295001 0.0011525 -0.00465077 0.0176187 -0.00392319 -0.00186328 -0.01096 0.0175592 0.0221096 0.00541025 -0.010676 0.0294638 -0.0168279 0.0298996 0.00750551 -0.0261853 -0.0215495 -0.0308293 -0.0324862 -0.0218943 0.0436839 -0.0376874 -0.0275877
internal_weight=3.63192e+06 1.59916e+06 2.03277e+06 1.94755e+06 655424 614114 729155 1.2184e+06 492919 640207 943735 600162 629629 588766 472966 531233 121195 173572 352797 88948 838240 299394 621174 404495 216679 377281 201107 296700 110192 43839 61714 209537 369521 178436 55580 77356 460959 111858 77614 68929 264985 329974 56755 219245 221780 206453 114398 270528 167744 90915 233741 99446 122856 86990 156565 66274 146965 87812 243069 25706 36916 107795 38895 39057 328820 164613 164207 155664 51266 49506 104398 41078
internal_count=3631925 1599159 2032766 1947550 655424 614114 729155 1218395 492919 640207 943735 600162 629629 588766 472966 531233 121195 173572 352797 88948 838240 299394 621174 404495 216679 377281 201107 296700 110192 43839 61714 209537 369521 178436 55580 77356 460959 111858 77614 68929 264985 329974 56755 219245 221780 206453 114398 270528 167744 90915 233741 99446 122856 86990 156565 66274 146965 87812 243069 25706 36916 107795 38895 39057 328820 164613 164207 155664 51266 49506 104398 41078
cat_boundaries=0 1 2 3 4 5 6 7 8 9 10 11 12 13 14 15 16 17
cat_threshold=18 649 528 452 4 9 665 601 26 590 788 836 269 593 274 268 539
is_linear=0
shrinkage=0.0886469


Tree=6
num_leaves=73
num_cat=23
split_feature=53 78 75 75 79 50 69 79 78 79 52 75 76 30 53 53 77 51 26 75 30 81 67 78 69 67 75 71 49 67 113 75 75 90 71 77 87 113 67 90 44 90 100 67 76 0 90 30 44 69 90 106 90 110 81 69 100 81 90 44 30 112 49 113 44 44 113 71 26 44 21 47
split_gain=77766.6 42051.5 28101.4 27011.7 21980.5 14603.9 14054.8 14024.6 9112.18 8083.59 7218.25 6289.82 5714.38 4492.56 4300.1 3203.21 3072.67 2905.06 2884.2 2742.93 2303.35 2256.12 2148.85 2096.82 2047.22 2105.9 1885.82 2048.62 1897.91 1742.58 2569.18 1935.19 1730.24 1653.19 1714.09 1821.84 1632.8 1570.64 1538.37 1499.72 1509.39 1457.29 1430.62 1427.34 1362.56 1357.96 1277.56 1271.23 1231.75 1190.52 1823.47 1203.7 1185.59 1174.12 1134.65 1128.08 1123.39 1119.95 1093.28 1080.24 995.993 990.718 986.808 970.31 953.353 950.438 937.638 896.195 894.718 874.152 861.588 850.929
threshold=5.5750000476837167 1.0000000180025095e-35 6.4431371688842782 5.910323143005372 1.0000000180025095e-35 -1.4999999999999998 -1.0000000180025095e-35 1.0000000180025095e-35 1.0000000180025095e-35 1.0000000180025095e-35 7.258594512939454 5.2078967094421396 6.0350000858306894 6.7049999237060556 4.8750000000000009 4.6150000095367441 1.0000000180025095e-35 1.0000000180025095e-35 0.87500000000000011 5.5697653293609628 5.4049999713897714 1.0000000180025095e-35 0 1.0000000180025095e-35 1.0744051933288576 1 6.8707101345062265 0.95323583483695995 1.3750000000000002 2 3 6.8022360801696786 6.4499268531799325 4 0.95323583483695995 1.0000000180025095e-35 1.0000000180025095e-35 5 6 7 8 9 1.0000000180025095e-35 10 7.5799999237060556 1.1840170025825503 11 6.3450000286102304 12 1.1840170025825503 13 1.0000000180025095e-35 14 3.5000000000000004 1.0000000180025095e-35 1.0000000180025095e-35 1.0000000180025095e-35 1.0000000180025095e-35 15 16 3.6550000905990605 0.63961037993431102 1.1250000000000002 17 18 19 20 0.95323583483695995 3.3750000000000004 21 22 0.18328517675399783
decision_type=2 2 2 2 2 2 2 2 2 2 2 2 2 2 2 2 2 2 2 2 2 2 1 2 2 1 2 2 2 1 9 2 2 1 2 2 2 9 1 1 9 1 2 1 2 2 1 2 9 2 1 2 1 2 2 2 2 2 1 9 2 2 2 9 9 9 9 2 2 9 9 2
left_child=1 2 6 19 8 12 17 11 10 15 13 -8 20 18 16 26 36 -1 32 47 -4 29 -23 42 63 -26 27 -7 -28 37 46 58 -5 34 35 -16 39 61 66 -13 -41 -34 70 -37 54 62 59 -2 -24 50 65 53 -19 -52 60 -30 64 -22 -32 -31 -14 -20 -15 -18 -38 -17 -29 71 -65 -46 -21 -33
right_child=3 -3 5 4 -6 9 7 -9 -10 -11 -12 14 44 45 33 49 24 52 21 23 57 22 48 -25 25 -27 28 38 55 30 31 67 41 -35 -36 43 56 -39 -40 40 -42 -43 -44 -45 69 -47 -48 -49 -50 -51 51 -53 -54 -55 -56 -57 -58 -59 -60 -61 -62 -63 -64 68 -66 -67 -68 -69 -70 -71 -72 -73
leaf_value=0.10778167898730957 0.042365196264589677 0.06772856169611223 0.039208407558446068 0.011608589553431959 0.037380609538503577 0.0090780555338754437 0.065088909983200494 0.042390520677051666 0.067810287735817376 0.035288426971326912 -0.029054879531333559 0.086840660024185848 0.018329853910667507 -0.010824826648504746 0.0047703360589256612 -0.019063164664603914 0.055674117830169581 0.062523203428820631 -0.018523332369076603 -0.0020997268859795307 0.012902282449555201 -0.011927837963156792 0.021574702894069538 0.063983056038124431 0.090585215245252079 0.025424503392646722 0.0044872617813693444 -0.01500051113694423 -0.0044616829760063459 -0.022063091729576396 0.015762191990100993 -0.0056321231528265805 -0.0033863505224273182 -0.0061330642723348488 -0.0051436568730382579 0.0079564648429831589 0.0007253208316837555 -0.011197545338558559 -0.01618066588817808 0.008397983238061674 0.034094795071029908 -0.022806969367997018 -0.016663804869202669 0.067937240038346641 -0.029078336435276009 -0.028246567958018123 -0.020047652621074281 0.11451375390564608 -0.0050204011728462389 0.0015448010380660327 -0.007947776334690097 -0.024089878453914446 0.031370239255689228 0.004507438661793148 0.018996638000868728 -0.015750789421258602 -0.001627187945523042 0.030124336924759999 -0.00422070565774154 -0.0070083157533083447 0.0015461166609669584 -0.028293389808846384 -0.019231588898569709 0.027131018170889028 0.014517328498758695 -0.0081950393875727806 0.0052111909368062394 -0.022659466255776785 0.0035811321776192165 -0.001938859533547327 0.026058530353751531 -0.018396105317636732
leaf_weight=40439 51036 97145 71410 34739 25757 136327 38995 49341 11059 13727 100681 8152 28442 50136 49850 100857 14946 22877 88630 12059 154344 28055 15843 4403 16782 12348 50323 15265 68392 27835 21855 54443 62888 90514 44683 9683 37487 62941 34714 49993 21833 19747 11445 16258 10283 57059 136013 5672 10147 40909 201933 14541 34842 41088 21597 67270 73430 21443 67578 73296 215381 53282 166395 59558 69656 56519 55851 15678 23636 18898 15121 26170
leaf_count=40439 51036 97145 71410 34739 25757 136327 38995 49341 11059 13727 100681 8152 28442 50136 49850 100857 14946 22877 88630 12059 154344 28055 15843 4403 16782 12348 50323 15265 68392 27835 21855 54443 62888 90514 44683 9683 37487 62941 34714 49993 21833 19747 11445 16258 10283 57059 136013 5672 10147 40909 201933 14541 34842 41088 21597 67270 73430 21443 67578 73296 215381 53282 166395 59558 69656 56519 55851 15678 23636 18898 15121 26170
internal_value=0.000637306 0.0103803 0.00788751 -0.0166326 -0.0202869 0.000528973 0.0213762 0.0168939 -0.0220486 -0.00640749 -0.0228034 0.0133714 0.0120222 -0.0206734 0.0111249 -0.00745574 0.0166657 0.0527538 -0.0173167 0.0277096 0.0219608 -0.0195264 -0.00214685 0.0108323 0.0279557 0.0485925 -0.00194956 0.00320637 -0.00866277 -0.0210227 -0.0177701 -0.00996074 -0.00448156 0.000940241 0.00774153 0.0158611 0.0111509 -0.0277347 -0.00604761 0.0216955 0.0175969 -0.0114601 0.0042249 0.0349135 0.00368273 -0.030478 -0.0238854 0.0405152 0.0162151 -0.0126273 -0.0140497 -0.00945481 0.0399883 -0.00797274 0.00568174 -0.0141168 0.00648057 0.0165067 -0.000571792 -0.0163346 0.00395669 -0.032906 -0.0272718 0.0218301 0.012269 -0.0215677 0.00142065 -0.0186819 0.0180864 -0.0144991 0.0152959 -0.0149101
internal_weight=3.63192e+06 2.32196e+06 2.22482e+06 1.30996e+06 1.21023e+06 1.43951e+06 785303 687145 1.18447e+06 897716 1.17341e+06 637804 541798 1.07273e+06 598809 883989 387821 98158 799140 99736 247197 681766 54045 43028 127270 29130 428142 242157 185985 627721 422868 185724 117374 210988 120474 75791 260551 204853 105830 79978 71826 82635 38625 25941 294601 273590 237144 56708 25990 455847 414938 257562 57719 243021 265420 135662 180573 175787 89433 101131 243823 141912 216531 98140 107143 157376 71116 96291 83194 29181 27180 80613
internal_count=3631925 2321962 2224817 1309963 1210227 1439514 785303 687145 1184470 897716 1173411 637804 541798 1072730 598809 883989 387821 98158 799140 99736 247197 681766 54045 43028 127270 29130 428142 242157 185985 627721 422868 185724 117374 210988 120474 75791 260551 204853 105830 79978 71826 82635 38625 25941 294601 273590 237144 56708 25990 455847 414938 257562 57719 243021 265420 135662 180573 175787 89433 101131 243823 141912 216531 98140 107143 157376 71116 96291 83194 29181 27180 80613
cat_boundaries=0 1 2 3 4 5 6 7 8 9 10 11 12 13 14 15 16 17 18 19 20 21 22 23
cat_threshold=262 78 320 976 796 542 74 523 270 30 129 15 320 328 539 12 320 641 400 157 272 320 391
is_linear=0
shrinkage=0.0886469


Tree=7
num_leaves=73
num_cat=9
split_feature=53 78 75 75 79 75 78 69 47 77 52 79 69 75 58 71 75 79 53 75 87 113 48 53 44 49 55 75 100 51 85 52 89 75 72 78 107 53 99 66 110 113 7 53 72 48 82 70 105 81 84 80 44 71 52 112 89 21 64 44 47 89 85 7 44 29 49 52 49 75 44 44
split_gain=66462.7 32775 31990.8 21444 17206.1 16963.2 11160.4 10277.3 9277.84 8831.68 4879.26 4274.36 4237.54 2944.97 2695.94 3150.08 2660.63 2439.2 2678.97 3676.38 2433.82 2197.12 2194.71 2148.7 2092.4 1833.38 1690.77 1635.41 1627.85 1537.36 2312.01 1524.73 1490.03 1455.57 1494.28 1347.16 1339.67 1325.53 1319.44 1317.38 1317.14 1288.92 1245.46 1236.15 1185.71 1600.73 1174.74 1150.23 1140.47 1107.55 1104.5 988.236 985.829 976.369 963.616 955.865 951.174 922.397 913.913 902.632 894.692 879.414 1061.33 858.247 850.162 818.76 907.183 816.445 805.652 781.231 723.922 720.873
threshold=5.2650001049041757 1.0000000180025095e-35 6.6246678829193124 6.4431371688842782 1.0000000180025095e-35 5.7654244899749765 1.0000000180025095e-35 -1.0000000180025095e-35 -1.4999999999999998 1.0000000180025095e-35 7.258594512939454 1.0000000180025095e-35 1.0744051933288576 6.979229450225831 1.0000000180025095e-35 0.95323583483695995 5.2272384166717538 1.0000000180025095e-35 3.5449999570846562 6.8761136531829843 1.0000000180025095e-35 0 -1.0000000180025095e-35 1.0000000180025095e-35 1 2.3750000000000004 1.0000000180025095e-35 6.1094226837158212 1.0000000180025095e-35 1.0000000180025095e-35 1.0000000180025095e-35 6.464686632156373 0.82575756311416637 6.4669008255004892 1.8750000000000002 1.0000000180025095e-35 1.0000000180025095e-35 6.3750000000000009 7.5799999237060556 0.96666666865348827 2.5000000000000004 2 6.3450000286102304 6.0050001144409189 1.6250000000000002 0.31234753131866466 1.0000000180025095e-35 0.18328517675399783 1.0000000180025095e-35 1.0000000180025095e-35 1.0000000180025095e-35 1.0000000180025095e-35 3 0.95323583483695995 6.2725353240966806 0.21825397014617923 0.78174602985382091 4 1.0000000180025095e-35 5 1.0000000180025095e-35 0.65476191043853771 1.0000000180025095e-35 4.5950000286102304 6 7.2093935012817392 2.6250000000000004 7.1517565250396737 2.1250000000000004 5.4109089374542245 7 8
decision_type=2 2 2 2 2 2 2 2 2 2 2 2 2 2 2 2 2 2 2 2 2 9 2 2 9 2 2 2 2 2 2 2 2 2 2 2 2 2 2 2 2 9 2 2 2 2 2 2 2 2 2 2 9 2 2 2 2 9 2 9 2 2 2 2 9 2 2 2 2 2 9 9
left_child=1 3 4 7 5 16 14 20 17 23 22 12 41 21 15 26 39 18 19 49 -1 36 24 71 31 69 33 -25 40 30 37 48 59 34 43 42 58 60 51 -2 67 -11 46 -7 -17 -46 65 -30 -4 55 -48 63 -43 -26 -16 -5 -54 -12 -10 -15 -18 -36 -63 -21 -49 66 -24 -23 -52 -14 -40 -9
right_child=2 -3 10 8 -6 6 -8 9 13 11 57 -13 25 32 54 44 29 -19 -20 38 -22 28 35 27 53 -27 -28 -29 47 -31 -32 -33 -34 -35 61 -37 -38 -39 70 -41 -42 52 -44 -45 45 -47 50 64 -50 -51 68 -53 56 -55 -56 -57 -58 -59 -60 -61 -62 62 -64 -65 -66 -67 -68 -69 -70 -71 -72 -73
leaf_value=0.096001369952206581 0.039470955317823055 0.063110960994300122 -0.0085756603310392192 0.026608585808039865 0.03532330191737152 0.0030924505279644986 0.054262960168500414 0.030591833318709634 -0.010560837878749726 0.049647205943117313 -0.029577032002311602 0.038223261410047754 0.093274083958690829 -0.0025616049555085315 -0.0031843276527955427 -0.017033137681365221 -0.01164096699466332 0.032943705427399529 -0.0016387596590265957 0.010337366611880689 0.038809880074749212 -0.0027534027491708832 -0.0072691815628564797 0.0095565367527932332 -0.0028311028652001722 0.082900109558983873 -0.030124203762595319 -0.0022160174550096513 -0.0020829130857937983 0.037487713314284875 0.07236776720468148 -0.017455602739538823 -0.021495756773855158 -0.010983903524267619 0.0040308077496114154 0.071627469465612201 0.024474844193973277 0.039018326959781059 -0.026391623347484589 0.09847753851566049 0.0087285388938565765 0.0038002811354215841 -0.021325896933625056 0.029828845533009987 0.003339309957800823 -0.015591644821160378 -0.025917399620740335 -0.0014607379795196936 0.039389483893633823 0.029193893666063651 -0.015590136488448574 0.023195052197479492 0.030708244377916433 -0.013920286794196771 -0.023477674332796048 0.01174982825556505 0.0091525495064202888 -0.016021877146241446 0.005077033965817347 -0.012803627821508453 0.010870478673375145 -0.0080996410603341278 0.032052767093314873 0.0017918875804169743 -0.023619829692684762 -0.017267136343829328 -0.014986139624828993 -0.017156737507638214 0.0026951658591981538 0.0270635609063423 -0.0017661389240796852 0.014327035399810065
leaf_weight=41985 19991 85216 53865 62635 41310 36279 19953 31053 19615 20491 78335 40010 6055 53468 11516 93033 22042 7587 169820 101740 46963 59467 98444 120490 119272 22415 10168 124329 23989 35249 7132 152782 35672 47726 54476 1154 25924 4737 10298 13769 39507 43598 130985 24321 33562 34439 39549 9616 2890 34380 31891 14809 46491 48472 56946 146252 30785 27160 81505 81992 18275 67490 3010 219109 41608 55605 95835 18766 7496 17804 18999 78323
leaf_count=41985 19991 85216 53865 62635 41310 36279 19953 31053 19615 20491 78335 40010 6055 53468 11516 93033 22042 7587 169820 101740 46963 59467 98444 120490 119272 22415 10168 124329 23989 35249 7132 152782 35672 47726 54476 1154 25924 4737 10298 13769 39507 43598 130985 24321 33562 34439 39549 9616 2890 34380 31891 14809 46491 48472 56946 146252 30785 27160 81505 81992 18275 67490 3010 219109 41608 55605 95835 18766 7496 17804 18999 78323
internal_value=0.000662104 0.0112983 -0.0128581 0.00894375 0.00218699 -0.00153817 -0.00884364 0.0217769 0.00220138 0.0174867 -0.0233069 0.0311096 0.0255005 -0.0073561 -0.0115834 -0.00882995 0.0281742 0.00817616 0.00768838 0.010437 0.0498406 -0.00233611 -0.0210456 0.00873088 -0.0160317 0.0487848 -0.0024678 0.00411584 -0.00829621 0.0200124 0.0103515 -0.0219384 -0.0167428 -0.000925545 0.00262529 -0.0251493 0.00671606 0.00292747 0.00481008 0.0493121 -0.0017888 0.0178785 -0.0253894 0.0140487 -0.0184489 -0.00955138 -0.0224774 -0.018484 -0.00953219 0.0188785 -0.0319049 0.00638482 0.0143891 -0.00865145 -0.0278517 0.0164518 0.0204026 -0.0412743 0.00210735 -0.0124979 -0.00228419 -0.00291375 -0.00945046 0.00535139 -0.025986 -0.0194993 -0.0167844 -0.00845174 -0.0213967 0.0316811 -0.0132314 0.0190607
internal_weight=3.63192e+06 2.03277e+06 1.59916e+06 1.94755e+06 655424 614114 492919 670792 1.27676e+06 581844 943735 227649 187639 491129 472966 404504 121195 785629 778042 608222 88948 319997 838240 354195 377281 46274 243470 244819 192953 87435 52186 209537 171132 233302 185576 460959 127044 45054 364955 33760 117740 141365 459805 60600 161034 68001 328820 75213 56755 243267 78936 335658 120874 167744 68462 208887 77276 105495 101120 135460 40317 124976 70500 320849 51224 249884 194279 78233 39387 23859 29297 109376
internal_count=3631925 2032766 1599159 1947550 655424 614114 492919 670792 1276758 581844 943735 227649 187639 491129 472966 404504 121195 785629 778042 608222 88948 319997 838240 354195 377281 46274 243470 244819 192953 87435 52186 209537 171132 233302 185576 460959 127044 45054 364955 33760 117740 141365 459805 60600 161034 68001 328820 75213 56755 243267 78936 335658 120874 167744 68462 208887 77276 105495 101120 135460 40317 124976 70500 320849 51224 249884 194279 78233 39387 23859 29297 109376
cat_boundaries=0 1 2 3 4 5 6 7 8 9
cat_threshold=139 452 641 19 158 451 832 320 67
is_linear=0
shrinkage=0.0886469


Tree=8
num_leaves=73
num_cat=14
split_feature=78 75 65 79 69 76 75 76 30 51 90 64 85 7 77 75 49 77 27 52 52 45 90 69 105 45 0 72 113 99 24 88 69 55 45 90 49 75 24 106 99 76 90 113 113 72 59 77 50 45 54 52 75 55 80 77 52 49 113 106 49 107 88 66 7 90 113 75 30 85 42 81
split_gain=54437.6 42089.9 29587.7 23020.3 22703.7 11428 7766.42 7625.38 5058.23 4752.2 4462.09 4025.73 3231.37 3196.31 3165.15 2993 2926.36 2653.34 2429.31 2289.95 2068.07 2031.31 1859.64 1985.61 1849.51 1816.45 1684.6 1529.05 1414.83 1318.77 1292.49 1286.5 1270.04 1230.04 1221.56 1216.68 1207.65 1151.37 1387.67 1107.37 1097.67 1093.56 1088.64 1120.24 1071.49 1044.92 1032.83 1004.62 1947.03 1000.31 979.593 958.662 896.143 884.862 882.256 878.106 869.927 901.727 832.997 823.274 777.918 765.508 762.069 737.922 704.037 773.072 700.212 688.956 685.45 682.385 677.198 674.885
threshold=1.0000000180025095e-35 6.6246678829193124 1.5000000000000002 1.0000000180025095e-35 -1.0000000180025095e-35 5.2950000762939462 5.4989993572235116 6.1499998569488534 5.1250000000000009 1.0000000180025095e-35 0 -1.0000000180025095e-35 1.0000000180025095e-35 6.9299998283386239 1.0000000180025095e-35 6.8974313735961923 3.6250000000000004 1.0000000180025095e-35 1.0000000180025095e-35 6.4436945915222177 6.4425883293151864 1 2 1.1840170025825503 1.0000000180025095e-35 3 1.4253905415534975 0.62500000000000011 4 5.3750000000000009 0.18328517675399783 4.5000000000000009 1.0744051933288576 1.0000000180025095e-35 5 6 2.3750000000000004 6.4703009128570566 0.52360680699348461 1.0000000180025095e-35 7.5799999237060556 4.3750000000000009 7 8 9 2.3750000000000004 1.0000000180025095e-35 1.0000000180025095e-35 -1.0000000180025095e-35 10 1.0000000180025095e-35 6.6246678829193124 5.0761470794677743 1.0000000180025095e-35 1.0000000180025095e-35 1.0000000180025095e-35 6.4509029388427743 2.1250000000000004 11 1.0000000180025095e-35 0.62500000000000011 1.0000000180025095e-35 5.5000000000000009 0.240384615957737 6.7049999237060556 12 13 5.6673216819763192 6.4399998188018808 1.0000000180025095e-35 5.5000000000000009 1.0000000180025095e-35
decision_type=2 2 2 2 2 2 2 2 2 2 1 2 2 2 2 2 2 2 2 2 2 9 1 2 2 9 2 2 9 2 2 2 2 2 9 1 2 2 2 2 2 2 1 9 9 2 2 2 2 9 2 2 2 2 2 2 2 2 9 2 2 2 2 2 2 1 9 2 2 2 2 2
left_child=1 3 15 4 9 6 17 8 22 -1 12 71 19 21 24 31 30 52 42 33 35 55 -4 25 49 39 -15 -11 -27 -20 59 -3 44 58 -21 46 -29 61 51 56 54 -19 43 -16 64 -14 -10 53 -49 -13 -50 -39 -6 -30 62 -12 -24 -58 -8 -9 -51 63 -17 -23 65 -22 69 -2 -33 -44 -26 -7
right_child=67 2 7 -5 5 11 10 16 20 27 13 14 45 26 18 40 -18 41 29 34 32 37 23 -25 70 28 -28 36 47 -31 -32 68 -34 -35 -36 -37 -38 38 -40 -41 -42 -43 66 -45 -46 -47 -48 48 50 60 -52 -53 -54 -55 -56 -57 57 -59 -60 -61 -62 -63 -64 -65 -66 -67 -68 -69 -70 -71 -72 -73
leaf_value=0.09483294338279713 0.088389764013226541 0.011116093017872039 0.012513533311047426 0.032969901662791845 0.048794866365579788 0.009198178250887765 0.015073050043601635 -0.0097453850000590661 -0.0069852463367135109 0.054535219849455009 -0.01371644129876487 -0.0030902412974685091 0.030531247176426062 -0.0070133353635044521 0.055186227655642829 0.0021930993937752602 -0.024978621124686323 0.073019497836509989 -0.0048190176902162011 0.028415520769657844 -0.024547940410721922 0.019528450362680406 0.05195749574529334 0.0068078237752320133 -0.028962944218553336 -0.012898550212995552 -0.031434242638211561 0.040602404014558266 0.00043257135455564664 0.02979761788843819 -0.020448276686915408 0.044851681552593212 -0.003382425769825852 -0.018980724407035625 0.012209783992829966 -0.019955322982941268 0.014226319023882841 -0.0013864304424124857 -0.01909462063727612 -0.028925890921938376 -0.0084205177873115187 0.027018001734779969 -0.0080771703612944178 -0.01498790686217732 -0.012262485975581718 0.077854852653079176 0.0072995435791132239 0.031346562631327998 -0.018276216760128736 0.0040109752277245466 -0.0045143570640240318 0.022617214624264272 0.010216027874947707 -0.01208291531631645 0.021609223231716893 0.0032732665577616983 -0.0044315439832704282 -0.017696130662920362 0.0007358750705966998 -0.022287114925381792 -0.013319145400361545 0.024122947106557439 0.014952045951627913 0.0049464813933386706 -0.025727344752458969 -0.014360123868645358 0.0065767005053564637 0.051323027072303039 0.018897387511940297 0.016657792472548189 -0.006907195418868777 0.032515708102141674
leaf_weight=43852 18028 105192 38461 89947 13342 59678 52296 130693 114379 19976 35335 59245 5710 29356 3029 280035 114564 37023 15329 66688 32599 32786 1227 52228 31060 75982 15059 41775 186922 30267 55196 26556 34055 13093 51513 21927 49867 55742 17913 15581 30014 7937 62559 47215 234206 10705 23391 7644 45419 9650 39345 12275 28947 24539 14846 18211 24733 33186 60598 15898 124023 18866 42102 202499 34910 106830 34975 96623 23961 8063 6373 7876
leaf_count=43852 18028 105192 38461 89947 13342 59678 52296 130693 114379 19976 35335 59245 5710 29356 3029 280035 114564 37023 15329 66688 32599 32786 1227 52228 31060 75982 15059 41775 186922 30267 55196 26556 34055 13093 51513 21927 49867 55742 17913 15581 30014 7937 62559 47215 234206 10705 23391 7644 45419 9650 39345 12275 28947 24539 14846 18211 24733 33186 60598 15898 124023 18866 42102 202499 34910 106830 34975 96623 23961 8063 6373 7876
internal_value=0.000635353 -0.00132408 -0.00983605 0.00972354 0.00700717 0.00313676 0.00979983 -0.0163005 -0.0129413 0.039003 0.00668563 -0.00734997 0.0158702 0.00122105 -0.0104983 0.00826862 -0.028486 0.0347366 -0.00238205 0.0133114 -0.0185412 0.00376473 -0.00675579 -0.00818189 -0.0175957 -0.0100628 -0.0213217 0.0292884 -0.00757735 0.0156154 -0.0220616 0.0185669 -0.0216614 0.0049963 0.0221742 -0.00989337 0.024444 0.00629161 -0.0025789 -0.0226969 0.00389925 0.0497295 -0.00764783 -0.0183874 -0.0230324 0.0539433 -0.00680445 -0.00487135 -0.012582 -0.0140966 -0.0164462 0.00320204 0.0187965 -0.00150198 0.00534614 -0.0122838 -0.0171578 -0.0187228 0.00797932 -0.017708 -0.0183463 0.00929083 0.00437236 0.00791312 -0.0282964 -0.025479 -0.00253572 0.060747 0.0301945 -0.00761549 -0.0356284 0.0127731
internal_weight=3.63192e+06 3.51727e+06 1.98662e+06 1.53065e+06 1.44071e+06 1.28524e+06 785894 1.46392e+06 1.14756e+06 155470 698645 499342 260603 438042 431788 522706 316351 87249 201437 244188 602297 393627 545267 506806 230351 454578 44415 111618 379851 45596 201787 155709 442600 125987 118201 159697 91642 340081 85930 74727 366997 44960 155841 50244 408545 16415 137770 303869 92408 192918 84764 68017 42289 211461 336983 53546 59146 57919 112894 146591 133673 254151 322137 235285 174339 139429 105597 114651 50517 70622 37433 67554
internal_count=3631925 3517274 1986621 1530653 1440706 1285236 785894 1463915 1147564 155470 698645 499342 260603 438042 431788 522706 316351 87249 201437 244188 602297 393627 545267 506806 230351 454578 44415 111618 379851 45596 201787 155709 442600 125987 118201 159697 91642 340081 85930 74727 366997 44960 155841 50244 408545 16415 137770 303869 92408 192918 84764 68017 42289 211461 336983 53546 59146 57919 112894 146591 133673 254151 322137 235285 174339 139429 105597 114651 50517 70622 37433 67554
cat_boundaries=0 1 2 3 4 5 6 7 8 9 10 11 12 13 14
cat_threshold=526 4 2 4 272 1 30 384 257 976 1 457 328 340
is_linear=0
shrinkage=0.0886469


Tree=9
num_leaves=73
num_cat=16
split_feature=78 53 79 75 75 74 77 67 75 52 71 67 75 109 76 50 79 30 48 75 89 44 77 98 67 80 113 100 77 84 113 72 67 77 76 89 7 79 76 74 100 44 75 89 20 52 69 82 44 67 72 21 6 112 67 71 72 44 75 7 99 44 55 76 76 75 84 44 100 23 110 44
split_gain=48636 42905.9 23395.2 21617.4 14303 6954.89 6264.43 6136.16 5342.27 3666.44 2700.04 2648.23 2395.92 2222.14 2128.97 1998.35 2156.05 2127.2 1883.17 1865.82 1854.64 1745.38 1668.35 1637.78 1554.62 1544.55 1507.39 1514.23 1479.95 1421.95 1287.72 1255.81 1227.58 1210.71 1188.33 1184.47 1176.82 1172.75 1098.72 1097.03 1051.3 1050.12 1015.88 989.58 975.363 951.959 925.981 904.579 1533.51 917.498 899.731 873.063 851.832 848.329 839.651 825.756 908.235 824.497 801.601 778.594 753.996 742.033 740.497 784.338 735.351 728.647 719.213 718.581 714.172 706.18 700.176 665.051
threshold=1.0000000180025095e-35 5.1050000190734872 1.0000000180025095e-35 5.8012783527374276 6.4461941719055185 1.0000000180025095e-35 1.0000000180025095e-35 0 6.5693907737731942 7.258594512939454 0.90875205397605907 1 6.8707101345062265 3.5000000000000004 6.7249999046325692 -1.0000000180025095e-35 1.0000000180025095e-35 5.3750000000000009 -0.98121017217636097 5.8734397888183603 0.78174602985382091 2 1.0000000180025095e-35 6.2987723350524911 3 1.0000000180025095e-35 4 1.0000000180025095e-35 1.0000000180025095e-35 1.0000000180025095e-35 5 1.0000000180025095e-35 6 1.0000000180025095e-35 5.0450000762939462 0.77350428700447094 6.2550001144409189 1.0000000180025095e-35 6.3750000000000009 1.0000000180025095e-35 1.0000000180025095e-35 7 4.6832351684570321 0.19090909510850909 0.51923078298568737 6.7287070751190194 1.1840170025825503 1.0000000180025095e-35 8 9 1.1250000000000002 10 5.2448189258575448 0.73863637447357189 11 0.95323583483695995 3.1250000000000004 12 5.6858818531036386 4.8350000381469735 4.5350000858306894 13 1.0000000180025095e-35 5.9349999427795419 4.9949998855590829 5.7320923805236825 1.0000000180025095e-35 14 1.0000000180025095e-35 1.0153881907463076 2.5000000000000004 15
decision_type=2 2 2 2 2 2 2 1 2 2 2 1 2 2 2 2 2 2 2 2 2 9 2 2 1 2 9 2 2 2 9 2 1 2 2 2 2 2 2 2 2 9 2 2 2 2 2 2 9 1 2 9 2 2 1 2 2 9 2 2 2 9 2 2 2 2 2 9 2 2 2 9
left_child=1 4 3 13 5 6 19 14 11 18 20 22 26 28 15 17 55 64 21 42 31 38 41 29 40 45 33 -28 39 -13 -24 58 -33 -9 -19 71 62 60 -10 61 -21 -5 -1 -15 -29 47 52 49 -49 -20 -30 -11 -47 -23 -12 -17 -57 -51 -8 -16 -22 -3 63 -25 -6 -2 -45 -42 70 -38 -26 -14
right_child=65 2 -4 8 7 -7 10 12 9 51 54 23 35 43 59 16 -18 34 25 24 37 53 30 36 68 -27 27 44 50 -31 -32 32 -34 -35 -36 -37 69 -39 -40 -41 67 -43 -44 66 -46 46 -48 48 -50 57 -52 -53 -54 -55 -56 56 -58 -59 -60 -61 -62 -63 -64 -65 -66 -67 -68 -69 -70 -71 -72 -73
leaf_value=0.062136524901446069 0.078263393687755728 -0.017678490417922216 0.029565826354655725 -0.0085736671472115365 0.041800164686887437 0.075894784800622159 0.048289448176776065 0.0017602942270658929 -0.010315301755716816 -0.024737867752870343 0.042772303070020501 -0.0056523363706302643 -0.011281098566216213 0.040445511356911781 0.0066625701869873774 0.0044616327109208813 0.026295736839633023 0.018553276820609668 -0.0038033878374133965 0.032500400444455589 0.021258341160427786 -0.00069417092658992602 -0.0042731476871722676 -0.0032833077133854393 -0.0014058915767835201 0.0051212248073530522 0.0019314227299601866 -0.0077769267846513274 0.069419884129299572 0.020601812320320701 0.022474019190857196 0.030626759267855644 0.048513439041621212 0.024788004639575898 0.0049896856242185204 -0.016118908507152571 -0.013270584476430357 0.034798389577169075 -0.024399296148245025 0.11705783893208779 0.027665777696281483 0.0032228591393729947 0.014664483817110149 -0.0020889945780566367 -0.025107898398612372 -0.0071490489002768703 -0.0001846644720534258 -0.0079946336603297398 -0.027692268500026568 -0.0070241578702033769 0.037544302676313826 -0.012485085705129491 -0.016906623444709629 -0.010459634575176608 0.005867435712192808 -0.0022988731913107779 -0.022956769522736703 -0.016621820000114789 0.0064522438503056157 -0.0034878856048529278 -0.013034175824490821 0.017139559594217538 -0.029592452933340955 -0.011749693078591396 0.019636843296717305 0.045953762237955532 0.036418500973051715 0.0023434333231844755 -0.0060084745484081927 -0.025934023540183839 0.0097663605998417422 -0.0031325844032194534
leaf_weight=9751 21893 4325 48579 76286 31791 42197 6040 69373 150316 79033 14708 77712 56921 6687 51855 117913 7819 76772 65000 19689 32071 104753 26594 67583 59216 12264 83582 49846 20664 11232 43546 25588 78272 30781 181034 49436 54284 7246 16475 3538 9183 43006 105461 37541 13985 31301 12205 31557 23512 50452 17384 27243 303613 40054 46046 57374 7942 77087 14013 125617 6791 33992 8115 75250 74806 92758 6010 33653 62010 26888 47943 96468
leaf_count=9751 21893 4325 48579 76286 31791 42197 6040 69373 150316 79033 14708 77712 56921 6687 51855 117913 7819 76772 65000 19689 32071 104753 26594 67583 59216 12264 83582 49846 20664 11232 43546 25588 78272 30781 181034 49436 54284 7246 16475 3538 9183 43006 105461 37541 13985 31301 12205 31557 23512 50452 17384 27243 303613 40054 46046 57374 7942 77087 14013 125617 6791 33992 8115 75250 74806 92758 6010 33653 62010 26888 47943 96468
internal_value=0.000605576 -0.0012465 -0.0112886 -0.0130573 0.00829932 0.0192075 0.0166697 0.00258505 -0.0159977 -0.0196882 0.0279878 -0.00858863 -0.00555809 0.0216315 0.00758912 0.0102898 0.00294636 0.0141398 -0.0178847 0.00914048 0.0337196 -0.0122826 -0.000276018 -0.0134927 0.00455599 -0.0207605 0.000293928 -0.0054075 0.0308165 -0.00326492 0.0105732 0.0393674 0.0432888 0.00868544 0.00978458 -0.0127014 -0.0174123 0.0185412 -0.0184642 0.0193133 0.0164987 -0.00665518 0.0183599 0.00702262 -0.0156888 -0.0214026 -0.0243981 -0.0172032 -0.0272221 -0.0143376 0.0434704 -0.0352765 -0.0252721 -0.00516079 0.011947 0.00100092 -0.00699482 -0.0187059 0.0190567 -0.000863064 0.0124361 0.0149519 -0.0127836 -0.0113035 0.0246729 0.0574239 0.00214714 0.00870795 0.000140879 -0.0260199 0.00452244 -0.00885542
internal_weight=3.63192e+06 3.51727e+06 1.71408e+06 1.6655e+06 1.80319e+06 619878 577681 1.18332e+06 1.53536e+06 1.02486e+06 230775 510496 450392 130141 732923 555451 191048 364403 918589 346906 170021 311598 189432 321064 231694 606991 247567 147413 79903 88944 70140 123913 103860 100154 257806 202825 232120 46108 166791 41855 62525 119292 115212 50238 63831 594727 347119 247608 55069 192539 38048 106276 334914 144807 60754 183229 65316 127539 20053 177472 38862 38317 150948 142833 106597 114651 43551 42836 169169 81172 107159 153389
internal_count=3631925 3517274 1714081 1665502 1803193 619878 577681 1183315 1535361 1024865 230775 510496 450392 130141 732923 555451 191048 364403 918589 346906 170021 311598 189432 321064 231694 606991 247567 147413 79903 88944 70140 123913 103860 100154 257806 202825 232120 46108 166791 41855 62525 119292 115212 50238 63831 594727 347119 247608 55069 192539 38048 106276 334914 144807 60754 183229 65316 127539 20053 177472 38862 38317 150948 142833 106597 114651 43551 42836 169169 81172 107159 153389
cat_boundaries=0 1 2 3 4 5 6 7 8 9 10 11 12 13 14 15 16
cat_threshold=275 649 964 528 139 708 385 157 64 262 158 645 899 13 193 532
is_linear=0
shrinkage=0.0886469


Tree=10
num_leaves=73
num_cat=19
split_feature=78 75 67 79 69 75 45 76 30 30 87 67 67 7 49 75 7 67 90 84 52 54 89 85 30 55 82 60 7 49 21 89 49 80 87 75 84 71 102 76 113 75 42 90 90 85 104 105 69 23 99 81 102 67 52 91 69 25 105 81 70 67 99 75 73 90 69 67 113 113 113 90
split_gain=42906 30250.4 21201.9 16098.2 16611.4 8416.4 5603.3 5499.31 4415.62 4367.53 3652.69 3380.8 2737.47 2674.23 2608.65 2456.24 2273.09 2203.96 2119.28 1862.08 2286 1932.65 1788.31 1545.62 1492.64 1491.57 1436.51 1525.7 1398.13 1353.66 1261.61 1205.31 1180.3 1094.06 1076.02 1149.87 1060.85 1037.85 1008.9 991.343 966.778 940.977 1398.2 934.376 916.618 893.103 843.483 977.851 841.898 830.211 794.773 808.505 783.308 774.565 773.034 855.962 751.881 762.681 748.148 812.211 740.045 814.091 738.422 737.405 730.152 720.303 720.232 710.838 709.654 705.535 693.249 669.74
threshold=1.0000000180025095e-35 6.6246678829193124 0 1.0000000180025095e-35 -1.0000000180025095e-35 5.4989993572235116 1 5.5050001144409189 6.7049999237060556 4.8450000286102304 1.0000000180025095e-35 2 3 6.6000001430511483 3.6250000000000004 6.9369800090789804 5.1050000190734872 4 5 1.0000000180025095e-35 6.3704209327697763 1.0000000180025095e-35 0.96666666865348827 1.0000000180025095e-35 6.7799999713897714 1.0000000180025095e-35 1.0000000180025095e-35 1.0000000180025095e-35 5.0250000953674325 1.8750000000000002 6 0.75961539149284374 2.3750000000000004 1.0000000180025095e-35 1.0000000180025095e-35 4.7805891036987314 1.0000000180025095e-35 0.95323583483695995 1.0000000180025095e-35 6.0499999523162851 7 6.7613482475280771 3.5000000000000004 8 9 1.0000000180025095e-35 1.0000000180025095e-35 1.0000000180025095e-35 1.4253905415534975 -1.0000000180025095e-35 4.6449999809265146 1.0000000180025095e-35 1.0000000180025095e-35 10 7.1896047592163095 11 1.1840170025825503 -1.0000000180025095e-35 1.0000000180025095e-35 1.0000000180025095e-35 0.29682953655719763 12 5.9749999046325692 5.7320923805236825 -1.0000000180025095e-35 13 -1.0000000180025095e-35 14 15 16 17 18
decision_type=2 2 1 2 2 2 9 2 2 2 2 1 1 2 2 2 2 1 1 2 2 2 2 2 2 2 2 2 2 2 9 2 2 2 2 2 2 2 2 2 9 2 2 1 1 2 2 2 2 2 2 2 2 1 2 1 2 2 2 2 2 1 2 2 2 1 2 1 9 9 9 1
left_child=1 3 15 4 10 12 17 8 16 25 -1 50 28 19 33 22 26 43 46 21 -21 38 64 39 30 31 29 52 -6 44 -17 36 -12 40 -14 -36 60 -29 48 -23 -9 62 71 -7 70 56 47 -19 -13 -10 -11 -52 -28 -33 55 -26 -31 -58 59 -44 61 65 -42 -2 -3 -8 -66 -5 -16 -47 -4 -43
right_child=63 2 7 67 5 6 9 14 49 11 32 13 34 -15 68 24 -18 18 -20 20 -22 23 -24 -25 54 -27 27 37 -30 45 -32 53 -34 -35 35 -37 -38 -39 -40 -41 41 42 58 -45 -46 69 -48 -49 -50 -51 51 -53 -54 -55 -56 -57 57 -59 -60 -61 -62 -63 -64 -65 66 -67 -68 -69 -70 -71 -72 -73
leaf_value=0.076827712065367371 0.071325586509132011 0.023803977579579184 0.00081451820382434127 0.039456465114524462 0.024166310457952974 -0.0010987312213245938 0.05969369750875151 0.010052483257905531 -0.0023236457503308635 0.020877215070529302 0.039346380042503473 -0.0024760087209235995 0.060572905365997992 -0.024003502630991307 -0.023552652512779024 0.0002344455633262182 -0.0096789189273182117 -0.012630663146941315 -0.0025348423887446964 -0.0088229766920359717 0.020891644728180909 -0.0083783557660838601 -0.0096391989987927775 0.040591163109058796 0.027553366676756737 -0.0068389666713375968 -0.016911592110730827 0.010068120982478381 -0.013484228326631521 -0.0069262601423115099 0.0094058697890856378 -0.0039274063116383501 0.014938705890587777 0.0053994015679347529 0.065529374446817432 0.014255734528683619 0.034171116873268792 -0.0088028763563236367 0.037040356961210601 -0.019184652379225394 -0.0089651394137662977 -0.0036107561689468072 -0.022606340068169348 0.036925070639619424 -0.0079837720829769067 0.042313852156175419 -0.0063318261056168898 -0.026243351490913853 0.021942490187286265 -0.016380523411795755 0.0035299659887285239 0.025891936720854502 0.039458987147044454 0.0096849347511378768 0.0029849209981445456 -0.0096755084137503701 0.019842016034538897 -0.0064169943733442232 0.038618040681515996 -0.0094143057735041995 0.023877067879294899 0.0039284692211017189 0.029561793284247278 0.041880103704679657 0.13139110404229604 0.012822459219681715 0.0098342345582022126 0.022004968504804504 -0.014852014246819124 -0.00017563365736221725 0.0098126231116623507 -0.011839640080391888
leaf_weight=48697 21893 72280 89833 28932 25477 23179 6633 5821 13596 35923 47540 143371 33200 21504 83499 180698 285556 78831 90517 18663 32602 111581 17651 4377 3376 30877 60121 19902 13320 197990 125445 41812 59233 10038 11406 19005 23043 20197 12399 38024 64956 34141 70989 14143 32058 4386 43343 24006 8474 131773 91007 9908 2109 65561 36406 75532 10829 11283 1168 19840 43130 69471 3256 92758 1067 100449 89808 61015 55378 6972 64650 84017
leaf_count=48697 21893 72280 89833 28932 25477 23179 6633 5821 13596 35923 47540 143371 33200 21504 83499 180698 285556 78831 90517 18663 32602 111581 17651 4377 3376 30877 60121 19902 13320 197990 125445 41812 59233 10038 11406 19005 23043 20197 12399 38024 64956 34141 70989 14143 32058 4386 43343 24006 8474 131773 91007 9908 2109 65561 36406 75532 10829 11283 1168 19840 43130 69471 3256 92758 1067 100449 89808 61015 55378 6972 64650 84017
internal_value=0.000561056 -0.0011785 -0.00839468 0.0081873 0.00591575 0.00260511 0.000494326 -0.014435 -0.010665 0.0038446 0.033284 -0.00137629 0.0269849 -0.00557332 -0.0227154 0.00548962 -0.00809989 -0.0106171 -0.0137737 -0.0038048 0.0118741 -0.00633065 0.014133 -0.0134655 0.00178171 0.011078 -0.00461214 -0.014026 0.00841733 -0.00230754 0.00501949 0.0127253 0.0241075 -0.0179887 0.0383018 0.0262605 0.0161848 -0.000541317 0.000358304 -0.0149847 -0.0190046 -0.0197519 -0.022689 0.0094029 0.0033117 -0.00683632 -0.0203743 -0.0247474 -0.00162697 -0.0248855 0.0106157 0.00658548 -0.0227149 0.00490476 -0.00681404 -0.0117441 -0.00808724 0.00741608 -0.0308837 -0.0317903 0.0142866 0.0117435 -0.0107058 0.0539275 0.0170328 0.0165916 0.0117437 0.0445712 -0.0327294 0.0174036 0.00614237 -0.0163086
internal_weight=3.63192e+06 3.51727e+06 1.98662e+06 1.53065e+06 1.44071e+06 1.28524e+06 1.18283e+06 1.38436e+06 951255 908809 155470 527833 102408 390995 433103 602263 805886 274019 236697 369491 51265 318226 180806 153982 421457 380976 520330 102329 38797 418001 306143 350099 106773 294226 63611 30411 242726 40099 164244 149605 284188 278367 210155 37322 186541 231460 146180 102837 151845 145369 136838 100915 62230 107373 115314 78908 220102 22112 91997 90829 219683 176553 68212 114651 163155 107082 90875 89947 138877 11358 154483 118158
internal_count=3631925 3517274 1986621 1530653 1440706 1285236 1182828 1384358 951255 908809 155470 527833 102408 390995 433103 602263 805886 274019 236697 369491 51265 318226 180806 153982 421457 380976 520330 102329 38797 418001 306143 350099 106773 294226 63611 30411 242726 40099 164244 149605 284188 278367 210155 37322 186541 231460 146180 102837 151845 145369 136838 100915 62230 107373 115314 78908 220102 22112 91997 90829 219683 176553 68212 114651 163155 107082 90875 89947 138877 11358 154483 118158
cat_boundaries=0 1 2 3 4 5 6 7 8 9 10 11 12 13 14 15 16 17 18 19
cat_threshold=18 4 530 268 769 448 452 128 73 90 133 2 542 10 23 410 10 472 264
is_linear=0
shrinkage=0.0886469


Tree=11
num_leaves=73
num_cat=24
split_feature=78 53 75 75 75 69 77 53 44 90 75 77 53 72 90 52 67 100 90 90 53 7 74 87 61 76 70 91 67 44 100 67 77 113 24 53 113 70 70 89 67 49 26 84 67 67 21 73 44 7 42 90 26 48 44 83 69 44 90 52 69 75 95 72 75 87 44 90 95 113 73 7
split_gain=37559.7 30934.4 12488.1 12052.3 6109.57 5428.19 5708.24 5231.83 4810.38 2460.02 2384.82 2177.95 2921.77 2061.13 1958.67 1874.72 1797.79 1795.19 1655.3 1529.5 1465.5 1401.16 1375.89 1361.96 1337.14 1307.66 1240.77 1234.47 1227.87 1133.35 1120.57 1099.16 1071.53 1075.48 1041.1 1036.41 1028.72 985.315 1011.88 983.536 1024.49 960.436 1130.38 1007 943.75 907.078 996.799 895.885 894.75 879.962 961.479 865.257 835.942 810.169 792.469 783.57 753.835 746.812 745.289 740.922 725.602 717.093 701.735 684.189 683.356 942.872 667.015 1646.56 758.81 665.955 651.798 651.678
threshold=1.0000000180025095e-35 5.3250000476837167 5.7405800819396982 6.4431371688842782 6.7613482475280771 -1.0000000180025095e-35 1.0000000180025095e-35 3.7549999952316289 0 1 6.8707101345062265 1.0000000180025095e-35 6.3350000381469735 1.1250000000000002 2 6.4793264865875253 3 1.0000000180025095e-35 4 5 1.0000000180025095e-35 4.9849998950958261 1.0000000180025095e-35 1.0000000180025095e-35 1.0000000180025095e-35 -1.0000000180025095e-35 -0.29682953655719752 6 7 8 1.0000000180025095e-35 9 1.0000000180025095e-35 10 -0.29682953655719752 6.1050000190734872 11 0.36786942183971411 0.18328517675399783 0.78174602985382091 12 1.1250000000000002 3.3750000000000004 1.0000000180025095e-35 13 14 15 1.0000000180025095e-35 16 6.2650001049041757 3.5000000000000004 17 1.8750000000000002 -0.91537818312644947 18 1.0000000180025095e-35 -1.0000000180025095e-35 19 20 6.1948866844177255 2.0757826566696171 5.7320923805236825 4.1250000000000009 3.3750000000000004 6.8707101345062265 4.5000000000000009 21 22 2.8750000000000004 23 -1.0000000180025095e-35 6.1050000190734872
decision_type=2 2 2 2 2 2 2 2 9 1 2 2 2 2 1 2 1 2 1 1 2 2 2 2 2 2 2 1 1 9 2 1 2 9 2 2 9 2 2 2 1 2 2 2 1 1 9 2 9 2 2 1 2 2 9 2 2 9 1 2 2 2 2 2 2 2 9 1 2 9 2 2
left_child=1 3 19 5 8 23 20 10 11 25 37 17 18 44 15 54 27 24 26 35 60 39 32 -1 59 -8 -13 -15 48 -30 57 -28 -21 -34 49 -3 -36 38 56 40 -11 -9 43 64 -10 -12 66 -23 -16 -17 -51 -49 -18 -32 -6 -41 -5 -22 -25 -4 -7 -2 -27 -55 -43 -66 67 -47 -68 -42 -39 -69
right_child=61 2 4 7 14 6 9 41 13 21 45 12 -14 16 28 34 52 -19 -20 22 30 47 -24 58 -26 62 31 -29 29 -31 53 -33 33 -35 36 -37 -38 70 -40 55 69 42 -44 -45 -46 46 -48 51 -50 50 -52 -53 -54 63 -56 -57 -58 -59 -60 -61 -62 -63 -64 -65 65 -67 68 71 -70 -71 -72 -73
leaf_value=0.066216412103480435 0.065002794424791024 -0.0077198489385336515 0.0023402108813354878 0.11893834560099042 -0.0086738306738218841 0.012298273635173319 0.084963019123256781 0.0008566781126419248 0.020173861084838138 0.041993518256490128 -0.0058284006658887617 0.023114048096263509 -0.01122204744943729 -0.012002954727956544 -0.02090560147281938 -0.0032937795053768286 0.00090301238416991639 -0.019227957203161488 -0.0039877068981173294 0.01006038698460965 0.010090251124372684 0.031597415053692374 0.12155575425436638 0.043265861953305777 -0.018515087869424414 0.0075037419126162755 0.018937932167639601 0.04235641031538976 -0.0082757920312780484 -0.019372280710786064 -0.0140228442091663 -0.010614592176159945 0.011225341295227105 0.05164048288265867 -0.018133981800803525 0.029104362850106275 -0.010714369617975743 0.024799524238854124 -0.0055426816893406443 0.032292228979123982 0.015730624334192363 -0.0010220474888062384 -0.010089085597070706 0.013241241980243953 0.0033340766612630023 0.016991245587203253 0.0091012633149700137 0.02298112229794437 -0.0050206839653639881 -0.0075088359683609949 -0.023236954335159762 -0.0098598168371442588 -0.010521059861084838 -0.0033314790395963106 0.00025737297922407668 0.011497281007272169 0.0091590834735647449 0.00062859169198677795 0.017788205251615175 -0.0072608818678023606 0.090004137764195496 0.038167562369160114 -0.018997875797193503 0.02124820901014407 -0.0047824120247471069 -0.017370149492227312 0.0071436181919437326 -0.0022195309891739259 -0.0013664483630416598 0.042378233704420586 0.011860779623433338 -0.018615208128900856
leaf_weight=42145 21893 21309 30842 1132 74602 105185 2678 132799 37650 55469 60113 25169 81949 2255 20378 64639 74897 67988 60167 35280 74518 18731 4251 17608 38816 52871 20134 6714 41278 142429 31301 15124 11881 25806 85549 9133 146776 51983 29101 14339 18992 134827 133102 15378 20582 13389 94032 7128 51709 39759 17233 14434 33377 44797 69003 22560 168327 93076 29796 148677 4191 92758 5413 9097 104942 22795 97413 26953 112526 22074 73265 33438
leaf_count=42145 21893 21309 30842 1132 74602 105185 2678 132799 37650 55469 60113 25169 81949 2255 20378 64639 74897 67988 60167 35280 74518 18731 4251 17608 38816 52871 20134 6714 41278 142429 31301 15124 11881 25806 85549 9133 146776 51983 29101 14339 18992 134827 133102 15378 20582 13389 94032 7128 51709 39759 17233 14434 33377 44797 69003 22560 168327 93076 29796 148677 4191 92758 5413 9097 104942 22795 97413 26953 112526 22074 73265 33438
internal_value=0.000531084 -0.00109649 -0.0105967 0.00617847 -0.012807 0.0156881 0.0126346 0.00117856 -0.00660999 0.0234039 0.00592047 -0.0111292 -0.00409434 0.00598044 -0.0182718 -0.0150297 -0.000790015 -0.0161059 0.00468239 0.0185098 0.00565585 0.0287798 0.0251425 0.0360401 -0.0121889 0.00807764 0.0150444 0.0373272 -0.0245767 -0.0284256 0.00194655 0.00431408 0.0222894 0.0326833 -0.0184959 0.00167635 -0.0219746 0.0116886 0.00780476 0.0331563 0.0378618 -0.00546263 -0.00758009 -0.00436306 0.0196132 0.00165482 0.00326438 0.0142935 -0.0147655 -0.0118512 -0.0198812 0.00197283 -0.0039507 -0.0063314 -0.00648709 0.0208455 0.0104272 0.00615465 0.0257313 -0.00896294 0.0142286 0.0504621 0.00529573 0.000256368 -0.00565442 -0.0103006 0.000642636 -0.0066072 0.00319074 0.0272222 0.0178456 -0.0128431
internal_weight=3.63192e+06 3.51727e+06 1.52536e+06 1.99192e+06 1.4177e+06 686403 596854 1.30552e+06 664341 234689 761672 488866 202543 175475 753355 497561 117243 286323 120594 107660 362165 173727 77218 89549 218335 60962 60427 8969 255794 183707 252789 35258 72967 37687 353956 30442 232325 323808 198560 133434 96535 543843 411044 277942 58232 437864 377751 40293 72087 121631 56992 21562 108274 85195 143605 36899 169459 167594 47404 179519 109376 114651 58284 53894 262564 127737 283719 73780 209939 41066 125248 60391
internal_count=3631925 3517274 1525356 1991918 1417696 686403 596854 1305515 664341 234689 761672 488866 202543 175475 753355 497561 117243 286323 120594 107660 362165 173727 77218 89549 218335 60962 60427 8969 255794 183707 252789 35258 72967 37687 353956 30442 232325 323808 198560 133434 96535 543843 411044 277942 58232 437864 377751 40293 72087 121631 56992 21562 108274 85195 143605 36899 169459 167594 47404 179519 109376 114651 58284 53894 262564 127737 283719 73780 209939 41066 125248 60391
cat_boundaries=0 1 2 3 4 5 6 7 8 9 10 11 12 13 14 15 16 17 18 19 20 21 22 23 24
cat_threshold=344 193 26 4 836 194 2 133 68 777 75 848 526 898 140 460 397 520 836 587 523 320 384 142
is_linear=0
shrinkage=0.0886469


Tree=12
num_leaves=73
num_cat=19
split_feature=78 53 79 75 75 69 67 75 90 79 75 52 67 75 76 50 30 75 79 108 82 67 44 81 105 45 89 44 47 7 51 72 76 44 85 89 48 113 44 83 44 90 47 55 52 21 44 90 52 30 67 85 47 112 6 106 67 75 26 52 26 100 52 21 81 69 83 21 82 72 49 75
split_gain=32629.8 26033.3 14104.4 13453 8843.41 3969.6 3615.68 3219.31 2727.59 2531.97 2490.21 1941.62 1730.31 1718.61 1617.62 1663.78 1754.29 1594.35 1482.77 1452.16 1340.27 1865.9 1338.4 1249.58 1166.82 1130.49 1185.19 1107.92 1107.26 1099.24 1065.6 1050.3 992.365 960.569 957.442 932.014 902.166 922.685 899.963 899.273 873.439 930.075 1121.14 847.209 826.066 815.656 804.909 961.885 798.038 762.769 760.717 759.336 757.55 754.287 750.007 691.743 683.929 681.531 679.841 629.919 629.663 627.686 611.335 686.127 607.681 637.389 693.512 591.693 585.787 657.874 584.967 1021.4
threshold=1.0000000180025095e-35 5.1050000190734872 1.0000000180025095e-35 5.8012783527374276 6.4431371688842782 -1.0000000180025095e-35 0 6.5693907737731942 1 1.0000000180025095e-35 5.4989993572235116 6.4425883293151864 2 5.2078967094421396 6.3949999809265146 -1.0000000180025095e-35 5.4049999713897714 6.8707101345062265 1.0000000180025095e-35 1.0000000180025095e-35 1.0000000180025095e-35 3 4 1.0000000180025095e-35 1.0000000180025095e-35 5 0.77350428700447094 6 0.18328517675399783 6.1549999713897714 1.0000000180025095e-35 0.62500000000000011 5.1150000095367441 7 1.0000000180025095e-35 0.77350428700447094 0.92970305681228649 8 9 1.0000000180025095e-35 10 11 0.18328517675399783 1.0000000180025095e-35 6.4874987602233896 12 13 14 6.9164731502532968 3.6550000905990605 15 1.0000000180025095e-35 0.91602516174316417 0.5634920895099641 7.2351520061492929 1.0000000180025095e-35 16 5.7320923805236825 2.3750000000000004 6.4489483833312997 2.6250000000000004 1.0000000180025095e-35 6.7759654521942148 17 1.0000000180025095e-35 1.7017783522605898 1.0000000180025095e-35 18 1.0000000180025095e-35 0.62500000000000011 3.3750000000000004 5.2078967094421396
decision_type=2 2 2 2 2 2 1 2 1 2 2 2 1 2 2 2 2 2 2 2 2 1 9 2 2 9 2 9 2 2 2 2 2 9 2 2 2 9 9 2 9 1 2 2 2 9 9 1 2 2 1 2 2 2 2 2 1 2 2 2 2 2 2 9 2 2 2 9 2 2 2 2
left_child=1 4 3 13 5 30 14 12 11 10 34 24 39 32 15 16 -6 19 -17 36 25 -22 59 31 -9 -12 43 56 44 46 -1 -14 -3 -21 70 -19 37 51 -18 61 41 42 -33 64 -24 -30 47 -13 62 -16 52 58 -28 -25 -50 -39 -15 -2 -8 -10 -41 -5 63 -31 65 66 -27 -40 69 -32 71 -7
right_child=57 2 -4 7 6 9 17 8 22 -11 20 29 23 27 49 18 38 35 -20 33 21 -23 28 53 -26 26 50 -29 45 48 68 40 -34 -35 -36 -37 -38 55 67 60 -42 -43 -44 -45 -46 -47 -48 -49 54 -51 -52 -53 -54 -55 -56 -57 -58 -59 -60 -61 -62 -63 -64 -65 -66 -67 -68 -69 -70 -71 -72 -73
leaf_value=0.059847015728908902 0.059240498253605792 0.069671793463180198 0.022615935827679283 0.0002027311910257065 0.024905941704201916 0.036728401783604397 0.0095897629830311391 -0.0038290692588422879 -0.0094109083388220962 0.022543885442641694 -0.0057255695340608839 -0.012974816284570395 -0.0012335761658024726 0.018487958385042625 0.012011239424675106 0.00053339008198335675 0.015617131246715954 -0.0047153220656772155 0.021713820372764744 -0.022085210795619037 0.052307046781450116 0.015894093437239864 -0.01802252397048033 -0.0032682242618475477 0.035605277077629331 0.006691340302003683 0.0096597700998619709 0.019280771471913163 -0.020056901626083101 -0.0067146676818847064 0.035802915649010003 0.018563828228487178 0.022078927072985595 -0.0009572209386677909 0.069688018430972901 -0.01298950352742136 0.0080252344177356855 -0.0029647013727011878 -0.00074660479169702814 0.024198153751230581 -0.011567384597929562 0.0060474408109796084 -0.025919480336702737 -0.0081151115484404159 -0.0035996801593397086 -0.012151493643339022 -0.0091809764998639926 -0.00044988486789008045 -0.0047873769843742482 -0.0015385100153916852 -0.0073583743450677435 0.035780242584300549 -0.01417852773078024 0.017527072829135779 -0.013448956802456247 -0.01828558157207278 -0.0064756472401282152 0.034784126311534172 -0.005663205166413875 0.0021972894856849448 0.00092938476056955905 -0.009347131647178545 -0.021561519228750957 -0.017489951990611485 0.022923323296919273 0.065100869885032775 0.02151339074487011 0.0093085566580565094 0.065891612134458252 0.012066030824716344 0.044277072984492703 -0.00024616761800159769
leaf_weight=38774 21893 14501 48579 103357 88081 22450 26861 170540 39294 33412 40446 20415 54541 11776 28137 183229 63280 153389 7819 16076 12339 39520 29921 19070 4941 156982 48467 61292 117176 32246 12493 3418 17025 14688 9997 49436 94435 51231 74703 20756 197916 23721 10070 15193 33196 59267 232647 78824 58753 212318 42692 7516 7643 12328 49474 16312 25547 92758 27108 17224 23080 42239 31149 49798 21608 4594 40829 75356 6593 27031 15512 16643
leaf_count=38774 21893 14501 48579 103357 88081 22450 26861 170540 39294 33412 40446 20415 54541 11776 28137 183229 63280 153389 7819 16076 12339 39520 29921 19070 4941 156982 48467 61292 117176 32246 12493 3418 17025 14688 9997 49436 94435 51231 74703 20756 197916 23721 10070 15193 33196 59267 232647 78824 58753 212318 42692 7516 7643 12328 49474 16312 25547 92758 27108 17224 23080 42239 31149 49798 21608 4594 40829 75356 6593 27031 15512 16643
internal_value=0.00051185 -0.00100515 -0.00882739 -0.0102007 0.00643051 0.0150785 0.00197403 -0.0125203 -0.0153851 0.0122195 0.0106249 -0.0124696 -0.0067688 0.0171645 0.00583271 0.00874284 0.012845 -0.00421372 0.00227077 0.000462666 0.00818849 0.0215534 -0.0225605 -0.0107329 -0.00434486 0.00635709 0.00803307 0.0114045 -0.0254562 -0.0150466 0.0328716 -0.012554 0.0351817 -0.0175941 0.0268538 -0.0100755 0.00294859 -0.00187002 0.00849943 -4.95369e-05 -0.0151249 -0.0026601 -0.0212381 0.0114066 -0.0153803 -0.0290619 -0.0118192 -0.00513296 -0.019884 -0.000127138 -0.000134459 0.00598647 0.00664988 0.00606412 -0.0144411 -0.00902158 -0.000638411 0.0470508 0.00231084 -0.010284 0.0110816 -0.00340098 -0.025088 -0.0210735 0.0127806 0.0112719 0.0105137 0.00475925 0.0237641 0.019683 0.0222358 0.0164556
internal_weight=3.63192e+06 3.51727e+06 1.71408e+06 1.6655e+06 1.80319e+06 613218 1.18998e+06 1.53536e+06 1.02486e+06 528327 494915 728787 510496 130141 732923 492468 301420 457052 191048 254227 430313 51859 296078 321064 175481 378454 338008 98615 239560 553306 84891 289666 31526 30764 64602 202825 223463 129028 213339 189432 235125 37209 13488 239206 63117 176443 331886 99239 221420 240455 98802 61485 56110 31398 108227 67543 37323 114651 53969 56518 43836 145596 113193 82044 224013 202405 197811 150059 46117 39524 54605 39093
internal_count=3631925 3517274 1714081 1665502 1803193 613218 1189975 1535361 1024865 528327 494915 728787 510496 130141 732923 492468 301420 457052 191048 254227 430313 51859 296078 321064 175481 378454 338008 98615 239560 553306 84891 289666 31526 30764 64602 202825 223463 129028 213339 189432 235125 37209 13488 239206 63117 176443 331886 99239 221420 240455 98802 61485 56110 31398 108227 67543 37323 114651 53969 56518 43836 145596 113193 82044 224013 202405 197811 150059 46117 39524 54605 39093
cat_boundaries=0 1 2 3 4 5 6 7 8 9 10 11 12 13 14 15 16 17 18 19
cat_threshold=275 30 649 4 832 4 598 24 201 522 525 192 157 19 4 586 578 832 452
is_linear=0
shrinkage=0.0886469


Tree=13
num_leaves=73
num_cat=17
split_feature=78 53 79 75 75 75 79 67 76 90 85 90 67 69 7 58 72 67 44 69 69 76 71 90 77 72 47 111 84 104 24 90 3 21 84 75 75 20 89 100 30 49 7 85 89 21 76 44 80 67 55 75 81 85 55 81 76 44 89 67 30 52 98 45 85 90 52 72 20 67 30 75
split_gain=28256.6 22118.6 13034.8 11899.8 7005.66 3514.62 2794.25 2451.16 2609.94 2351.59 1947.34 1856.99 1890.34 1785.51 1728.29 1697.67 1644.08 1611.9 1451.63 1373.1 1302.94 1272.62 1258.09 1329.73 1305.05 1216.34 1175.57 1082.25 1074.01 1044.34 973.041 961.793 906.891 886.107 873.274 841.206 827.162 804.054 936.258 796.403 776.594 748.745 940.298 742.526 717.783 710.109 709.845 694.432 1009.8 853.994 651.566 644.341 639.904 629.364 624.198 622.416 621.716 617.984 610.946 665.307 590.685 574.079 571.957 561.921 551.261 548.706 537.566 531.816 526.997 514.704 507.069 498.901
threshold=1.0000000180025095e-35 4.8750000000000009 1.0000000180025095e-35 5.8126070499420175 6.1682095527648935 6.5693907737731942 1.0000000180025095e-35 0 6.0650000572204599 1 1.0000000180025095e-35 2 3 -1.0000000180025095e-35 6.1549999713897714 1.0000000180025095e-35 -1.0000000180025095e-35 4 5 1.1840170025825503 -1.0000000180025095e-35 6.0899999141693124 0.95323583483695995 6 1.0000000180025095e-35 1.1250000000000002 0.18328517675399783 5.5000000000000009 1.0000000180025095e-35 1.0000000180025095e-35 0.18328517675399783 7 0.62500000000000011 8 1.0000000180025095e-35 4.7805891036987314 5.3886175155639657 0.89444443583488475 0.75961539149284374 1.0000000180025095e-35 3.6550000905990605 1.0000000180025095e-35 5.4249999523162851 1.0000000180025095e-35 0.96666666865348827 9 6.0350000858306894 10 1.0000000180025095e-35 11 1.0000000180025095e-35 5.6673216819763192 1.0000000180025095e-35 1.0000000180025095e-35 1.0000000180025095e-35 1.0000000180025095e-35 5.4049999713897714 12 0.10555555671453477 13 7.180000066757203 6.1652805805206308 6.6067328453063974 14 1.0000000180025095e-35 15 6.1775176525115976 0.87500000000000011 0.16025641560554507 16 6.2750000953674325 6.8707101345062265
decision_type=2 2 2 2 2 2 2 1 2 1 2 1 1 2 2 2 2 1 9 2 2 2 2 1 2 2 2 2 2 2 2 1 2 9 2 2 2 2 2 2 2 2 2 2 2 9 2 9 2 1 2 2 2 2 2 2 2 9 2 1 2 2 2 9 2 1 2 2 2 1 2 2
left_child=1 4 3 10 11 15 7 8 20 14 13 12 53 16 30 22 -3 36 61 25 -6 58 23 24 62 34 39 -24 56 37 47 63 -25 -33 67 -14 -13 38 54 -20 -10 -35 -43 -21 46 -28 60 48 -7 -49 70 -2 -44 -1 -27 -42 -15 -16 59 -19 -32 -11 -5 -22 -31 -30 -17 -9 -51 -12 -34 -46
right_child=51 2 -4 5 6 9 -8 19 40 18 69 17 35 28 57 66 -18 21 26 43 31 -23 27 32 -26 29 45 -29 65 64 44 33 50 41 -36 -37 -38 -39 -40 -41 55 42 52 -45 71 -47 -48 49 -50 68 -52 -53 -54 -55 -56 -57 -58 -59 -60 -61 -62 -63 -64 -65 -66 -67 -68 -69 -70 -71 -72 -73
